{"learner":{"attributes":{},"feature_names":[],"feature_types":[],"gradient_booster":{"model":{"gbtree_model_param":{"num_parallel_tree":"1","num_trees":"300"},"iteration_indptr":[0,3,6,9,12,15,18,21,24,27,30,33,36,39,42,45,48,51,54,57,60,63,66,69,72,75,78,81,84,87,90,93,96,99,102,105,108,111,114,117,120,123,126,129,132,135,138,141,144,147,150,153,156,159,162,165,168,171,174,177,180,183,186,189,192,195,198,201,204,207,210,213,216,219,222,225,228,231,234,237,240,243,246,249,252,255,258,261,264,267,270,273,276,279,282,285,288,291,294,297,300],"tree_info":[0,1,2,0,1,2,0,1,2,0,1,2,0,1,2,0,1,2,0,1,2,0,1,2,0,1,2,0,1,2,0,1,2,0,1,2,0,1,2,0,1,2,0,1,2,0,1,2,0,1,2,0,1,2,0,1,2,0,1,2,0,1,2,0,1,2,0,1,2,0,1,2,0,1,2,0,1,2,0,1,2,0,1,2,0,1,2,0,1,2,0,1,2,0,1,2,0,1,2,0,1,2,0,1,2,0,1,2,0,1,2,0,1,2,0,1,2,0,1,2,0,1,2,0,1,2,0,1,2,0,1,2,0,1,2,0,1,2,0,1,2,0,1,2,0,1,2,0,1,2,0,1,2,0,1,2,0,1,2,0,1,2,0,1,2,0,1,2,0,1,2,0,1,2,0,1,2,0,1,2,0,1,2,0,1,2,0,1,2,0,1,2,0,1,2,0,1,2,0,1,2,0,1,2,0,1,2,0,1,2,0,1,2,0,1,2,0,1,2,0,1,2,0,1,2,0,1,2,0,1,2,0,1,2,0,1,2,0,1,2,0,1,2,0,1,2,0,1,2,0,1,2,0,1,2,0,1,2,0,1,2,0,1,2,0,1,2,0,1,2,0,1,2,0,1,2,0,1,2,0,1,2,0,1,2,0,1,2,0,1,2,0,1,2,0,1,2,0,1,2],"trees":[{"base_weights":[-4.4676508E-8,-3.8284013E-1,1.0921766E0,2.58793E-1,-5.89805E-1,-6.8316835E-1,1.3547528E0,1.1135242E0,-2.5279912E-1,-6.8562627E-1,-3.665481E-1,-2.2085893E-1,1.7999999E-1,8.526863E-1,1.4535422E0,-6.0550463E-1,1.3077766E0,4.4776075E-2,-6.7617697E-1,-3.291771E-1,-7.1074384E-1,-7.387581E-1,9.498677E-2,1.1324503E0,-1.5789478E-1,1.4754456E0,3.913043E-1,-7.663455E-9,-2.0412374E-1,1.4090369E0,1.11111075E-1,1.1495327E0,-4.6753252E-1,1.9999997E-1,-7.2631586E-1,3.2727274E-1,-4.456234E-1,-5.683531E-1,-2.2156909E-1,-2.2354214E-1,-7.663455E-9,1.2439024E0,-4.5173752E-1,1.3700787E0,-1.1111116E-1,-1.972603E-1,3.913043E-1,4.0540537E-1,1.4851158E0,3.512195E-1,-1.7027028E-1,4.2882994E-1,-7.663455E-9,2.0204082E-1,-1.7560977E-1,4.1637012E-1,-1.2857145E-1,-1.5378901E-1,2.1724138E-1,2.8800002E-1,-1.5517244E-1,-7.663455E-9,-2.2189896E-1,-3.5294134E-2,-1.9313307E-1,-2.2212769E-1,-7.725335E-3,4.0744987E-1,-1.5517244E-1,1.2857142E-1,-1.7444935E-1,1.21621616E-1,4.308782E-1,-1.47541E-1,2.1724138E-1,3E-1,-1.6363637E-1,2.8800002E-1,-1.2857145E-1,4.4651166E-1,1.2857142E-1],"categories":[],"categories_nodes":[],"categories_segments":[],"categories_sizes":[],"default_left":[0,0,0,0,0,0,0,0,0,0,0,0,0,0,0,0,0,0,0,0,0,0,0,0,0,0,0,0,0,0,0,0,0,0,0,0,0,0,0,0,0,0,0,0,0,0,0,0,0,0,0,0,0,0,0,0,0,0,0,0,0,0,0,0,0,0,0,0,0,0,0,0,0,0,0,0,0,0,0,0,0],"id":0,"left_children":[1,3,5,7,9,11,13,15,17,19,21,-1,-1,23,25,27,29,31,33,35,37,39,41,43,45,47,49,-1,-1,51,53,55,57,59,61,-1,63,65,-1,-1,-1,67,69,71,73,-1,75,77,79,-1,-1,-1,-1,-1,-1,-1,-1,-1,-1,-1,-1,-1,-1,-1,-1,-1,-1,-1,-1,-1,-1,-1,-1,-1,-1,-1,-1,-1,-1,-1,-1],"loss_changes":[6.932578E2,1.6318129E2,2.0153113E2,1.315122E2,1.9613007E1,4.259733E0,1.7371216E1,3.8377014E1,2.3785776E1,5.5727234E0,4.8342564E1,0E0,0E0,1.8304573E1,6.684387E0,5.4932404E-1,1.2135956E1,6.373813E1,3.5669632E0,7.8540087E0,1.9767761E0,7.3397064E-1,7.9916954E1,1.5026016E1,4.3123417E0,2.5584106E0,6.3943133E0,0E0,0E0,2.685501E0,3.9192522E0,1.4011509E1,4.509304E0,3.222069E0,7.163086E-1,0E0,2.6466055E0,9.618469E0,0E0,0E0,0E0,8.953125E0,1.0110996E1,2.120453E0,3.2178884E0,0E0,4.916995E0,2.3128955E0,4.0234375E-1,0E0,0E0,0E0,0E0,0E0,0E0,0E0,0E0,0E0,0E0,0E0,0E0,0E0,0E0,0E0,0E0,0E0,0E0,0E0,0E0,0E0,0E0,0E0,0E0,0E0,0E0,0E0,0E0,0E0,0E0,0E0,0E0],"parents":[2147483647,0,0,1,1,2,2,3,3,4,4,5,5,6,6,7,7,8,8,9,9,10,10,13,13,14,14,15,15,16,16,17,17,18,18,19,19,20,20,21,21,22,22,23,23,24,24,25,25,26,26,29,29,30,30,31,31,32,32,33,33,34,34,36,36,37,37,41,41,42,42,43,43,44,44,46,46,47,47,48,48],"right_children":[2,4,6,8,10,12,14,16,18,20,22,-1,-1,24,26,28,30,32,34,36,38,40,42,44,46,48,50,-1,-1,52,54,56,58,60,62,-1,64,66,-1,-1,-1,68,70,72,74,-1,76,78,80,-1,-1,-1,-1,-1,-1,-1,-1,-1,-1,-1,-1,-1,-1,-1,-1,-1,-1,-1,-1,-1,-1,-1,-1,-1,-1,-1,-1,-1,-1,-1,-1],"split_conditions":[-3.1685E-1,4.9528664E-1,-1.848506E0,-2.530001E-1,1.89276E-1,-1.1229254E0,-6.034472E-2,-1.8035023E0,-2.1456338E-1,7.2399783E-1,-1.640498E0,-2.2085893E-1,1.7999999E-1,8.279102E-1,7.570115E-1,6.834437E-2,1.7194855E0,8.047321E-1,-1.3886698E0,-9.436335E-1,-1.9480577E-1,3.2374206E0,3.0914173E-1,7.2166264E-1,-4.6613657E-1,-1.12407E0,-1.4395605E-1,-7.663455E-9,-2.0412374E-1,2.4958166E-1,2.3883459E-1,2.4546807E0,4.8768586E-1,-5.087701E-1,-9.9698085E-1,3.2727274E-1,-5.449751E-1,1.8419628E-1,-2.2156909E-1,-2.2354214E-1,-7.663455E-9,3.5580015E0,-2.918832E-1,-9.3629956E-1,1.2715943E0,-1.972603E-1,1.0732306E0,3.0914173E-1,3.2407389E0,3.512195E-1,-1.7027028E-1,4.2882994E-1,-7.663455E-9,2.0204082E-1,-1.7560977E-1,4.1637012E-1,-1.2857145E-1,-1.5378901E-1,2.1724138E-1,2.8800002E-1,-1.5517244E-1,-7.663455E-9,-2.2189896E-1,-3.5294134E-2,-1.9313307E-1,-2.2212769E-1,-7.725335E-3,4.0744987E-1,-1.5517244E-1,1.2857142E-1,-1.7444935E-1,1.21621616E-1,4.308782E-1,-1.47541E-1,2.1724138E-1,3E-1,-1.6363637E-1,2.8800002E-1,-1.2857145E-1,4.4651166E-1,1.2857142E-1],"split_indices":[1,7,16,13,3,10,1,16,6,7,17,0,0,16,9,3,9,17,7,13,9,8,0,19,3,11,2,0,0,2,16,15,7,0,0,0,19,0,0,0,0,9,9,8,8,0,13,0,14,0,0,0,0,0,0,0,0,0,0,0,0,0,0,0,0,0,0,0,0,0,0,0,0,0,0,0,0,0,0,0,0],"split_type":[0,0,0,0,0,0,0,0,0,0,0,0,0,0,0,0,0,0,0,0,0,0,0,0,0,0,0,0,0,0,0,0,0,0,0,0,0,0,0,0,0,0,0,0,0,0,0,0,0,0,0,0,0,0,0,0,0,0,0,0,0,0,0,0,0,0,0,0,0,0,0,0,0,0,0,0,0,0,0,0,0],"sum_hessian":[1.6559999E3,1.2266666E3,4.293333E2,2.9911108E2,9.275555E2,5.5111107E1,3.742222E2,1.1155555E2,1.8755554E2,6.4755554E2,2.7999997E2,5.333333E1,1.7777777E0,6.3111107E1,3.1111108E2,1.1111111E1,1.00444435E2,1.1066666E2,7.6888885E1,4.3555553E1,6.0399994E2,1.5466666E2,1.2533333E2,4.9333332E1,1.3777777E1,3.0444443E2,6.666666E0,1.3333333E0,9.777777E0,9.244444E1,7.9999995E0,3.4666664E1,7.599999E1,3.9999998E0,7.2888885E1,2.6666665E0,4.0888885E1,1.0222221E2,5.0177774E2,1.5333333E2,1.3333333E0,3.9999996E1,8.533333E1,4.1333332E1,7.9999995E0,7.1111107E0,6.666666E0,3.111111E0,3.013333E2,3.5555553E0,3.111111E0,9.111111E1,1.3333333E0,4.444444E0,3.5555553E0,3.0222221E1,4.444444E0,7.377777E1,2.222222E0,1.7777777E0,2.222222E0,1.3333333E0,7.155555E1,1.5999999E1,2.4888887E1,7.733333E1,2.4888887E1,3.7777775E1,2.222222E0,1.0666666E1,7.4666664E1,3.111111E0,3.822222E1,5.7777777E0,2.222222E0,3.9999998E0,2.6666665E0,1.7777777E0,1.3333333E0,2.9999997E2,1.3333333E0],"tree_param":{"num_deleted":"0","num_feature":"21","num_nodes":"81","size_leaf_vector":"1"}},{"base_weights":[-4.4676508E-8,-6.557779E-1,5.7155395E-1,-6.9893473E-1,-6.2370107E-2,7.9113644E-1,-2.2323146E-1,-7.08482E-1,3.4054056E-1,1E0,-2.1827246E-1,2.9653993E-2,1.0656717E0,-7.1789247E-1,1.11111075E-1,1.2206897E0,2.2641507E-1,-5.18964E-1,8.2109475E-1,1.1908104E0,-2.1891893E-1,-7.287294E-1,-2.068966E-1,6.7346936E-1,-1.7560977E-1,-3.600001E-2,4.1860464E-1,2.4545455E-1,-1.5517244E-1,-6.9292396E-1,-1.231672E-1,1.0805687E0,-5.5200005E-1,2.1556883E-1,1.3043479E0,-2.1990035E-1,1.2413793E-1,9.863013E-2,-2.0000003E-1,-1.2857145E-1,3.4054056E-1,-2.112619E-1,-7.663455E-9,-1.3717474E-1,3E-1,3.5666108E-1,-1.2857145E-1,-2.0707966E-1,1.2857142E-1,-1.2713757E-1,2.7634856E-1,2.027027E-1,4.0656373E-1],"categories":[],"categories_nodes":[],"categories_segments":[],"categories_sizes":[],"default_left":[0,0,0,0,0,0,0,0,0,0,0,0,0,0,0,0,0,0,0,0,0,0,0,0,0,0,0,0,0,0,0,0,0,0,0,0,0,0,0,0,0,0,0,0,0,0,0,0,0,0,0,0,0],"id":1,"left_children":[1,3,5,7,9,11,-1,13,-1,15,-1,17,19,21,23,25,27,29,31,33,-1,35,37,39,-1,-1,-1,-1,-1,41,43,45,47,49,51,-1,-1,-1,-1,-1,-1,-1,-1,-1,-1,-1,-1,-1,-1,-1,-1,-1,-1],"loss_changes":[6.2143896E2,1.9729858E1,2.5651813E2,1.3405823E1,3.8496418E1,1.5877948E2,0E0,5.6063843E0,0E0,3.3087845E0,0E0,8.827897E1,1.26312195E2,3.7729797E0,3.9192522E0,3.9400806E0,3.0147276E0,8.184643E0,3.0247074E1,5.755493E1,0E0,3.6877441E0,4.1870575E0,3.2564814E0,0E0,0E0,0E0,0E0,0E0,6.506119E-1,1.4674291E1,1.2004944E1,2.178872E0,2.5503193E1,1.40390625E1,0E0,0E0,0E0,0E0,0E0,0E0,0E0,0E0,0E0,0E0,0E0,0E0,0E0,0E0,0E0,0E0,0E0,0E0],"parents":[2147483647,0,0,1,1,2,2,3,3,4,4,5,5,7,7,9,9,11,11,12,12,13,13,14,14,15,15,16,16,17,17,18,18,19,19,21,21,22,22,23,23,29,29,30,30,31,31,32,32,33,33,34,34],"right_children":[2,4,6,8,10,12,-1,14,-1,16,-1,18,20,22,24,26,28,30,32,34,-1,36,38,40,-1,-1,-1,-1,-1,42,44,46,48,50,52,-1,-1,-1,-1,-1,-1,-1,-1,-1,-1,-1,-1,-1,-1,-1,-1,-1,-1],"split_conditions":[-4.570817E-1,1.0570043E0,3.280497E0,1.3242239E0,-5.0852064E-2,3.0914173E-1,-2.2323146E-1,7.331934E0,3.4054056E-1,-3.4128508E-1,-2.1827246E-1,-1.697842E-1,1.8951635E0,3.2374206E0,2.104565E-1,-1.0213789E0,-8.1388634E-1,9.255585E-1,-3.1685E-1,1.083978E-2,-2.1891893E-1,5.118892E0,-8.2600456E-1,7.469891E-1,-1.7560977E-1,-3.600001E-2,4.1860464E-1,2.4545455E-1,-1.5517244E-1,2.0977378E0,-6.516187E-1,1.8697635E0,1.0544485E0,1.1806086E0,-1.9480577E-1,-2.1990035E-1,1.2413793E-1,9.863013E-2,-2.0000003E-1,-1.2857145E-1,3.4054056E-1,-2.112619E-1,-7.663455E-9,-1.3717474E-1,3E-1,3.5666108E-1,-1.2857145E-1,-2.0707966E-1,1.2857142E-1,-1.2713757E-1,2.7634856E-1,2.027027E-1,4.0656373E-1],"split_indices":[9,17,9,0,1,0,0,2,0,1,0,2,7,8,1,14,3,9,1,7,0,15,1,11,0,0,0,0,0,4,11,7,14,17,9,0,0,0,0,0,0,0,0,0,0,0,0,0,0,0,0,0,0],"split_type":[0,0,0,0,0,0,0,0,0,0,0,0,0,0,0,0,0,0,0,0,0,0,0,0,0,0,0,0,0,0,0,0,0,0,0,0,0,0,0,0,0,0,0,0,0,0,0,0,0,0,0,0,0],"sum_hessian":[1.6559999E3,7.711111E2,8.8488885E2,7.186666E2,5.2444443E1,7.586666E2,1.2622221E2,7.1555554E2,3.111111E0,1.9999998E1,3.2444443E1,2.0133333E2,5.573333E2,7.0755554E2,7.9999995E0,1.5111111E1,4.8888884E0,1.1911111E2,8.222221E1,5.213333E2,3.5999996E1,6.924444E2,1.5111111E1,4.444444E0,3.5555553E0,1.7777777E0,1.3333332E1,2.6666665E0,2.222222E0,8.222221E1,3.6888885E1,6.933333E1,1.2888888E1,5.4666664E1,4.6666663E2,6.9022217E2,2.222222E0,7.1111107E0,7.9999995E0,1.3333333E0,3.111111E0,8.0888885E1,1.3333333E0,2.8888887E1,7.9999995E0,6.4888885E1,4.444444E0,1.1555555E1,1.3333333E0,2.8888887E1,2.5777777E1,3.5999996E1,4.3066663E2],"tree_param":{"num_deleted":"0","num_feature":"21","num_nodes":"53","size_leaf_vector":"1"}},{"base_weights":[-4.4676508E-8,1.4575323E0,-3.4574252E-1,-1.5517244E-1,1.4730729E0,-5.3786844E-1,1.4350042E0,4.4569916E-1,-1.4400001E-1,-6.4076835E-1,1.4417745E0,4.4160002E-1,5.4098356E-1,-7.0837975E-1,7.735849E-1,4.4234407E-1,-7.663455E-9,-1.2857145E-1,8.5714287E-1,9.836065E-1,-7.1821976E-1,1.1742628E0,-6.1061954E-1,3.4054056E-1,-7.663455E-9,3.6734694E-1,-7.663455E-9,-3.2727286E-2,-2.1837896E-1,-9.473686E-2,4.2092308E-1,-2.0495051E-1,-7.663455E-9],"categories":[],"categories_nodes":[],"categories_segments":[],"categories_sizes":[],"default_left":[0,0,0,0,0,0,0,0,0,0,0,0,0,0,0,0,0,0,0,0,0,0,0,0,0,0,0,0,0,0,0,0,0],"id":2,"left_children":[1,3,5,-1,7,9,11,-1,-1,13,15,-1,17,19,21,-1,-1,-1,23,25,27,29,31,-1,-1,-1,-1,-1,-1,-1,-1,-1,-1],"loss_changes":[8.3551733E2,1.0517578E1,4.5926077E2,0E0,8.475708E0,2.4747485E2,3.5291443E0,0E0,0E0,1.1063522E2,2.834488E0,0E0,2.444965E0,1.900769E1,3.0111883E1,0E0,0E0,0E0,1.2972972E0,1.6058879E0,6.3878784E0,1.4573357E1,5.5620813E-1,0E0,0E0,0E0,0E0,0E0,0E0,0E0,0E0,0E0,0E0],"parents":[2147483647,0,0,1,1,2,2,4,4,5,5,6,6,9,9,10,10,12,12,13,13,14,14,18,18,19,19,20,20,21,21,22,22],"right_children":[2,4,6,-1,8,10,12,-1,-1,14,16,-1,18,20,22,-1,-1,-1,24,26,28,30,32,-1,-1,-1,-1,-1,-1,-1,-1,-1,-1],"split_conditions":[-1.640498E0,-1.1915518E0,3.2511275E0,-1.5517244E-1,4.207228E0,1.8951635E0,-9.5264184E-1,4.4569916E-1,-1.4400001E-1,2.9590409E0,-4.6613657E-1,4.4160002E-1,1.0336684E-3,-2.1865046E0,-4.7186938E-1,4.4234407E-1,-7.663455E-9,-1.2857145E-1,2.013827E0,-6.4210284E-1,-1.7987205E0,-4.1162902E-1,5.79263E0,3.4054056E-1,-7.663455E-9,3.6734694E-1,-7.663455E-9,-3.2727286E-2,-2.1837896E-1,-9.473686E-2,4.2092308E-1,-2.0495051E-1,-7.663455E-9],"split_indices":[17,7,9,0,13,7,8,0,0,6,3,0,0,16,18,0,0,0,12,13,13,0,2,0,0,0,0,0,0,0,0,0,0],"split_type":[0,0,0,0,0,0,0,0,0,0,0,0,0,0,0,0,0,0,0,0,0,0,0,0,0,0,0,0,0,0,0,0,0],"sum_hessian":[1.6559999E3,3.1688885E2,1.3391111E3,2.222222E0,3.1466666E2,1.2093333E3,1.2977777E2,3.1288885E2,1.7777777E0,1.1502222E3,5.9111107E1,1.2399999E2,5.7777777E0,1.0982222E3,5.1999996E1,5.7777775E1,1.3333333E0,1.3333333E0,4.444444E0,5.7777777E0,1.0924443E3,4.0444443E1,1.1555555E1,3.111111E0,1.3333333E0,4.444444E0,1.3333333E0,1.7333332E1,1.0751111E3,5.333333E0,3.511111E1,1.0222221E1,1.3333333E0],"tree_param":{"num_deleted":"0","num_feature":"21","num_nodes":"33","size_leaf_vector":"1"}},{"base_weights":[1.3872235E-3,5.543133E-1,-4.5704773E-1,7.29918E-1,-3.8588357E-1,-5.0641507E-1,9.5941323E-1,9.271744E-1,2.0166646E-1,-5.566118E-1,7.7314603E-1,-5.873785E-1,-2.4345003E-1,9.5425904E-2,2.93908E-1,9.533924E-1,4.5367472E-2,-2.9896167E-1,9.390745E-1,-6.0685617E-1,2.0341401E-1,8.8143003E-1,-3.9064933E-2,-6.1112446E-1,-2.8450108E-1,-6.3537115E-1,3.877223E-1,1.0103229E0,6.918971E-1,2.4648838E-1,-1.9657071E-1,-3.9132318E-1,5.9432095E-1,-1.1863896E-1,9.705178E-1,2.9240092E-2,-6.411308E-1,2.8167665E-1,7.4368924E-2,-6.4903665E-1,-4.6196184E-1,-1.9524781E-1,4.4936326E-1,-1.992003E-1,2.2179268E-1,8.2877356E-1,-5.0747687E-1,1.48084825E-2,3.0408728E-1,2.6688978E-1,3.5769623E-2,1.5460663E-1,-1.3627927E-1,-1.4179023E-1,9.0923995E-2,4.1483378E-1,-7.131169E-2,3.0647814E-1,4.1634038E-2,2.2368123E-1,-1.5831602E-1,-3.8098775E-2,-1.9774385E-1,-1.2992361E-1,-1.9882919E-1,2.4135439E-1,-1.6045742E-1,2.846426E-1,-1.0203942E-1,2.9231456E-1,-3.8650084E-2,-1.8335803E-1,1.3067204E-1],"categories":[],"categories_nodes":[],"categories_segments":[],"categories_sizes":[],"default_left":[0,0,0,0,0,0,0,0,0,0,0,0,0,0,0,0,0,0,0,0,0,0,0,0,0,0,0,0,0,0,0,0,0,0,0,0,0,0,0,0,0,0,0,0,0,0,0,0,0,0,0,0,0,0,0,0,0,0,0,0,0,0,0,0,0,0,0,0,0,0,0,0,0],"id":3,"left_children":[1,3,5,7,9,11,13,15,17,19,21,23,25,-1,-1,27,29,31,33,35,-1,37,-1,39,41,43,45,47,49,-1,51,53,55,-1,57,59,61,-1,-1,63,65,-1,67,-1,-1,69,71,-1,-1,-1,-1,-1,-1,-1,-1,-1,-1,-1,-1,-1,-1,-1,-1,-1,-1,-1,-1,-1,-1,-1,-1,-1,-1],"loss_changes":[3.995853E2,1.18256805E2,6.0751617E1,6.2588257E1,2.2812574E1,1.760202E1,7.037926E-2,1.0091492E1,6.122096E1,6.563444E0,1.576292E0,4.4043274E0,4.9204002E1,0E0,0E0,5.637848E0,2.7358334E0,8.40729E0,3.1949959E0,2.1077995E0,0E0,2.5788116E-1,0E0,3.0332947E0,1.3236601E1,5.3111916E0,3.0599876E1,1.0520325E0,8.870819E0,0E0,2.2993374E0,5.2474566E0,6.680023E0,0E0,2.6509972E0,2.7297072E0,7.58831E-1,0E0,0E0,1.0988464E0,1.1778185E1,0E0,6.877582E0,0E0,0E0,7.318611E0,2.794539E0,0E0,0E0,0E0,0E0,0E0,0E0,0E0,0E0,0E0,0E0,0E0,0E0,0E0,0E0,0E0,0E0,0E0,0E0,0E0,0E0,0E0,0E0,0E0,0E0,0E0,0E0],"parents":[2147483647,0,0,1,1,2,2,3,3,4,4,5,5,6,6,7,7,8,8,9,9,10,10,11,11,12,12,15,15,16,16,17,17,18,18,19,19,21,21,23,23,24,24,25,25,26,26,27,27,28,28,30,30,31,31,32,32,34,34,35,35,36,36,39,39,40,40,42,42,45,45,46,46],"right_children":[2,4,6,8,10,12,14,16,18,20,22,24,26,-1,-1,28,30,32,34,36,-1,38,-1,40,42,44,46,48,50,-1,52,54,56,-1,58,60,62,-1,-1,64,66,-1,68,-1,-1,70,72,-1,-1,-1,-1,-1,-1,-1,-1,-1,-1,-1,-1,-1,-1,-1,-1,-1,-1,-1,-1,-1,-1,-1,-1,-1,-1],"split_conditions":[6.696255E-1,-2.1456338E-1,4.5266587E-1,9.020374E-1,-6.034472E-2,5.29418E-1,-6.933404E-1,1.5911077E0,-8.0157906E-2,-7.90704E-1,7.0020276E-1,-3.2311615E-1,-1.6832068E0,9.5425904E-2,2.93908E-1,2.7067593E-1,-9.436335E-1,1.9033185E0,-1.12407E0,-1.3886698E0,2.0341401E-1,2.6665082E0,-3.9064933E-2,-8.3518076E-1,-1.848506E0,4.207228E0,6.3990784E-1,-2.1865046E0,-4.3409538E-1,2.4648838E-1,-1.0293671E-1,8.6955994E-1,4.265377E-1,-1.1863896E-1,2.366461E0,-5.087701E-1,5.5877405E-1,2.8167665E-1,7.4368924E-2,-1.9480577E-1,-1.003513E0,-1.9524781E-1,4.1842055E-1,-1.992003E-1,2.2179268E-1,1.0400357E0,1.1589277E-2,1.48084825E-2,3.0408728E-1,2.6688978E-1,3.5769623E-2,1.5460663E-1,-1.3627927E-1,-1.4179023E-1,9.0923995E-2,4.1483378E-1,-7.131169E-2,3.0647814E-1,4.1634038E-2,2.2368123E-1,-1.5831602E-1,-3.8098775E-2,-1.9774385E-1,-1.2992361E-1,-1.9882919E-1,2.4135439E-1,-1.6045742E-1,2.846426E-1,-1.0203942E-1,2.9231456E-1,-3.8650084E-2,-1.8335803E-1,1.3067204E-1],"split_indices":[7,6,1,18,1,3,12,9,1,12,10,1,17,0,0,7,13,0,11,7,0,19,0,8,16,13,18,16,15,0,7,3,13,0,14,0,19,0,0,9,11,0,17,0,0,12,10,0,0,0,0,0,0,0,0,0,0,0,0,0,0,0,0,0,0,0,0,0,0,0,0,0,0],"split_type":[0,0,0,0,0,0,0,0,0,0,0,0,0,0,0,0,0,0,0,0,0,0,0,0,0,0,0,0,0,0,0,0,0,0,0,0,0,0,0,0,0,0,0,0,0,0,0,0,0,0,0,0,0,0,0,0,0,0,0,0,0,0,0,0,0,0,0,0,0,0,0,0,0],"sum_hessian":[1.5743943E3,7.1355475E2,8.608395E2,6.0144403E2,1.121107E2,8.324683E2,2.8371197E1,4.3736923E2,1.6407481E2,9.816979E1,1.3940914E1,6.355555E2,1.9691284E2,1.3810863E0,2.699011E1,4.2466193E2,1.270729E1,9.808157E1,6.599325E1,9.4819595E1,3.3501985E0,1.2470395E1,1.4705192E0,5.88406E2,4.7149426E1,1.2147643E2,7.543642E1,3.4638605E2,7.827589E1,2.4501004E0,1.025719E1,8.939994E1,8.681634E0,1.2526002E0,6.474065E1,4.8554335E0,8.996416E1,1.0990945E1,1.4794495E0,4.6648883E2,1.21917206E2,3.1525776E1,1.562365E1,1.1950454E2,1.971887E0,5.0587105E1,2.484931E1,1.2405243E0,3.451455E2,5.7773716E1,2.0502172E1,2.460294E0,7.796896E0,8.0314865E1,9.085074E0,4.1176553E0,4.563979E0,6.0779964E1,3.9606833E0,1.9756471E0,2.8797865E0,3.3181405E0,8.664602E1,2.9825304E1,4.366635E2,6.0891843E0,1.1582802E2,9.446113E0,6.1775365E0,4.389514E1,6.691963E0,2.2704203E1,2.1451073E0],"tree_param":{"num_deleted":"0","num_feature":"21","num_nodes":"73","size_leaf_vector":"1"}},{"base_weights":[1.0127338E-3,-5.744037E-1,4.2327332E-1,-6.169217E-1,-4.0107574E-2,5.6955993E-1,-1.9909388E-1,-6.2655956E-1,2.5394154E-1,7.269059E-1,-1.9393338E-1,6.475526E-1,-1.9792683E-1,-6.362437E-1,1.23794585E-1,8.647705E-1,1.8783684E-1,-4.0190467E-1,7.565343E-1,-6.4748013E-1,-1.5383707E-1,5.6290925E-1,-1.529634E-1,-4.588294E-2,2.974881E-1,1.896576E-1,-1.372968E-1,-5.504012E-1,7.5861686E-1,8.1064993E-1,-4.7415388E-1,-1.9558647E-1,1.03407845E-1,8.359008E-2,-1.7634512E-1,-1.11651815E-1,2.6950344E-1,-1.8802613E-1,7.796218E-2,2.6771435E-1,9.586762E-4,-5.8263415E-3,2.569681E-1,-2.0361651E-1,1.2915033E-1],"categories":[],"categories_nodes":[],"categories_segments":[],"categories_sizes":[],"default_left":[0,0,0,0,0,0,0,0,0,0,0,0,0,0,0,0,0,0,0,0,0,0,0,0,0,0,0,0,0,0,0,0,0,0,0,0,0,0,0,0,0,0,0,0,0],"id":4,"left_children":[1,3,5,7,9,11,-1,13,-1,15,-1,17,-1,19,21,23,25,27,29,31,33,35,-1,-1,-1,-1,-1,37,39,41,43,-1,-1,-1,-1,-1,-1,-1,-1,-1,-1,-1,-1,-1,-1],"loss_changes":[3.83564E2,1.5153488E1,1.451447E2,9.258148E0,2.387178E1,7.741766E1,0E0,4.550171E0,0E0,1.5236082E0,0E0,8.672385E1,0E0,3.194275E0,2.7016065E0,2.448268E0,1.9810007E0,1.27803335E1,4.5996246E1,2.8598175E0,3.005968E0,2.0911384E0,0E0,0E0,0E0,0E0,0E0,4.133423E0,8.6196756E-1,2.5030914E1,5.747383E0,0E0,0E0,0E0,0E0,0E0,0E0,0E0,0E0,0E0,0E0,0E0,0E0,0E0,0E0],"parents":[2147483647,0,0,1,1,2,2,3,3,4,4,5,5,7,7,9,9,11,11,13,13,14,14,15,15,16,16,17,17,18,18,19,19,20,20,21,21,27,27,28,28,29,29,30,30],"right_children":[2,4,6,8,10,12,-1,14,-1,16,-1,18,-1,20,22,24,26,28,30,32,34,36,-1,-1,-1,-1,-1,38,40,42,44,-1,-1,-1,-1,-1,-1,-1,-1,-1,-1,-1,-1,-1,-1],"split_conditions":[-4.570817E-1,1.0570043E0,3.280497E0,1.3242239E0,-5.0852064E-2,1.8951635E0,-1.9909388E-1,7.331934E0,2.5394154E-1,-3.4128508E-1,-1.9393338E-1,-2.0717113E-1,-1.9792683E-1,3.2374206E0,2.104565E-1,-1.0213789E0,-8.1388634E-1,1.0732306E0,-1.8349497E-1,5.118892E0,-8.2600456E-1,7.469891E-1,-1.529634E-1,-4.588294E-2,2.974881E-1,1.896576E-1,-1.372968E-1,1.409311E0,2.7769154E-2,-1.1986328E0,-1.9911608E-2,-1.9558647E-1,1.03407845E-1,8.359008E-2,-1.7634512E-1,-1.11651815E-1,2.6950344E-1,-1.8802613E-1,7.796218E-2,2.6771435E-1,9.586762E-4,-5.8263415E-3,2.569681E-1,-2.0361651E-1,1.2915033E-1],"split_indices":[9,17,9,0,1,7,0,2,0,1,0,7,0,8,1,14,3,13,1,15,1,11,0,0,0,0,0,0,9,13,2,0,0,0,0,0,0,0,0,0,0,0,0,0,0],"split_type":[0,0,0,0,0,0,0,0,0,0,0,0,0,0,0,0,0,0,0,0,0,0,0,0,0,0,0,0,0,0,0,0,0,0,0,0,0,0,0,0,0,0,0,0,0],"sum_hessian":[1.57661E3,6.671379E2,9.0947217E2,6.1781866E2,4.931918E1,8.020074E2,1.07464806E2,6.143445E2,3.4741964E0,2.1686726E1,2.7632454E1,7.5460547E2,4.7401913E1,6.066669E2,7.677624E0,1.6788857E1,4.8978696E0,7.0737625E1,6.8386786E2,5.925234E2,1.4143477E1,4.600971E0,3.0766528E0,1.8379731E0,1.4950883E1,2.9131043E0,1.9847654E0,6.3179157E1,7.5584693E0,6.553904E2,2.8477446E1,5.902044E2,2.318973E0,7.2633476E0,6.8801293E0,1.1858099E0,3.4151614E0,5.794543E1,5.2337265E0,6.2673855E0,1.2910837E0,3.437938E1,6.21011E2,2.3429195E1,5.048251E0],"tree_param":{"num_deleted":"0","num_feature":"21","num_nodes":"45","size_leaf_vector":"1"}},{"base_weights":[-2.4090714E-3,9.6123713E-1,-3.0098274E-1,-3.9669293E-1,9.776421E-1,-4.7797137E-1,9.755309E-1,1.5216318E-4,-1.5771052E-1,9.874867E-1,-2.8324196E-1,-5.7699907E-1,9.817732E-1,9.947237E-1,2.600222E-1,9.950505E-1,-1.3016115E-1,-1.7641392E-2,-1.18291356E-1,-6.320477E-1,5.167439E-1,3.0098334E-1,-9.159183E-3,3.0112183E-1,3.6812264E-3,-1.3786606E-1,2.2118165E-1,1.0013341E0,-5.1552515E-2,2.237366E-1,-6.401008E-1,8.5456955E-1,-4.3899152E-1,3.0273387E-1,1.356889E-1,-2.0196624E-1,-1.2840505E-1,-1.6287076E-1,2.993432E-1,2.0008941E-1,-1.9056682E-1],"categories":[],"categories_nodes":[],"categories_segments":[],"categories_sizes":[],"default_left":[0,0,0,0,0,0,0,0,0,0,0,0,0,0,0,0,0,0,0,0,0,0,0,0,0,0,0,0,0,0,0,0,0,0,0,0,0,0,0,0,0],"id":5,"left_children":[1,3,5,7,9,11,13,-1,-1,15,17,19,21,23,25,27,-1,-1,-1,29,31,-1,-1,-1,-1,-1,-1,33,-1,-1,35,37,39,-1,-1,-1,-1,-1,-1,-1,-1],"loss_changes":[4.5211398E2,8.668182E0,2.7150418E2,2.6407516E-1,4.842102E0,1.5296443E2,1.7519073E0,0E0,0E0,4.3550415E0,6.7162514E-2,5.9807648E1,1.4967117E0,1.2474823E0,2.1172287E0,2.835907E0,0E0,0E0,0E0,1.0918732E1,1.5837325E1,0E0,0E0,0E0,0E0,0E0,0E0,1.0874939E0,0E0,0E0,6.28714E0,7.6923943E0,3.2813075E0,0E0,0E0,0E0,0E0,0E0,0E0,0E0,0E0],"parents":[2147483647,0,0,1,1,2,2,3,3,4,4,5,5,6,6,9,9,10,10,11,11,12,12,13,13,14,14,15,15,19,19,20,20,27,27,30,30,31,31,32,32],"right_children":[2,4,6,8,10,12,14,-1,-1,16,18,20,22,24,26,28,-1,-1,-1,30,32,-1,-1,-1,-1,-1,-1,34,-1,-1,36,38,40,-1,-1,-1,-1,-1,-1,-1,-1],"split_conditions":[-1.4954376E0,-1.1915518E0,3.2511275E0,-3.6448973E-1,-5.863763E-1,1.8951635E0,1.5030916E-1,1.5216318E-4,-1.5771052E-1,4.207228E0,5.8001155E-1,2.9590409E0,-4.6613657E-1,2.013827E0,3.5580015E0,-8.1369805E-1,-1.3016115E-1,-1.7641392E-2,-1.18291356E-1,-2.1865046E0,-2.71802E-1,3.0098334E-1,-9.159183E-3,3.0112183E-1,3.6812264E-3,-1.3786606E-1,2.2118165E-1,-1.5910934E0,-5.1552515E-2,2.237366E-1,1.3562571E0,-4.1162902E-1,-7.5729567E-1,3.0273387E-1,1.356889E-1,-2.0196624E-1,-1.2840505E-1,-1.6287076E-1,2.993432E-1,2.0008941E-1,-1.9056682E-1],"split_indices":[17,7,9,3,12,7,3,0,0,13,10,6,3,12,9,18,0,0,0,16,16,0,0,0,0,0,0,17,0,0,7,0,3,0,0,0,0,0,0,0,0],"split_type":[0,0,0,0,0,0,0,0,0,0,0,0,0,0,0,0,0,0,0,0,0,0,0,0,0,0,0,0,0,0,0,0,0,0,0,0,0,0,0,0,0],"sum_hessian":[1.5693657E3,3.7070294E2,1.1986628E3,4.1482563E0,3.665547E2,1.0532546E3,1.454082E2,1.2612158E0,2.8870404E0,3.6393008E2,2.6246223E0,9.869084E2,6.6346214E1,1.4122963E2,4.1785746E0,3.62302E2,1.6280704E0,1.3751554E0,1.2494669E0,9.4001886E2,4.6889496E1,6.497485E1,1.3713585E0,1.3992393E2,1.3056983E0,1.6810477E0,2.4975271E0,3.6050262E2,1.7993798E0,4.9299154E0,9.35089E2,3.472207E1,1.2167427E1,3.5464014E2,5.8624763E0,8.069049E2,1.2818408E2,2.9687324E0,3.1753338E1,1.472058E0,1.0695369E1],"tree_param":{"num_deleted":"0","num_feature":"21","num_nodes":"41","size_leaf_vector":"1"}},{"base_weights":[4.2464547E-3,4.5640528E-1,-4.063463E-1,5.703118E-1,-5.1886547E-1,-4.5219716E-1,7.7200276E-1,2.925521E-1,7.796522E-1,4.0680048E-1,-5.678307E-1,-5.466195E-1,-2.3973027E-1,6.8113424E-2,2.3712295E-1,5.771459E-1,-2.3438308E-1,7.8911734E-1,1.7710935E-1,-4.4508944E-3,1.7362228E-1,8.545153E-2,-6.002591E-1,-4.092036E-1,-6.086308E-1,-5.879911E-1,1.6080266E-1,7.069514E-1,-1.9675526E-1,-3.19148E-1,6.2348866E-1,8.141314E-1,5.3450376E-1,-1.3940826E-1,1.8674298E-1,-1.8667856E-1,8.214173E-2,-5.837805E-1,-1.9343448E-1,-6.133864E-1,5.9532203E-2,-1.840877E-1,1.8326303E-1,6.620706E-1,-3.887521E-1,2.274027E-1,2.2845697E-2,2.2541451E-1,-1.5570478E-1,-1.2226556E-1,1.7792273E-1,3.4648982E-1,-8.008918E-2,2.461979E-1,1.1876511E-1,2.3747998E-1,-7.936524E-2,8.03516E-2,-1.7998773E-1,7.8201346E-2,-1.747671E-1,-7.3977135E-2,-1.8564047E-1,2.2848043E-1,-1.683287E-1,-1.3515395E-1,2.2254913E-1],"categories":[],"categories_nodes":[],"categories_segments":[],"categories_sizes":[],"default_left":[0,0,0,0,0,0,0,0,0,0,0,0,0,0,0,0,0,0,0,0,0,0,0,0,0,0,0,0,0,0,0,0,0,0,0,0,0,0,0,0,0,0,0,0,0,0,0,0,0,0,0,0,0,0,0,0,0,0,0,0,0,0,0,0,0,0,0],"id":6,"left_children":[1,3,5,7,9,11,13,15,17,19,21,23,25,-1,-1,27,29,31,33,-1,-1,-1,35,37,39,41,43,45,47,49,51,53,55,-1,-1,-1,-1,57,59,61,-1,-1,-1,63,65,-1,-1,-1,-1,-1,-1,-1,-1,-1,-1,-1,-1,-1,-1,-1,-1,-1,-1,-1,-1,-1,-1],"loss_changes":[2.6136108E2,7.472366E1,4.021199E1,3.4682312E1,3.4305267E0,1.4128983E1,1.0144234E-1,3.9069878E1,1.8093567E0,3.0792725E-1,2.0363293E0,3.9377441E0,3.0849335E1,0E0,0E0,1.71031E1,6.871541E0,1.7059784E0,2.1686363E0,0E0,0E0,0E0,1.4264355E0,5.756922E0,1.4132462E0,4.005913E0,2.8722054E1,4.6068497E0,8.040292E0,7.0295315E0,4.3735642E0,5.056915E-1,6.985626E0,0E0,0E0,0E0,0E0,1.3406544E0,1.273102E1,5.12352E-1,0E0,0E0,0E0,7.0512238E0,3.8199716E0,0E0,0E0,0E0,0E0,0E0,0E0,0E0,0E0,0E0,0E0,0E0,0E0,0E0,0E0,0E0,0E0,0E0,0E0,0E0,0E0,0E0,0E0],"parents":[2147483647,0,0,1,1,2,2,3,3,4,4,5,5,6,6,7,7,8,8,9,9,10,10,11,11,12,12,15,15,16,16,17,17,18,18,22,22,23,23,24,24,25,25,26,26,27,27,28,28,29,29,30,30,31,31,32,32,37,37,38,38,39,39,43,43,44,44],"right_children":[2,4,6,8,10,12,14,16,18,20,22,24,26,-1,-1,28,30,32,34,-1,-1,-1,36,38,40,42,44,46,48,50,52,54,56,-1,-1,-1,-1,58,60,62,-1,-1,-1,64,66,-1,-1,-1,-1,-1,-1,-1,-1,-1,-1,-1,-1,-1,-1,-1,-1,-1,-1,-1,-1,-1,-1],"split_conditions":[6.696255E-1,1.4251857E0,4.5266587E-1,-3.1685E-1,5.5877405E-1,1.89276E-1,-1.0500714E0,7.588275E-1,1.7159199E0,-8.700171E-1,-1.6502131E0,1.9780183E-1,-1.6832068E0,6.8113424E-2,2.3712295E-1,1.0968444E0,1.9033185E0,-1.8099634E-2,-5.0852064E-2,-4.4508944E-3,1.7362228E-1,8.545153E-2,3.091325E-1,-4.0350366E-1,-1.8349497E-1,4.207228E0,3.069988E-1,1.5911077E0,-1.1336471E0,8.6955994E-1,4.265377E-1,5.79263E0,8.47041E-1,-1.3940826E-1,1.8674298E-1,-1.8667856E-1,8.214173E-2,-8.903827E-1,6.084099E-1,7.2399783E-1,5.9532203E-2,-1.840877E-1,1.8326303E-1,3.0603743E0,4.0136823E-1,2.274027E-1,2.2845697E-2,2.2541451E-1,-1.5570478E-1,-1.2226556E-1,1.7792273E-1,3.4648982E-1,-8.008918E-2,2.461979E-1,1.1876511E-1,2.3747998E-1,-7.936524E-2,8.03516E-2,-1.7998773E-1,7.8201346E-2,-1.747671E-1,-7.3977135E-2,-1.8564047E-1,2.2848043E-1,-1.683287E-1,-1.3515395E-1,2.2254913E-1],"split_indices":[7,6,1,1,19,3,17,18,12,10,7,9,17,0,0,19,0,9,1,0,0,0,16,18,1,13,17,9,7,3,13,2,13,0,0,0,0,11,17,7,0,0,0,6,10,0,0,0,0,0,0,0,0,0,0,0,0,0,0,0,0,0,0,0,0,0,0],"split_type":[0,0,0,0,0,0,0,0,0,0,0,0,0,0,0,0,0,0,0,0,0,0,0,0,0,0,0,0,0,0,0,0,0,0,0,0,0,0,0,0,0,0,0,0,0,0,0,0,0,0,0,0,0,0,0,0,0,0,0,0,0,0,0,0,0,0,0],"sum_hessian":[1.4057935E3,6.689791E2,7.368144E2,5.9938885E2,6.959025E1,7.098111E2,2.7003302E1,2.58629E2,3.407599E2,3.1290448E0,6.6461205E1,4.9033072E2,2.1948036E2,1.3179766E0,2.5685326E1,1.6786894E2,9.076005E1,3.3518494E2,5.574959E0,1.1710579E0,1.9579867E0,2.149848E0,6.4311356E1,1.548298E2,3.3550092E2,1.1715062E2,1.02329735E2,1.4383087E2,2.4038073E1,8.317012E1,7.5899296E0,3.0320007E2,3.1984856E1,2.2660444E0,3.3089144E0,6.301321E1,1.298141E0,8.46415E1,7.018829E1,3.3377417E2,1.7267494E0,1.1517605E2,1.9745686E0,5.3408897E1,4.892084E1,1.3287422E2,1.0956648E1,5.7599316E0,1.8278141E1,7.632653E1,6.8435917E0,4.5670033E0,3.022926E0,2.9759293E2,5.6071525E0,2.420592E1,7.778937E0,1.2879872E0,8.3353516E1,3.254196E1,3.7646336E1,5.532976E0,3.2824118E2,4.973892E1,3.669978E0,4.6957203E1,1.9636377E0],"tree_param":{"num_deleted":"0","num_feature":"21","num_nodes":"67","size_leaf_vector":"1"}},{"base_weights":[1.2502101E-3,-5.206717E-1,3.4124097E-1,-5.6238675E-1,-3.0553732E-2,4.5147175E-1,-1.8378796E-1,-5.720636E-1,2.0479178E-1,5.720925E-1,-1.7801334E-1,1.079356E-3,5.909875E-1,-5.8194077E-1,1.1426213E-1,1.7630236E-1,7.081402E-1,-3.990063E-1,5.2488786E-1,6.497288E-1,-5.479884E-1,-5.938782E-1,-1.2339483E-1,4.694653E-1,-1.3669749E-1,-1.3719432E-1,4.110934E-1,2.4387108E-1,-1.1010807E-1,-4.4811487E-1,3.8099012E-1,6.5849197E-1,-4.1255373E-1,3.4012845E-1,7.5710595E-1,-1.874118E-1,-1.059997E-2,-1.7969348E-1,1.01364136E-1,7.133388E-2,-1.653189E-1,-9.8162346E-2,2.186697E-1,2.034307E-1,-4.008558E-2,-1.6192554E-1,-1.3160665E-2,-1.3555034E-1,2.779893E-1,-1.8382353E-1,2.1391673E-1,-1.7318231E-1,1.2099028E-1,1.2904823E-1,-1.2895335E-1,2.049777E-2,2.3423505E-1,1.6162981E-1,-1.2887222E-1],"categories":[],"categories_nodes":[],"categories_segments":[],"categories_sizes":[],"default_left":[0,0,0,0,0,0,0,0,0,0,0,0,0,0,0,0,0,0,0,0,0,0,0,0,0,0,0,0,0,0,0,0,0,0,0,0,0,0,0,0,0,0,0,0,0,0,0,0,0,0,0,0,0,0,0,0,0,0,0],"id":7,"left_children":[1,3,5,7,9,11,-1,13,-1,15,-1,17,19,21,23,25,27,29,31,33,35,37,39,41,-1,-1,43,-1,-1,45,47,49,51,53,55,-1,57,-1,-1,-1,-1,-1,-1,-1,-1,-1,-1,-1,-1,-1,-1,-1,-1,-1,-1,-1,-1,-1,-1],"loss_changes":[2.5159251E2,1.1417465E1,9.054941E1,6.599472E0,1.5577419E1,4.83956E1,0E0,3.5368042E0,0E0,1.0707736E0,0E0,3.8592857E1,3.9698395E1,2.6900635E0,1.8533832E0,1.2310833E0,2.122283E0,4.170063E0,1.0259497E1,1.8347565E1,1.2047224E0,2.5391846E0,2.3044865E0,1.3714771E0,0E0,0E0,9.112572E-1,0E0,0E0,3.6319695E0,3.4745474E0,5.3050804E0,1.6522796E0,1.0301363E1,6.710129E0,0E0,1.3104434E0,0E0,0E0,0E0,0E0,0E0,0E0,0E0,0E0,0E0,0E0,0E0,0E0,0E0,0E0,0E0,0E0,0E0,0E0,0E0,0E0,0E0,0E0],"parents":[2147483647,0,0,1,1,2,2,3,3,4,4,5,5,7,7,9,9,11,11,12,12,13,13,14,14,15,15,16,16,17,17,18,18,19,19,20,20,21,21,22,22,23,23,26,26,29,29,30,30,31,31,32,32,33,33,34,34,36,36],"right_children":[2,4,6,8,10,12,-1,14,-1,16,-1,18,20,22,24,26,28,30,32,34,36,38,40,42,-1,-1,44,-1,-1,46,48,50,52,54,56,-1,58,-1,-1,-1,-1,-1,-1,-1,-1,-1,-1,-1,-1,-1,-1,-1,-1,-1,-1,-1,-1,-1,-1],"split_conditions":[-4.570817E-1,1.0570043E0,3.280497E0,1.3242239E0,-5.0852064E-2,3.0914173E-1,-1.8378796E-1,7.331934E0,2.0479178E-1,-5.751629E-1,-1.7801334E-1,-1.6302583E-1,1.8773998E0,3.2374206E0,2.104565E-1,1.0790136E0,-3.1416717E-1,4.1184354E-1,-3.1685E-1,6.148933E-1,1.4666903E0,5.118892E0,1.8936871E0,7.469891E-1,-1.3669749E-1,-1.3719432E-1,1.4232863E0,2.4387108E-1,-1.1010807E-1,4.776348E-4,3.9595315E-1,-1.0012871E0,1.0544485E0,-1.8349497E-1,-2.918832E-1,-1.874118E-1,1.8951635E0,-1.7969348E-1,1.01364136E-1,7.133388E-2,-1.653189E-1,-9.8162346E-2,2.186697E-1,2.034307E-1,-4.008558E-2,-1.6192554E-1,-1.3160665E-2,-1.3555034E-1,2.779893E-1,-1.8382353E-1,2.1391673E-1,-1.7318231E-1,1.2099028E-1,1.2904823E-1,-1.2895335E-1,2.049777E-2,2.3423505E-1,1.6162981E-1,-1.2887222E-1],"split_indices":[9,17,9,0,1,0,0,2,0,19,0,2,7,8,1,16,1,16,1,7,12,15,13,11,0,0,16,0,0,14,9,10,14,1,9,0,7,0,0,0,0,0,0,0,0,0,0,0,0,0,0,0,0,0,0,0,0,0,0],"split_type":[0,0,0,0,0,0,0,0,0,0,0,0,0,0,0,0,0,0,0,0,0,0,0,0,0,0,0,0,0,0,0,0,0,0,0,0,0,0,0,0,0,0,0,0,0,0,0,0,0,0,0,0,0,0,0,0,0,0,0],"sum_hessian":[1.4158315E3,5.582804E2,8.5755115E2,5.1435504E2,4.3925354E1,7.691889E2,8.836227E1,5.1092444E2,3.430592E0,2.1204296E1,2.2721058E1,1.8215472E2,5.870341E2,5.038258E2,7.0986347E0,6.0115047E0,1.5192792E1,1.0340903E2,7.87457E1,5.586519E2,2.8382217E1,4.9075476E2,1.3071059E1,4.4816847E0,2.6169503E0,1.3690851E0,4.6424193E0,1.4066128E1,1.1266639E0,9.768432E1,5.7247114E0,6.918327E1,9.56243E0,1.4493344E2,4.1371848E2,2.4694365E1,3.6878524E0,4.8843842E2,2.3163257E0,7.3271456E0,5.7439137E0,1.0367568E0,3.444928E0,2.9510036E0,1.6914158E0,7.9359436E1,1.832488E1,2.334076E0,3.3906357E0,2.4262462E0,6.675703E1,8.199405E0,1.3630254E0,1.3015576E2,1.4777672E1,1.3878481E1,3.9984E2,1.4719236E0,2.215929E0],"tree_param":{"num_deleted":"0","num_feature":"21","num_nodes":"59","size_leaf_vector":"1"}},{"base_weights":[-5.583774E-3,7.688777E-1,-2.6974782E-1,-1.4855647E-1,7.808621E-1,-4.3194148E-1,7.7842784E-1,7.8893745E-1,-2.573185E-1,-5.3116333E-1,7.2922844E-1,7.948417E-1,1.8752873E-1,7.9509634E-1,-1.1814543E-1,-1.8044231E-2,-1.0582381E-1,-5.855219E-1,4.2391413E-1,1.9432E-1,8.1664735E-1,2.2620721E-1,2.4274316E-1,-1.3378936E-1,1.8489869E-1,8.0057955E-1,-5.2065764E-2,5.827709E-1,-5.936305E-1,7.088264E-1,-3.6329204E-1,2.1422462E-1,-3.3920246E-1,2.4937226E-1,2.4583858E-2,1.8055952E-1,-1.3005234E-1,2.4223073E-1,1.145361E-1,5.0523154E-2,2.0459199E-1,2.9430887E-2,-1.8183908E-1,-1.5409273E-1,2.503384E-1,1.7848094E-1,-1.7804599E-1,5.4120705E-2,-1.5767837E-1],"categories":[],"categories_nodes":[],"categories_segments":[],"categories_sizes":[],"default_left":[0,0,0,0,0,0,0,0,0,0,0,0,0,0,0,0,0,0,0,0,0,0,0,0,0,0,0,0,0,0,0,0,0,0,0,0,0,0,0,0,0,0,0,0,0,0,0,0,0],"id":8,"left_children":[1,3,5,-1,7,9,11,13,15,17,19,21,23,25,-1,-1,-1,27,29,31,33,35,-1,-1,-1,37,-1,39,41,43,45,-1,47,-1,-1,-1,-1,-1,-1,-1,-1,-1,-1,-1,-1,-1,-1,-1,-1],"loss_changes":[2.8398596E2,5.7351074E0,1.7630093E2,0E0,3.1383667E0,1.037321E2,1.1996384E0,2.8457031E0,4.3818414E-2,4.318071E1,3.1629753E0,9.147949E-1,1.6512839E0,1.9777069E0,0E0,0E0,0E0,7.7619324E0,1.0375366E1,3.3731496E0,5.83168E-1,1.4256904E0,0E0,0E0,0E0,6.806793E-1,0E0,1.2769222E-1,6.7858887E0,5.5678997E0,3.1432867E0,0E0,7.000837E-1,0E0,0E0,0E0,0E0,0E0,0E0,0E0,0E0,0E0,0E0,0E0,0E0,0E0,0E0,0E0,0E0],"parents":[2147483647,0,0,1,1,2,2,4,4,5,5,6,6,7,7,8,8,9,9,10,10,11,11,12,12,13,13,17,17,18,18,19,19,20,20,21,21,25,25,27,27,28,28,29,29,30,30,32,32],"right_children":[2,4,6,-1,8,10,12,14,16,18,20,22,24,26,-1,-1,-1,28,30,32,34,36,-1,-1,-1,38,-1,40,42,44,46,-1,48,-1,-1,-1,-1,-1,-1,-1,-1,-1,-1,-1,-1,-1,-1,-1,-1],"split_conditions":[-1.4954376E0,-1.2494566E0,3.2511275E0,-1.4855647E-1,-5.863763E-1,1.8491919E0,1.5030916E-1,4.207228E0,-1.6334468E0,2.9590409E0,-1.2828056E0,3.280497E0,3.5580015E0,-8.1369805E-1,-1.1814543E-1,-1.8044231E-2,-1.0582381E-1,-2.1865046E0,-3.1989342E-1,-1.0481012E0,-2.6149464E-1,1.0981194E0,2.4274316E-1,-1.3378936E-1,1.8489869E-1,-1.5910934E0,-5.2065764E-2,-4.9348155E-1,-1.7987205E0,-4.1162902E-1,-6.760811E-1,2.1422462E-1,-7.523908E-1,2.4937226E-1,2.4583858E-2,1.8055952E-1,-1.3005234E-1,2.4223073E-1,1.145361E-1,5.0523154E-2,2.0459199E-1,2.9430887E-2,-1.8183908E-1,-1.5409273E-1,2.503384E-1,1.7848094E-1,-1.7804599E-1,5.4120705E-2,-1.5767837E-1],"split_indices":[17,7,9,0,12,7,3,13,16,6,8,9,9,18,0,0,0,16,16,13,3,0,0,0,0,17,0,4,13,0,3,0,10,0,0,0,0,0,0,0,0,0,0,0,0,0,0,0,0],"split_type":[0,0,0,0,0,0,0,0,0,0,0,0,0,0,0,0,0,0,0,0,0,0,0,0,0,0,0,0,0,0,0,0,0,0,0,0,0,0,0,0,0,0,0,0,0,0,0,0,0],"sum_hessian":[1.3860945E3,3.520534E2,1.0340411E3,2.9277413E0,3.4912567E2,8.9598517E2,1.3805594E2,3.4666922E2,2.45646E0,8.259504E2,7.003482E1,1.3398889E2,4.0670466E0,3.4519943E2,1.4697733E0,1.3328458E0,1.1236141E0,7.818387E2,4.4111656E1,1.0290581E1,5.974424E1,3.699959E0,1.3028893E2,1.6255267E0,2.4415202E0,3.434289E2,1.7705302E0,4.900513E0,7.769382E2,3.2462223E1,1.1649433E1,5.041085E0,5.2494965E0,5.8451805E1,1.2924335E0,2.4133997E0,1.2865593E0,3.3698404E2,6.4448714E0,1.4676995E0,3.4328136E0,1.3668649E1,7.6326953E2,2.7374592E0,2.9724762E1,1.9495538E0,9.69988E0,1.3944175E0,3.855079E0],"tree_param":{"num_deleted":"0","num_feature":"21","num_nodes":"49","size_leaf_vector":"1"}},{"base_weights":[6.9669327E-3,3.9354157E-1,-3.6815754E-1,4.8801342E-1,-4.8267335E-1,-4.107849E-1,6.6505015E-1,2.542829E-1,6.707179E-1,3.5234958E-1,-5.32571E-1,-5.334156E-1,-2.5348696E-1,5.7590183E-2,2.045152E-1,4.821247E-1,-2.1976493E-1,6.9531184E-1,4.346536E-1,1.5145223E-1,-8.143571E-3,7.108736E-2,-5.6657594E-1,-5.5712986E-1,-2.4428314E-1,-5.513993E-1,2.0218103E-3,5.615592E-1,-3.863896E-1,-3.1305823E-1,5.6437075E-1,-1.2954262E-1,7.0381004E-1,6.764329E-1,-2.5223115E-1,-1.7690945E-1,6.885776E-2,-5.7043433E-1,-6.919926E-2,3.1658134E-1,-1.6581899E-1,-5.727003E-1,1.5689388E-1,4.4907323E-1,-3.533244E-1,1.8893038E-1,7.461678E-3,8.758881E-2,-1.6980608E-1,3.0376816E-1,-1.0820333E-1,2.9568604E-1,-6.948058E-2,-1.13434434E-1,5.9511773E-2,2.1304871E-1,9.776951E-2,2.1611334E-1,-2.4806602E-2,1.4967097E-1,-1.3971974E-1,-8.1280336E-2,-1.7338222E-1,-1.5239765E-1,2.4403808E-1,2.031326E-1,-1.3872759E-1,9.370424E-3,-1.7411353E-1,1.6825214E-1,-1.15772985E-1,8.93875E-2,-1.4007425E-1],"categories":[],"categories_nodes":[],"categories_segments":[],"categories_sizes":[],"default_left":[0,0,0,0,0,0,0,0,0,0,0,0,0,0,0,0,0,0,0,0,0,0,0,0,0,0,0,0,0,0,0,0,0,0,0,0,0,0,0,0,0,0,0,0,0,0,0,0,0,0,0,0,0,0,0,0,0,0,0,0,0,0,0,0,0,0,0,0,0,0,0,0,0],"id":9,"left_children":[1,3,5,7,9,11,13,15,17,19,21,23,25,-1,-1,27,29,31,33,-1,-1,-1,35,37,39,41,43,45,47,49,51,53,55,57,59,-1,-1,61,63,65,-1,67,-1,69,71,-1,-1,-1,-1,-1,-1,-1,-1,-1,-1,-1,-1,-1,-1,-1,-1,-1,-1,-1,-1,-1,-1,-1,-1,-1,-1,-1,-1],"loss_changes":[1.7588905E2,4.9681274E1,2.738527E1,2.2876343E1,2.6308422E0,1.1280548E1,6.446648E-2,2.5854286E1,1.4528656E0,2.3987138E-1,1.5925751E0,2.1378403E0,1.9880787E1,0E0,0E0,1.1346516E1,5.8880167E0,1.9986115E0,5.3505726E0,0E0,0E0,0E0,1.1232166E0,1.945198E0,4.8320684E0,3.059044E0,2.265045E1,5.409832E0,1.884659E0,4.8101325E0,3.1312802E0,3.7002975E-1,4.1551208E-1,8.38233E-1,1.6514386E0,0E0,0E0,5.1218414E-1,3.9969728E0,3.1743116E0,0E0,5.6861496E-1,0E0,6.10905E0,6.0162E0,0E0,0E0,0E0,0E0,0E0,0E0,0E0,0E0,0E0,0E0,0E0,0E0,0E0,0E0,0E0,0E0,0E0,0E0,0E0,0E0,0E0,0E0,0E0,0E0,0E0,0E0,0E0,0E0],"parents":[2147483647,0,0,1,1,2,2,3,3,4,4,5,5,6,6,7,7,8,8,9,9,10,10,11,11,12,12,15,15,16,16,17,17,18,18,22,22,23,23,24,24,25,25,26,26,27,27,28,28,29,29,30,30,31,31,32,32,33,33,34,34,37,37,38,38,39,39,41,41,43,43,44,44],"right_children":[2,4,6,8,10,12,14,16,18,20,22,24,26,-1,-1,28,30,32,34,-1,-1,-1,36,38,40,42,44,46,48,50,52,54,56,58,60,-1,-1,62,64,66,-1,68,-1,70,72,-1,-1,-1,-1,-1,-1,-1,-1,-1,-1,-1,-1,-1,-1,-1,-1,-1,-1,-1,-1,-1,-1,-1,-1,-1,-1,-1,-1],"split_conditions":[6.696255E-1,1.4251857E0,4.5266587E-1,-3.1685E-1,5.5877405E-1,-4.9100795E-1,-1.0500714E0,8.047321E-1,-1.8099634E-2,-5.087701E-1,-1.6502131E0,-3.2311615E-1,-1.640498E0,5.7590183E-2,2.045152E-1,-2.1456338E-1,1.9033185E0,-1.12407E0,8.47041E-1,1.5145223E-1,-8.143571E-3,7.108736E-2,3.091325E-1,1.7517074E0,1.4251857E0,4.207228E0,1.6142885E-1,4.9528664E-1,-1.0757424E0,-2.530001E-1,4.265377E-1,-6.091359E-1,5.79263E0,1.0544485E0,3.5220927E-1,-1.7690945E-1,6.885776E-2,7.2399783E-1,-3.521222E-1,4.1842055E-1,-1.6581899E-1,-1.1220108E-1,1.5689388E-1,1.4251857E0,-1.9480577E-1,1.8893038E-1,7.461678E-3,8.758881E-2,-1.6980608E-1,3.0376816E-1,-1.0820333E-1,2.9568604E-1,-6.948058E-2,-1.13434434E-1,5.9511773E-2,2.1304871E-1,9.776951E-2,2.1611334E-1,-2.4806602E-2,1.4967097E-1,-1.3971974E-1,-8.1280336E-2,-1.7338222E-1,-1.5239765E-1,2.4403808E-1,2.031326E-1,-1.3872759E-1,9.370424E-3,-1.7411353E-1,1.6825214E-1,-1.15772985E-1,8.93875E-2,-1.4007425E-1],"split_indices":[7,6,1,1,19,3,17,17,9,0,7,1,17,0,0,6,0,11,13,0,0,0,16,4,6,13,17,7,7,13,13,19,2,14,17,0,0,7,0,17,0,4,0,6,9,0,0,0,0,0,0,0,0,0,0,0,0,0,0,0,0,0,0,0,0,0,0,0,0,0,0,0,0],"split_type":[0,0,0,0,0,0,0,0,0,0,0,0,0,0,0,0,0,0,0,0,0,0,0,0,0,0,0,0,0,0,0,0,0,0,0,0,0,0,0,0,0,0,0,0,0,0,0,0,0,0,0,0,0,0,0,0,0,0,0,0,0,0,0,0,0,0,0,0,0,0,0,0,0],"sum_hessian":[1.210915E3,5.9633185E2,6.145832E2,5.386939E2,5.7637928E1,5.9081036E2,2.3772825E1,2.3739304E2,3.0130087E2,2.908224E0,5.4729706E1,3.3064542E2,2.6016495E2,1.2350397E0,2.2537785E1,1.603209E2,7.7072136E1,2.7111032E2,3.0190552E1,1.8389775E0,1.0692468E0,2.0635421E0,5.2666164E1,3.0472537E2,2.592005E1,1.195808E2,1.4058415E2,1.4721042E2,1.311048E1,6.941427E1,7.657868E0,2.6194332E0,2.684909E2,2.2341644E1,7.8489084E0,5.1431637E1,1.2345246E0,2.9647232E2,8.253029E0,9.187529E0,1.6732521E1,1.1771391E2,1.8668885E0,6.214166E1,7.84425E1,1.3045694E2,1.6753479E1,2.6139355E0,1.0496545E1,1.7043902E0,6.770988E1,4.851873E0,2.805995E0,1.402897E0,1.2165362E0,2.631878E2,5.303076E0,2.1167324E1,1.1743201E0,1.4413216E0,6.4075866E0,8.155806E0,2.8831653E2,5.7961082E0,2.4569201E0,6.370187E0,2.8173418E0,1.4392534E0,1.1627466E2,5.509518E1,7.04648E0,1.1408298E1,6.7034195E1],"tree_param":{"num_deleted":"0","num_feature":"21","num_nodes":"73","size_leaf_vector":"1"}},{"base_weights":[1.8970519E-3,-4.8001266E-1,2.8751248E-1,-5.201441E-1,-1.6259508E-2,3.7541306E-1,-1.7310616E-1,-5.378852E-1,1.5385187E-1,3.2405502E-1,-1.6402748E-1,4.2596543E-1,-5.3050494E-1,-5.509867E-1,6.6179015E-2,1.8817517E-1,-1.4396743E-1,4.6743244E-1,-1.3922244E-1,5.9930146E-1,1.1049985E-1,-1.7437308E-1,-8.685039E-4,-5.630173E-1,-1.0529966E-1,-1.4466806E-1,5.545194E-1,5.7278764E-1,9.139119E-3,-3.0308348E-1,6.157282E-1,-1.8689324E-1,5.2413195E-1,1.4065428E-1,-1.1698023E-1,-1.7100868E-1,-1.0787591E-2,8.0947414E-2,-1.577821E-1,-1.0262535E-1,2.7695942E-1,-5.0023474E-2,1.9631737E-1,-1.2016959E-1,1.1561615E-1,1.7566413E-1,-2.0030981E-1,1.9120218E-1,3.810239E-2,-1.6905837E-1,2.9991703E-2,-6.451531E-2,1.9444865E-1],"categories":[],"categories_nodes":[],"categories_segments":[],"categories_sizes":[],"default_left":[0,0,0,0,0,0,0,0,0,0,0,0,0,0,0,0,0,0,0,0,0,0,0,0,0,0,0,0,0,0,0,0,0,0,0,0,0,0,0,0,0,0,0,0,0,0,0,0,0,0,0,0,0],"id":10,"left_children":[1,3,5,7,9,11,-1,13,15,17,-1,19,21,23,25,-1,-1,27,-1,29,31,-1,33,35,37,-1,39,41,43,45,47,49,51,-1,-1,-1,-1,-1,-1,-1,-1,-1,-1,-1,-1,-1,-1,-1,-1,-1,-1,-1,-1],"loss_changes":[1.6898816E2,8.494514E0,5.8797115E1,5.1103516E0,6.9328237E0,3.2298462E1,0E0,3.280449E0,3.7695036E0,2.863837E0,0E0,3.62352E1,1.006155E0,2.0924454E0,2.8368297E0,0E0,0E0,9.757323E-1,0E0,6.5342865E0,2.9207815E1,0E0,9.6433014E-1,1.4226913E0,2.0003684E0,0E0,2.14717E0,1.1050496E0,8.9641553E-1,3.0886796E0,4.3647766E0,1.5009815E1,9.237936E0,0E0,0E0,0E0,0E0,0E0,0E0,0E0,0E0,0E0,0E0,0E0,0E0,0E0,0E0,0E0,0E0,0E0,0E0,0E0,0E0],"parents":[2147483647,0,0,1,1,2,2,3,3,4,4,5,5,7,7,8,8,9,9,11,11,12,12,13,13,14,14,17,17,19,19,20,20,22,22,23,23,24,24,26,26,27,27,28,28,29,29,30,30,31,31,32,32],"right_children":[2,4,6,8,10,12,-1,14,16,18,-1,20,22,24,26,-1,-1,28,-1,30,32,-1,34,36,38,-1,40,42,44,46,48,50,52,-1,-1,-1,-1,-1,-1,-1,-1,-1,-1,-1,-1,-1,-1,-1,-1,-1,-1,-1,-1],"split_conditions":[-4.570817E-1,9.034987E-1,3.280497E0,1.1806086E0,-5.0852064E-2,1.8773998E0,-1.7310616E-1,3.0412838E0,-5.5382735E-1,9.1017276E-1,-1.6402748E-1,-8.3518076E-1,1.4666903E0,3.2374206E0,-5.7680434E-1,1.8817517E-1,-1.4396743E-1,4.6308005E-1,-1.3922244E-1,-7.3195255E-1,3.3157864E-1,-1.7437308E-1,1.8951635E0,7.331934E0,2.744303E0,-1.4466806E-1,-2.1456338E-1,-1.3369669E0,5.278808E-1,-1.2427124E0,8.6955994E-1,-4.9705263E-3,1.0336684E-3,1.4065428E-1,-1.1698023E-1,-1.7100868E-1,-1.0787591E-2,8.0947414E-2,-1.577821E-1,-1.0262535E-1,2.7695942E-1,-5.0023474E-2,1.9631737E-1,-1.2016959E-1,1.1561615E-1,1.7566413E-1,-2.0030981E-1,1.9120218E-1,3.810239E-2,-1.6905837E-1,2.9991703E-2,-6.451531E-2,1.9444865E-1],"split_indices":[9,0,9,17,1,7,0,14,1,10,0,8,12,8,1,0,0,20,0,17,14,0,7,2,19,0,6,14,10,11,3,10,0,0,0,0,0,0,0,0,0,0,0,0,0,0,0,0,0,0,0,0,0],"split_type":[0,0,0,0,0,0,0,0,0,0,0,0,0,0,0,0,0,0,0,0,0,0,0,0,0,0,0,0,0,0,0,0,0,0,0,0,0,0,0,0,0,0,0,0,0,0,0,0,0,0,0,0,0],"sum_hessian":[1.2257445E3,4.558771E2,7.698674E2,4.1945728E2,3.6419834E1,6.9932947E2,7.05379E1,4.0889615E2,1.0561127E1,2.2424006E1,1.3995831E1,6.6286957E2,3.6459885E1,4.0030188E2,8.594255E0,6.0511985E0,4.509928E0,1.9316784E1,3.1072211E0,4.2722586E2,2.3564372E2,3.3183502E1,3.2763827E0,3.8952405E2,1.0777848E1,4.054064E0,4.5401917E0,1.5503027E1,3.8137562E0,7.326041E0,4.198998E2,1.3740237E2,9.8241356E1,1.391443E0,1.8849397E0,3.8432968E2,5.1943593E0,5.886684E0,4.8911643E0,1.3439416E0,3.19625E0,1.4369857E0,1.4066041E1,1.7947664E0,2.0189898E0,1.9551299E0,5.3709116E0,4.01826E2,1.8073822E1,5.89892E1,7.841317E1,1.4010295E1,8.423106E1],"tree_param":{"num_deleted":"0","num_feature":"21","num_nodes":"53","size_leaf_vector":"1"}},{"base_weights":[-9.178772E-3,6.608732E-1,-2.489968E-1,-3.5217884E-1,6.7362547E-1,-4.0153113E-1,6.6286194E-1,-1.4241308E-1,1.0481992E-2,6.811025E-1,-6.868734E-2,-4.9550518E-1,6.314616E-1,1.8345034E-1,6.8573195E-1,6.8677634E-1,-1.0730038E-1,-5.4800093E-1,3.5429317E-1,6.6316426E-1,-1.2402108E-1,1.9711253E-1,-1.4030093E-1,2.1001074E-1,2.0547491E-1,6.9220567E-1,-5.029149E-2,4.893353E-1,-5.5623215E-1,5.590015E-1,-4.5726582E-1,8.361329E-3,7.049404E-1,-1.19544275E-1,1.7454827E-1,2.0996003E-1,7.765355E-2,1.7707703E-1,3.174708E-2,2.5670039E-2,-1.7109746E-1,-1.5460323E-1,2.0507453E-1,-1.595752E-1,8.706359E-3,1.3579568E-1,-1.1957779E-1,2.1753329E-1,-3.721136E-2],"categories":[],"categories_nodes":[],"categories_segments":[],"categories_sizes":[],"default_left":[0,0,0,0,0,0,0,0,0,0,0,0,0,0,0,0,0,0,0,0,0,0,0,0,0,0,0,0,0,0,0,0,0,0,0,0,0,0,0,0,0,0,0,0,0,0,0,0,0],"id":11,"left_children":[1,3,5,7,9,11,13,-1,-1,15,-1,17,19,21,23,25,-1,27,29,31,-1,-1,-1,-1,33,35,-1,37,39,41,43,45,47,-1,-1,-1,-1,-1,-1,-1,-1,-1,-1,-1,-1,-1,-1,-1,-1],"loss_changes":[1.8872176E2,4.236313E0,1.2055962E2,2.3027456E-1,2.2213745E0,7.229797E1,1.2372398E0,0E0,0E0,2.0361176E0,0E0,3.054155E1,2.337E0,2.4737542E0,6.68766E-1,1.5192108E0,0E0,5.7460938E0,6.931771E0,1.657978E0,0E0,0E0,0E0,0E0,1.3312382E0,8.1736755E-1,0E0,1.5346634E-1,5.8058014E0,4.707634E0,3.2925737E-1,1.0229554E0,1.0457916E0,0E0,0E0,0E0,0E0,0E0,0E0,0E0,0E0,0E0,0E0,0E0,0E0,0E0,0E0,0E0,0E0],"parents":[2147483647,0,0,1,1,2,2,3,3,4,4,5,5,6,6,9,9,11,11,12,12,13,13,14,14,15,15,17,17,18,18,19,19,24,24,25,25,27,27,28,28,29,29,30,30,31,31,32,32],"right_children":[2,4,6,8,10,12,14,-1,-1,16,-1,18,20,22,24,26,-1,28,30,32,-1,-1,-1,-1,34,36,-1,38,40,42,44,46,48,-1,-1,-1,-1,-1,-1,-1,-1,-1,-1,-1,-1,-1,-1,-1,-1],"split_conditions":[-1.4954376E0,-1.1915518E0,3.2014613E0,-4.5846114E-1,-5.863763E-1,1.8491919E0,3.280497E0,-1.4241308E-1,1.0481992E-2,4.207228E0,-6.868734E-2,2.9590409E0,-2.5799932E-2,1.2723565E0,1.5030916E-1,-8.1369805E-1,-1.0730038E-1,-2.1865046E0,-4.7186938E-1,-1.4939942E0,-1.2402108E-1,1.9711253E-1,-1.4030093E-1,2.1001074E-1,3.5580015E0,-1.5910934E0,-5.029149E-2,7.493931E-2,-1.7987205E0,-4.1162902E-1,5.79263E0,1.303578E-1,1.5676608E0,-1.19544275E-1,1.7454827E-1,2.0996003E-1,7.765355E-2,1.7707703E-1,3.174708E-2,2.5670039E-2,-1.7109746E-1,-1.5460323E-1,2.0507453E-1,-1.595752E-1,8.706359E-3,1.3579568E-1,-1.1957779E-1,2.1753329E-1,-3.721136E-2],"split_indices":[17,7,9,10,12,7,9,0,0,13,0,6,3,0,3,18,0,16,18,11,0,0,0,0,9,17,0,8,13,0,2,0,12,0,0,0,0,0,0,0,0,0,0,0,0,0,0,0,0],"split_type":[0,0,0,0,0,0,0,0,0,0,0,0,0,0,0,0,0,0,0,0,0,0,0,0,0,0,0,0,0,0,0,0,0,0,0,0,0,0,0,0,0,0,0,0,0,0,0,0,0],"sum_hessian":[1.1724182E3,3.0855615E2,8.638621E2,3.5049396E0,3.050512E2,7.4054456E2,1.2331751E2,2.4904075E0,1.0145321E0,3.027883E2,2.2629166E0,6.7926996E2,6.1274643E1,6.025689E0,1.1729182E2,3.0148044E2,1.307855E0,6.400843E2,3.918565E1,5.982479E1,1.4498544E0,3.4831383E0,2.5425508E0,1.13455086E2,3.8367326E0,2.9976544E2,1.7149935E0,4.578914E0,6.355054E2,3.1540937E1,7.6447124E0,3.6598666E0,5.6164925E1,1.4503967E0,2.386336E0,2.939539E2,5.81156E0,3.1982164E0,1.3806977E0,1.3545716E1,6.2195966E2,2.951488E0,2.8589449E1,6.5459843E0,1.0987282E0,1.6959854E0,1.963881E0,5.495311E1,1.2118121E0],"tree_param":{"num_deleted":"0","num_feature":"21","num_nodes":"49","size_leaf_vector":"1"}},{"base_weights":[1.0576657E-2,3.3725807E-1,-3.5098916E-1,4.1711524E-1,-4.5680794E-1,-3.8522074E-1,5.874625E-1,2.0432068E-1,6.031275E-1,2.0719872E-1,-5.173279E-1,-5.160366E-1,-2.2281802E-1,3.4068733E-2,1.8299493E-1,4.038566E-1,-1.9509149E-1,6.2764823E-1,3.8503724E-1,-9.326061E-2,1.3527618E-1,3.1385783E-2,-5.4146993E-1,-5.376145E-1,-2.4768414E-1,-5.220004E-1,1.2984896E-2,5.595064E-1,1.2561802E-2,-4.1801575E-1,1.0932845E-1,-1.2820604E-1,6.360443E-1,5.15142E-1,-1.4934015E-1,-1.6963093E-1,3.0938936E-2,-1.6480294E-1,-1.11193046E-1,2.4772516E-1,-1.5652865E-1,-5.4532605E-1,1.3778785E-1,2.8773528E-1,-4.809387E-1,1.8401355E-1,-2.489296E-2,2.2925667E-1,-4.8462097E-2,1.470923E-1,-1.4700566E-1,1.8409319E-1,-5.5996317E-2,-1.0445174E-1,4.98543E-2,1.9298232E-1,7.94117E-2,1.7993024E-1,-1.2351569E-1,-1.4156556E-1,1.8424119E-1,1.7685284E-1,-1.2591459E-1,2.281243E-2,-1.6657443E-1,-6.45121E-2,1.5333647E-1,-1.7190167E-1,6.524998E-2],"categories":[],"categories_nodes":[],"categories_segments":[],"categories_sizes":[],"default_left":[0,0,0,0,0,0,0,0,0,0,0,0,0,0,0,0,0,0,0,0,0,0,0,0,0,0,0,0,0,0,0,0,0,0,0,0,0,0,0,0,0,0,0,0,0,0,0,0,0,0,0,0,0,0,0,0,0,0,0,0,0,0,0,0,0,0,0,0,0],"id":12,"left_children":[1,3,5,7,9,11,13,15,17,19,21,23,25,-1,-1,27,29,31,33,-1,-1,-1,35,37,39,41,43,45,47,49,51,53,55,57,-1,-1,-1,-1,59,61,-1,63,-1,65,67,-1,-1,-1,-1,-1,-1,-1,-1,-1,-1,-1,-1,-1,-1,-1,-1,-1,-1,-1,-1,-1,-1,-1,-1],"loss_changes":[1.21126114E2,3.4351177E1,1.5863461E1,1.9272423E1,2.104556E0,9.875137E0,1.1778259E-1,1.8414093E1,1.153801E0,7.5455046E-1,7.449026E-1,1.3705673E0,1.4931267E1,0E0,0E0,9.35676E0,5.292713E0,1.560112E0,3.5829172E0,0E0,0E0,0E0,7.424917E-1,1.1367569E0,3.0052714E0,2.385315E0,1.6325659E1,3.8571167E0,5.982775E0,3.1729403E0,5.111669E0,2.7749813E-1,4.488144E-1,2.2652879E0,0E0,0E0,0E0,0E0,2.29512E0,2.123145E0,0E0,6.0671043E-1,0E0,8.78861E0,2.890294E0,0E0,0E0,0E0,0E0,0E0,0E0,0E0,0E0,0E0,0E0,0E0,0E0,0E0,0E0,0E0,0E0,0E0,0E0,0E0,0E0,0E0,0E0,0E0,0E0],"parents":[2147483647,0,0,1,1,2,2,3,3,4,4,5,5,6,6,7,7,8,8,9,9,10,10,11,11,12,12,15,15,16,16,17,17,18,18,22,22,23,23,24,24,25,25,26,26,27,27,28,28,29,29,30,30,31,31,32,32,33,33,38,38,39,39,41,41,43,43,44,44],"right_children":[2,4,6,8,10,12,14,16,18,20,22,24,26,-1,-1,28,30,32,34,-1,-1,-1,36,38,40,42,44,46,48,50,52,54,56,58,-1,-1,-1,-1,60,62,-1,64,-1,66,68,-1,-1,-1,-1,-1,-1,-1,-1,-1,-1,-1,-1,-1,-1,-1,-1,-1,-1,-1,-1,-1,-1,-1,-1],"split_conditions":[7.2399783E-1,1.4251857E0,4.5266587E-1,-3.1685E-1,8.7734246E-1,-4.9100795E-1,-1.4052804E0,8.047321E-1,-1.8099634E-2,-1.8035023E0,-1.6502131E0,-3.2311615E-1,-1.640498E0,3.4068733E-2,1.8299493E-1,-2.0432083E-1,1.2994192E0,-1.12407E0,1.4875532E0,-9.326061E-2,1.3527618E-1,3.1385783E-2,3.091325E-1,1.7517074E0,1.4251857E0,4.207228E0,6.3990784E-1,1.7194855E0,-9.436335E-1,-1.3369669E0,1.3086672E0,-6.091359E-1,5.79263E0,-4.047429E-2,-1.4934015E-1,-1.6963093E-1,3.0938936E-2,-1.6480294E-1,-3.521222E-1,4.1842055E-1,-1.5652865E-1,-1.1220108E-1,1.3778785E-1,-6.136217E-1,-5.7680434E-1,1.8401355E-1,-2.489296E-2,2.2925667E-1,-4.8462097E-2,1.470923E-1,-1.4700566E-1,1.8409319E-1,-5.5996317E-2,-1.0445174E-1,4.98543E-2,1.9298232E-1,7.94117E-2,1.7993024E-1,-1.2351569E-1,-1.4156556E-1,1.8424119E-1,1.7685284E-1,-1.2591459E-1,2.281243E-2,-1.6657443E-1,-6.45121E-2,1.5333647E-1,-1.7190167E-1,6.524998E-2],"split_indices":[7,6,1,1,19,3,10,17,9,16,7,1,17,0,0,2,0,11,13,0,0,0,16,4,6,13,18,9,13,14,17,19,2,2,0,0,0,0,0,17,0,4,0,19,1,0,0,0,0,0,0,0,0,0,0,0,0,0,0,0,0,0,0,0,0,0,0,0,0],"split_type":[0,0,0,0,0,0,0,0,0,0,0,0,0,0,0,0,0,0,0,0,0,0,0,0,0,0,0,0,0,0,0,0,0,0,0,0,0,0,0,0,0,0,0,0,0,0,0,0,0,0,0,0,0,0,0,0,0,0,0,0,0,0,0,0,0,0,0,0,0],"sum_hessian":[1.023475E3,5.377107E2,4.857643E2,4.890072E2,4.8703476E1,4.692376E2,1.652671E1,2.2906242E2,2.5994476E2,3.8657708E0,4.4837708E1,2.5868698E2,2.1055064E2,1.0238793E0,1.5502831E1,1.5274425E2,7.6318184E1,2.3198395E2,2.7960814E1,1.1486456E0,2.7171252E0,1.5508606E0,4.3286846E1,2.3850565E2,2.0181334E1,9.226844E1,1.182822E2,1.0896865E2,4.3775593E1,4.384078E1,3.24774E1,2.3918238E0,2.2959212E2,2.4732458E1,3.2283566E0,4.1853523E1,1.4333229E0,2.3184067E2,6.6649737E0,7.222487E0,1.2958846E1,9.0560074E1,1.7083635E0,7.627234E1,4.200987E1,1.0058032E2,8.388331E0,7.595457E0,3.6180138E1,2.7933214E0,4.104746E1,1.1614534E1,2.0862867E1,1.2643766E0,1.1274471E0,2.2448897E2,5.1031537E0,2.298661E1,1.7458482E0,4.684758E0,1.9802154E0,4.853737E0,2.3687503E0,1.3185998E0,8.924147E1,2.3474844E1,5.2797493E1,3.727583E1,4.73404E0],"tree_param":{"num_deleted":"0","num_feature":"21","num_nodes":"69","size_leaf_vector":"1"}},{"base_weights":[1.8290811E-3,-4.4687536E-1,2.468238E-1,-4.8751584E-1,-1.1441917E-2,3.1885397E-1,-1.6543934E-1,-5.051604E-1,1.4890836E-1,2.7174938E-1,-1.5466997E-1,-3.1225258E-1,3.7465778E-1,-5.196151E-1,7.6942235E-2,1.6808747E-1,-1.3247472E-1,3.913896E-1,-1.2812191E-1,-1.772131E-1,1.7765728E-1,4.2328322E-1,-4.9468696E-1,-5.329469E-1,-8.601743E-2,-1.3445988E-1,4.8554426E-1,-5.9816416E-2,4.5202672E-1,5.6198144E-1,-3.6187795E-1,4.6446532E-1,-1.4550212E-1,-5.478208E-1,6.472323E-3,-1.614999E-1,8.8948E-2,1.5295184E-1,-8.868795E-2,-9.153497E-2,2.2893833E-1,1.6635628E-1,7.464611E-3,2.0422655E-1,-9.85455E-2,-1.6103463E-1,-3.1271926E-4,-1.2349361E-1,1.4636208E-1,-1.4951052E-1,9.41212E-2,-1.7315246E-1,-9.4382435E-2,1.2748459E-1,-1.0815825E-1],"categories":[],"categories_nodes":[],"categories_segments":[],"categories_sizes":[],"default_left":[0,0,0,0,0,0,0,0,0,0,0,0,0,0,0,0,0,0,0,0,0,0,0,0,0,0,0,0,0,0,0,0,0,0,0,0,0,0,0,0,0,0,0,0,0,0,0,0,0,0,0,0,0,0,0],"id":13,"left_children":[1,3,5,7,9,11,-1,13,15,17,-1,19,21,23,25,-1,-1,27,-1,-1,29,31,33,35,37,-1,39,-1,41,43,45,47,49,51,53,-1,-1,-1,-1,-1,-1,-1,-1,-1,-1,-1,-1,-1,-1,-1,-1,-1,-1,-1,-1],"loss_changes":[1.1469448E2,6.515106E0,3.8980667E1,3.8595352E0,4.777009E0,2.193945E1,0E0,2.8009567E0,2.6434236E0,1.9606754E0,0E0,7.0465E0,2.4294159E1,1.8057785E0,2.1105542E0,0E0,0E0,7.6495695E-1,0E0,0E0,4.186528E0,1.271904E1,8.194785E-1,1.5470428E0,1.4930327E0,0E0,1.4270986E0,0E0,7.475505E-1,1.4515297E0,5.421574E-1,1.0534599E1,6.1890326E0,8.150101E-3,7.5609595E-1,0E0,0E0,0E0,0E0,0E0,0E0,0E0,0E0,0E0,0E0,0E0,0E0,0E0,0E0,0E0,0E0,0E0,0E0,0E0,0E0],"parents":[2147483647,0,0,1,1,2,2,3,3,4,4,5,5,7,7,8,8,9,9,11,11,12,12,13,13,14,14,17,17,20,20,21,21,22,22,23,23,24,24,26,26,28,28,29,29,30,30,31,31,32,32,33,33,34,34],"right_children":[2,4,6,8,10,12,-1,14,16,18,-1,20,22,24,26,-1,-1,28,-1,-1,30,32,34,36,38,-1,40,-1,42,44,46,48,50,52,54,-1,-1,-1,-1,-1,-1,-1,-1,-1,-1,-1,-1,-1,-1,-1,-1,-1,-1,-1,-1],"split_conditions":[-4.570817E-1,9.034987E-1,3.280497E0,1.1806086E0,-5.0852064E-2,-2.0717113E-1,-1.6543934E-1,3.0412838E0,-5.5382735E-1,9.1017276E-1,-1.5466997E-1,2.651841E-1,1.8773998E0,3.2374206E0,-5.7680434E-1,1.6808747E-1,-1.3247472E-1,-1.2427124E0,-1.2812191E-1,-1.772131E-1,-3.2311615E-1,-3.1685E-1,1.4666903E0,5.118892E0,-2.4119532E0,-1.3445988E-1,-2.1456338E-1,-5.9816416E-2,4.6308005E-1,5.2239573E-1,3.3157864E-1,-7.3195255E-1,8.279102E-1,1.784351E0,1.8951635E0,-1.614999E-1,8.8948E-2,1.5295184E-1,-8.868795E-2,-9.153497E-2,2.2893833E-1,1.6635628E-1,7.464611E-3,2.0422655E-1,-9.85455E-2,-1.6103463E-1,-3.1271926E-4,-1.2349361E-1,1.4636208E-1,-1.4951052E-1,9.41212E-2,-1.7315246E-1,-9.4382435E-2,1.2748459E-1,-1.0815825E-1],"split_indices":[9,0,9,17,1,7,0,14,1,10,0,13,7,8,1,0,0,11,0,0,1,1,12,15,18,0,6,0,20,9,14,17,16,9,7,0,0,0,0,0,0,0,0,0,0,0,0,0,0,0,0,0,0,0,0],"split_type":[0,0,0,0,0,0,0,0,0,0,0,0,0,0,0,0,0,0,0,0,0,0,0,0,0,0,0,0,0,0,0,0,0,0,0,0,0,0,0,0,0,0,0,0,0,0,0,0,0,0,0,0,0,0,0],"sum_hessian":[1.0413356E3,3.6747897E2,6.738566E2,3.359994E2,3.147957E1,6.186371E2,5.5219536E1,3.2713596E2,8.863449E0,2.0451767E1,1.1027803E1,4.988401E1,5.687531E2,3.1931412E2,7.8218203E0,5.254138E0,3.6093109E0,1.7837816E1,2.6139507E0,3.167477E1,1.820924E1,5.391118E2,2.964129E1,3.0956677E2,9.747341E0,3.3803854E0,4.441435E0,1.4474382E0,1.6390377E1,1.0609926E1,7.599314E0,5.0288458E2,3.622723E1,2.671573E1,2.92556E0,3.0791824E2,1.6485388E0,2.1638415E0,7.5834994E0,1.1283336E0,3.3131013E0,1.2978063E1,3.4123147E0,9.569076E0,1.0408511E0,4.789931E0,2.8093832E0,1.2655001E1,4.9022958E2,2.0438034E1,1.5789195E1,2.2419006E1,4.296725E0,1.2931408E0,1.6324191E0],"tree_param":{"num_deleted":"0","num_feature":"21","num_nodes":"55","size_leaf_vector":"1"}},{"base_weights":[-1.3165309E-2,5.928903E-1,-2.3432757E-1,-3.2706246E-1,6.055747E-1,-3.7746146E-1,6.0067767E-1,-1.2936454E-1,-1.0148902E-2,6.130112E-1,-6.0363475E-2,-4.6656328E-1,5.5832213E-1,6.127582E-1,-3.269234E-2,6.185761E-1,-9.750843E-2,-5.170379E-1,2.9822287E-1,8.750388E-2,6.433933E-1,6.249214E-1,2.1854204E-1,6.2420464E-1,-4.5486506E-2,-5.58894E-1,-2.5768587E-1,5.278207E-1,-3.3593753E-1,1.5511568E-1,-4.127955E-1,1.9789174E-1,1.9472903E-2,3.4049162E-1,1.9021443E-1,-1.08214065E-1,1.6564776E-1,1.8988603E-1,6.0867086E-2,1.2883922E-1,-1.7076631E-1,3.5778034E-1,-1.0979062E-1,-1.3931033E-1,1.9382475E-1,1.3214763E-1,-1.6186817E-1,-1.4808577E-1,-2.0757955E-2,1.8046758E-1,-1.0023338E-1],"categories":[],"categories_nodes":[],"categories_segments":[],"categories_sizes":[],"default_left":[0,0,0,0,0,0,0,0,0,0,0,0,0,0,0,0,0,0,0,0,0,0,0,0,0,0,0,0,0,0,0,0,0,0,0,0,0,0,0,0,0,0,0,0,0,0,0,0,0,0,0],"id":14,"left_children":[1,3,5,7,9,11,13,-1,-1,15,-1,17,19,21,-1,23,-1,25,27,29,31,33,35,37,-1,39,41,43,45,-1,47,-1,-1,49,-1,-1,-1,-1,-1,-1,-1,-1,-1,-1,-1,-1,-1,-1,-1,-1,-1],"loss_changes":[1.2986618E2,3.2208633E0,8.506088E1,1.12843186E-1,1.6584778E0,5.0834747E1,9.605408E-1,0E0,0E0,1.5258331E0,0E0,2.1553902E1,2.0740356E0,3.5567474E-1,0E0,1.1898041E0,0E0,5.505234E0,5.2669864E0,2.2114024E0,3.7906265E-1,4.1233063E-2,1.090138E0,7.967377E-1,0E0,4.809311E0,1.2084461E1,3.3570533E0,1.8033013E0,0E0,1.0056019E-1,0E0,0E0,1.1237193E0,0E0,0E0,0E0,0E0,0E0,0E0,0E0,0E0,0E0,0E0,0E0,0E0,0E0,0E0,0E0,0E0,0E0],"parents":[2147483647,0,0,1,1,2,2,3,3,4,4,5,5,6,6,9,9,11,11,12,12,13,13,15,15,17,17,18,18,19,19,20,20,21,21,22,22,23,23,25,25,26,26,27,27,28,28,30,30,33,33],"right_children":[2,4,6,8,10,12,14,-1,-1,16,-1,18,20,22,-1,24,-1,26,28,30,32,34,36,38,-1,40,42,44,46,-1,48,-1,-1,50,-1,-1,-1,-1,-1,-1,-1,-1,-1,-1,-1,-1,-1,-1,-1,-1,-1],"split_conditions":[-1.4954376E0,-1.1915518E0,3.2014613E0,-1.8967588E0,-5.863763E-1,1.8491919E0,2.013827E0,-1.2936454E-1,-1.0148902E-2,4.207228E0,-6.0363475E-2,2.9590409E0,-1.2828056E0,1.5030916E-1,-3.269234E-2,-8.1369805E-1,-9.750843E-2,1.3562571E0,-3.1989342E-1,-1.0481012E0,-2.6149464E-1,3.280497E0,3.5580015E0,-1.5910934E0,-4.5486506E-2,-2.1865046E0,-1.254123E0,-4.1162902E-1,-6.760811E-1,1.5511568E-1,2.599309E0,1.9789174E-1,1.9472903E-2,1.2723565E0,1.9021443E-1,-1.08214065E-1,1.6564776E-1,1.8988603E-1,6.0867086E-2,1.2883922E-1,-1.7076631E-1,3.5778034E-1,-1.0979062E-1,-1.3931033E-1,1.9382475E-1,1.3214763E-1,-1.6186817E-1,-1.4808577E-1,-2.0757955E-2,1.8046758E-1,-1.0023338E-1],"split_indices":[17,7,9,18,12,7,12,0,0,13,0,6,8,3,0,18,0,7,16,13,3,9,9,17,0,16,14,0,3,0,9,0,0,0,0,0,0,0,0,0,0,0,0,0,0,0,0,0,0,0,0],"split_type":[0,0,0,0,0,0,0,0,0,0,0,0,0,0,0,0,0,0,0,0,0,0,0,0,0,0,0,0,0,0,0,0,0,0,0,0,0,0,0,0,0,0,0,0,0,0,0,0,0,0,0],"sum_hessian":[9.668493E2,2.5804428E2,7.08805E2,3.1724608E0,2.5487181E2,6.055513E2,1.032537E2,1.99375E0,1.1787108E0,2.52782E2,2.0898123E0,5.533635E2,5.2187794E1,1.0165966E2,1.5940351E0,2.5162976E2,1.1522372E0,5.194074E2,3.3956085E1,8.297069E0,4.3890724E1,9.804922E1,3.6104453E0,2.4999242E2,1.6373556E0,4.4623578E2,7.317165E1,2.5053242E1,8.902843E0,4.4461746E0,3.8508937E0,4.2555332E1,1.3353908E0,4.2393246E0,9.380989E1,1.2897856E0,2.3206596E0,2.444147E2,5.5776997E0,4.1946745E0,4.4204108E2,4.3879447E0,6.8783714E1,2.3564622E0,2.269678E1,1.608031E0,7.294812E0,2.7641072E0,1.0867865E0,3.134551E0,1.1047735E0],"tree_param":{"num_deleted":"0","num_feature":"21","num_nodes":"51","size_leaf_vector":"1"}},{"base_weights":[1.39344875E-2,3.064652E-1,-3.2179812E-1,3.9675766E-1,-3.0038247E-1,-3.5344487E-1,5.3894573E-1,5.133866E-1,9.989335E-2,-4.6427715E-1,2.1276644E-1,-4.9310347E-1,-1.8833481E-1,1.6833583E-1,4.7859423E-2,5.378999E-1,-4.380834E-2,-1.3060668E-1,5.22477E-1,1.15452416E-1,-4.9589178E-1,-1.7138396E-1,1.7211507E-1,-3.468645E-1,-5.428921E-1,-5.102088E-1,1.746539E-2,-1.4503822E-1,5.5245733E-1,1.7616467E-1,-2.3371902E-1,-3.7753344E-1,1.0230239E-1,5.67106E-1,-4.3446966E-2,2.1942033E-2,-5.3592247E-1,1.264277E-1,-4.050093E-1,3.0069673E-1,-3.9096126E-1,-1.6475105E-1,-2.964512E-1,-1.6106822E-1,1.2284842E-1,2.4181673E-1,-4.487757E-1,-1.4669085E-1,1.6928619E-1,1.6951565E-1,-6.689337E-2,9.053494E-2,-1.2580696E-1,-1.378539E-1,6.822325E-2,7.404548E-2,-1.521128E-1,-3.685363E-2,1.7832479E-1,-1.1477223E-1,1.0670849E-1,1.3064411E-1,-1.2559353E-1,-1.6387191E-1,-6.9265686E-2,-1.7194033E-1,4.1163135E-2,3.5814565E-1,-1.11870885E-1,-1.2259891E-1,6.789131E-2,6.0596425E-2,-1.3315582E-1,-5.7815343E-2,1.5325065E-1,-1.6490032E-1,5.6214605E-2],"categories":[],"categories_nodes":[],"categories_segments":[],"categories_sizes":[],"default_left":[0,0,0,0,0,0,0,0,0,0,0,0,0,0,0,0,0,0,0,0,0,0,0,0,0,0,0,0,0,0,0,0,0,0,0,0,0,0,0,0,0,0,0,0,0,0,0,0,0,0,0,0,0,0,0,0,0,0,0,0,0,0,0,0,0,0,0,0,0,0,0,0,0,0,0,0,0],"id":15,"left_children":[1,3,5,7,9,11,13,15,17,19,21,23,25,-1,-1,27,29,31,33,-1,35,37,-1,39,41,43,45,47,49,-1,51,53,55,57,59,61,63,-1,65,67,69,-1,71,-1,-1,73,75,-1,-1,-1,-1,-1,-1,-1,-1,-1,-1,-1,-1,-1,-1,-1,-1,-1,-1,-1,-1,-1,-1,-1,-1,-1,-1,-1,-1,-1,-1],"loss_changes":[8.430465E1,2.5252296E1,1.107832E1,1.37878E1,5.1430216E0,8.810989E0,3.3067226E-2,3.9398804E0,1.1170754E1,1.4195862E0,2.2065983E0,1.330307E0,1.1837126E1,0E0,0E0,2.811325E0,1.6960256E0,4.326295E0,1.0457411E0,0E0,9.3559074E-1,1.2974275E0,0E0,1.7093558E0,7.519531E-2,1.929842E0,1.1602889E1,1.8679252E0,2.755043E0,0E0,1.191589E0,1.90973E0,3.5729132E0,7.804642E-1,6.6182333E-1,9.4001305E-1,4.196167E-3,0E0,6.571183E-1,2.9233348E0,6.6749763E-1,0E0,5.30068E-1,0E0,0E0,8.846853E0,2.4167328E0,0E0,0E0,0E0,0E0,0E0,0E0,0E0,0E0,0E0,0E0,0E0,0E0,0E0,0E0,0E0,0E0,0E0,0E0,0E0,0E0,0E0,0E0,0E0,0E0,0E0,0E0,0E0,0E0,0E0,0E0],"parents":[2147483647,0,0,1,1,2,2,3,3,4,4,5,5,6,6,7,7,8,8,9,9,10,10,11,11,12,12,15,15,16,16,17,17,18,18,20,20,21,21,23,23,24,24,25,25,26,26,27,27,28,28,30,30,31,31,32,32,33,33,34,34,35,35,36,36,38,38,39,39,40,40,42,42,45,45,46,46],"right_children":[2,4,6,8,10,12,14,16,18,20,22,24,26,-1,-1,28,30,32,34,-1,36,38,-1,40,42,44,46,48,50,-1,52,54,56,58,60,62,64,-1,66,68,70,-1,72,-1,-1,74,76,-1,-1,-1,-1,-1,-1,-1,-1,-1,-1,-1,-1,-1,-1,-1,-1,-1,-1,-1,-1,-1,-1,-1,-1,-1,-1,-1,-1,-1,-1],"split_conditions":[7.2399783E-1,-2.1456338E-1,4.5266587E-1,9.020374E-1,-3.2311615E-1,-4.9100795E-1,1.4857591E0,1.5911077E0,-8.0157906E-2,-1.0315616E0,-1.3295767E-1,1.9780183E-1,-1.9408039E0,1.6833583E-1,4.7859423E-2,-1.5910934E0,-9.436335E-1,1.2994192E0,2.366461E0,1.15452416E-1,-1.3886698E0,8.7734246E-1,1.7211507E-1,-1.175785E0,-7.2141576E-1,4.207228E0,6.3990784E-1,-8.1667125E-1,2.008791E0,1.7616467E-1,-1.0293671E-1,-2.9312718E-1,2.7780318E0,-1.1116569E0,7.091711E-1,-5.087701E-1,1.1141022E0,1.264277E-1,1.0700959E0,-2.0001516E-1,2.11716E0,-1.6475105E-1,6.7990994E-1,-1.6106822E-1,1.2284842E-1,9.2424256E-1,-5.7680434E-1,-1.4669085E-1,1.6928619E-1,1.6951565E-1,-6.689337E-2,9.053494E-2,-1.2580696E-1,-1.378539E-1,6.822325E-2,7.404548E-2,-1.521128E-1,-3.685363E-2,1.7832479E-1,-1.1477223E-1,1.0670849E-1,1.3064411E-1,-1.2559353E-1,-1.6387191E-1,-6.9265686E-2,-1.7194033E-1,4.1163135E-2,3.5814565E-1,-1.11870885E-1,-1.2259891E-1,6.789131E-2,6.0596425E-2,-1.3315582E-1,-5.7815343E-2,1.5325065E-1,-1.6490032E-1,5.6214605E-2],"split_indices":[7,6,1,18,1,3,19,9,1,0,3,9,17,0,0,17,13,0,14,0,7,19,0,8,8,13,18,12,13,0,7,4,9,11,1,0,20,0,4,2,8,0,0,0,0,7,1,0,0,0,0,0,0,0,0,0,0,0,0,0,0,0,0,0,0,0,0,0,0,0,0,0,0,0,0,0,0],"split_type":[0,0,0,0,0,0,0,0,0,0,0,0,0,0,0,0,0,0,0,0,0,0,0,0,0,0,0,0,0,0,0,0,0,0,0,0,0,0,0,0,0,0,0,0,0,0,0,0,0,0,0,0,0,0,0,0,0,0,0,0,0,0,0,0,0,0,0,0,0,0,0,0,0,0,0,0,0],"sum_hessian":[8.563896E2,4.5768573E2,3.9870383E2,3.9870837E2,5.8977356E1,3.8513312E2,1.3570722E1,2.85726E2,1.1298238E2,4.477265E1,1.4204704E1,2.0757173E2,1.7756139E2,1.236895E1,1.201772E0,2.737186E2,1.2007393E1,7.355334E1,3.9429047E1,1.2060902E0,4.3566563E1,7.1356254E0,7.069079E0,5.4744183E1,1.5282755E2,6.86745E1,1.0888689E2,5.525705E0,2.681929E2,2.2937603E0,9.713633E0,3.540089E1,3.8152447E1,3.6545002E1,2.884044E0,3.1586323E0,4.040793E1,1.7899324E0,5.345693E0,3.1192296E0,5.162495E1,1.4783311E2,4.9944296E0,6.7142586E1,1.5319121E0,7.3838005E1,3.5048885E1,3.930551E0,1.5951538E0,2.6417346E2,4.0194564E0,2.339448E0,7.374184E0,3.1387754E1,4.013135E0,3.1319479E1,6.8329678E0,1.2582669E0,3.5286736E1,1.5816872E0,1.3023567E0,1.6353095E0,1.5233228E0,3.8321075E1,2.0868542E0,4.036948E0,1.3087445E0,1.009045E0,2.1101844E0,5.0514267E1,1.1106863E0,1.0553684E0,3.939061E0,2.8342E1,4.5496006E1,3.0368517E1,4.680366E0],"tree_param":{"num_deleted":"0","num_feature":"21","num_nodes":"77","size_leaf_vector":"1"}},{"base_weights":[1.0654555E-3,-4.181694E-1,2.1252006E-1,-4.5940095E-1,-1.1081988E-2,2.724514E-1,-1.5983376E-1,-4.7658896E-1,1.3914731E-1,2.239461E-1,-1.4667289E-1,-9.080912E-2,3.4995413E-1,-4.916606E-1,1.6852427E-1,1.5158224E-1,-1.2189694E-1,3.2681137E-1,-1.1949225E-1,-3.6688396E-1,2.0772488E-1,3.8411376E-1,-4.1927576E-1,-5.094132E-1,-9.75322E-2,4.6743733E-1,-1.1432667E-1,4.9674007E-1,6.466887E-2,-4.3637437E-1,4.6506885E-1,4.3451875E-1,-3.069998E-1,1.578918E-1,5.069218E-1,1.3173604E-1,-5.594234E-1,-1.5774536E-1,-1.8925497E-2,-1.4440587E-1,1.1267608E-1,-2.3440065E-2,1.9756448E-1,1.7395435E-1,-4.7850357E-3,-1.10275656E-1,1.2110644E-1,-1.5929338E-1,-2.0484778E-3,1.9862722E-1,-3.5126216E-3,1.5407923E-1,-7.9275E-2,-1.7394526E-1,2.9064866E-2,5.263755E-3,1.4848623E-1,6.1267964E-3,1.6354153E-1,-1.7931774E-1,-1.5382001E-2],"categories":[],"categories_nodes":[],"categories_segments":[],"categories_sizes":[],"default_left":[0,0,0,0,0,0,0,0,0,0,0,0,0,0,0,0,0,0,0,0,0,0,0,0,0,0,0,0,0,0,0,0,0,0,0,0,0,0,0,0,0,0,0,0,0,0,0,0,0,0,0,0,0,0,0,0,0,0,0,0,0],"id":16,"left_children":[1,3,5,7,9,11,-1,13,15,17,-1,19,21,23,25,-1,-1,27,-1,29,31,33,35,37,39,41,-1,43,45,47,49,51,53,55,57,-1,59,-1,-1,-1,-1,-1,-1,-1,-1,-1,-1,-1,-1,-1,-1,-1,-1,-1,-1,-1,-1,-1,-1,-1,-1],"loss_changes":[7.8002426E1,4.9466057E0,2.627024E1,2.821949E0,3.2715502E0,1.5291584E1,0E0,2.616665E0,1.8531277E0,1.3821218E0,0E0,7.9966455E0,1.1904507E1,1.7338638E0,1.277889E0,0E0,0E0,7.400209E-1,0E0,3.1103568E0,5.597938E0,1.1822739E1,2.5892296E0,1.7510567E0,2.4005203E0,5.503689E-1,0E0,4.5096946E-1,1.315875E0,1.9034204E0,4.1739106E-1,1.9541268E0,1.6982967E0,7.191184E0,5.1433334E0,0E0,3.0385685E-1,0E0,0E0,0E0,0E0,0E0,0E0,0E0,0E0,0E0,0E0,0E0,0E0,0E0,0E0,0E0,0E0,0E0,0E0,0E0,0E0,0E0,0E0,0E0,0E0],"parents":[2147483647,0,0,1,1,2,2,3,3,4,4,5,5,7,7,8,8,9,9,11,11,12,12,13,13,14,14,17,17,19,19,20,20,21,21,22,22,23,23,24,24,25,25,27,27,28,28,29,29,30,30,31,31,32,32,33,33,34,34,36,36],"right_children":[2,4,6,8,10,12,-1,14,16,18,-1,20,22,24,26,-1,-1,28,-1,30,32,34,36,38,40,42,-1,44,46,48,50,52,54,56,58,-1,60,-1,-1,-1,-1,-1,-1,-1,-1,-1,-1,-1,-1,-1,-1,-1,-1,-1,-1,-1,-1,-1,-1,-1,-1],"split_conditions":[-4.570817E-1,9.034987E-1,3.280497E0,1.1806086E0,-5.0852064E-2,-1.7150184E-2,-1.5983376E-1,7.331934E0,-5.5382735E-1,9.1017276E-1,-1.4667289E-1,-1.697842E-1,1.8491919E0,2.5108404E0,2.104565E-1,1.5158224E-1,-1.2189694E-1,1.5030916E-1,-1.1949225E-1,7.1248776E-1,-8.3727723E-1,6.696255E-1,-1.4939942E0,3.2374206E0,-5.6378466E-1,6.7379296E-1,-1.1432667E-1,-3.2118645E-2,-5.751629E-1,4.776348E-4,5.4914254E-1,1.8697635E0,-2.1055949E-1,-2.0432083E-1,-1.9480577E-1,1.3173604E-1,1.5597533E0,-1.5774536E-1,-1.8925497E-2,-1.4440587E-1,1.1267608E-1,-2.3440065E-2,1.9756448E-1,1.7395435E-1,-4.7850357E-3,-1.10275656E-1,1.2110644E-1,-1.5929338E-1,-2.0484778E-3,1.9862722E-1,-3.5126216E-3,1.5407923E-1,-7.9275E-2,-1.7394526E-1,2.9064866E-2,5.263755E-3,1.4848623E-1,6.1267964E-3,1.6354153E-1,-1.7931774E-1,-1.5382001E-2],"split_indices":[9,0,9,17,1,16,0,2,1,10,0,2,7,14,1,0,0,3,0,19,8,7,11,8,1,8,0,2,19,14,20,7,14,2,9,0,12,0,0,0,0,0,0,0,0,0,0,0,0,0,0,0,0,0,0,0,0,0,0,0,0],"split_type":[0,0,0,0,0,0,0,0,0,0,0,0,0,0,0,0,0,0,0,0,0,0,0,0,0,0,0,0,0,0,0,0,0,0,0,0,0,0,0,0,0,0,0,0,0,0,0,0,0,0,0,0,0,0,0,0,0,0,0,0,0],"sum_hessian":[8.778981E2,2.940098E2,5.838883E2,2.6685324E2,2.7156534E1,5.410181E2,4.2870167E1,2.5960223E2,7.2510247E0,1.8559189E1,8.597345E0,9.5101105E1,4.4591702E2,2.5390811E2,5.6941204E0,4.382874E0,2.8681507E0,1.6333824E1,2.2253647E0,4.929016E1,4.5810944E1,4.2743628E2,1.848075E1,2.4268443E2,1.1223663E1,3.7850797E0,1.9090408E0,9.366957E0,6.9668684E0,4.592931E1,3.3608487E0,3.1907804E1,1.3903138E1,1.5119997E2,2.762363E2,2.2944021E0,1.6186348E1,2.3390906E2,8.775378E0,6.1870112E0,5.0366526E0,1.1352899E0,2.6497898E0,7.9476423E0,1.4193138E0,3.0253026E0,3.9415658E0,3.7446033E1,8.483278E0,2.1030948E0,1.2577538E0,2.8902002E1,3.0058022E0,8.037976E0,5.865162E0,1.0749378E2,4.370619E1,2.0230846E1,2.5600546E2,1.4887877E1,1.2984704E0],"tree_param":{"num_deleted":"0","num_feature":"21","num_nodes":"61","size_leaf_vector":"1"}},{"base_weights":[-1.6361747E-2,5.473382E-1,-2.2311036E-1,-2.976319E-1,5.6020087E-1,-3.6694896E-1,5.123519E-1,-7.456241E-3,-1.1842752E-1,5.83207E-1,2.4697077E-1,-4.5108044E-1,5.0541717E-1,1.4239173E-1,5.7684267E-1,5.893545E-1,-8.876392E-2,4.0564543E-1,-1.8316929E-1,-5.021212E-1,2.6980907E-1,4.7171065E-3,5.99857E-1,5.3507215E-1,-1.4565313E-1,1.7783368E-1,1.6733287E-1,5.925978E-1,4.9597222E-2,-1.2803592E-1,5.902385E-1,3.9727077E-1,-5.118071E-1,4.8867488E-1,-3.223782E-1,4.196019E-1,-1.4414719E-1,1.855331E-1,1.9582266E-2,7.277295E-1,-1.0063338E-1,-1.0688658E-1,1.4795117E-1,1.792218E-1,8.346908E-2,2.7156927E-2,1.8961401E-1,1.5123187E-1,1.1644764E-2,-1.656751E-1,-7.8200676E-2,-1.2800166E-1,1.8144748E-1,1.1569523E-1,-1.536696E-1,1.5127166E-1,3.4624442E-2,2.5067028E-1,1.692799E-2],"categories":[],"categories_nodes":[],"categories_segments":[],"categories_sizes":[],"default_left":[0,0,0,0,0,0,0,0,0,0,0,0,0,0,0,0,0,0,0,0,0,0,0,0,0,0,0,0,0,0,0,0,0,0,0,0,0,0,0,0,0,0,0,0,0,0,0,0,0,0,0,0,0,0,0,0,0,0,0],"id":17,"left_children":[1,3,5,7,9,11,13,-1,-1,15,17,19,21,23,25,27,-1,29,-1,31,33,35,37,39,-1,-1,41,43,-1,-1,45,47,49,51,53,55,-1,-1,-1,57,-1,-1,-1,-1,-1,-1,-1,-1,-1,-1,-1,-1,-1,-1,-1,-1,-1,-1,-1],"loss_changes":[9.189229E1,2.4664574E0,6.120997E1,9.154832E-2,1.360405E0,3.5681137E1,2.1791573E0,0E0,0E0,1.2214432E0,2.4273674E0,1.6365494E1,2.0285864E0,4.0560694E0,4.253788E-1,1.6709137E-1,0E0,2.4213846E0,0E0,3.7948685E0,4.0219975E0,1.7768408E0,3.1867313E-1,1.9125681E0,0E0,0E0,9.271353E-1,1.2231445E-1,0E0,0E0,1.9298315E-1,1.7021406E-1,4.003334E0,2.6148715E0,1.3600942E0,6.41467E-2,0E0,0E0,0E0,5.6537056E-1,0E0,0E0,0E0,0E0,0E0,0E0,0E0,0E0,0E0,0E0,0E0,0E0,0E0,0E0,0E0,0E0,0E0,0E0,0E0],"parents":[2147483647,0,0,1,1,2,2,3,3,4,4,5,5,6,6,9,9,10,10,11,11,12,12,13,13,14,14,15,15,17,17,19,19,20,20,21,21,22,22,23,23,26,26,27,27,30,30,31,31,32,32,33,33,34,34,35,35,39,39],"right_children":[2,4,6,8,10,12,14,-1,-1,16,18,20,22,24,26,28,-1,30,-1,32,34,36,38,40,-1,-1,42,44,-1,-1,46,48,50,52,54,56,-1,-1,-1,58,-1,-1,-1,-1,-1,-1,-1,-1,-1,-1,-1,-1,-1,-1,-1,-1,-1,-1,-1],"split_conditions":[-1.4954376E0,-1.1915518E0,2.942233E0,1.0746413E0,-1.6832068E0,1.8491919E0,3.280497E0,-7.456241E-3,-1.1842752E-1,4.207228E0,1.3904957E0,2.9590409E0,-1.2828056E0,-7.758266E-1,1.5030916E-1,-1.0187953E0,-8.876392E-2,-8.0228233E-1,-1.8316929E-1,-2.1865046E0,-3.1989342E-1,-1.0481012E0,-2.6149464E-1,-1.0623342E0,-1.4565313E-1,1.7783368E-1,3.5580015E0,2.7023E0,4.9597222E-2,-1.2803592E-1,-3.082678E0,-1.1083645E0,1.3562571E0,-4.1162902E-1,-6.760811E-1,-4.7997984E-1,-1.4414719E-1,1.855331E-1,1.9582266E-2,-1.5763466E-1,-1.0063338E-1,-1.0688658E-1,1.4795117E-1,1.792218E-1,8.346908E-2,2.7156927E-2,1.8961401E-1,1.5123187E-1,1.1644764E-2,-1.656751E-1,-7.8200676E-2,-1.2800166E-1,1.8144748E-1,1.1569523E-1,-1.536696E-1,1.5127166E-1,3.4624442E-2,2.5067028E-1,1.692799E-2],"split_indices":[17,7,9,4,17,7,9,0,0,13,8,6,8,13,3,18,0,0,0,16,16,13,3,3,0,0,9,14,0,0,16,12,7,0,3,10,0,0,0,2,0,0,0,0,0,0,0,0,0,0,0,0,0,0,0,0,0,0,0],"split_type":[0,0,0,0,0,0,0,0,0,0,0,0,0,0,0,0,0,0,0,0,0,0,0,0,0,0,0,0,0,0,0,0,0,0,0,0,0,0,0,0,0,0,0,0,0,0,0,0,0,0,0,0,0,0,0,0,0,0,0],"sum_hessian":[7.8642804E2,2.1059462E2,5.7583344E2,2.825767E0,2.0776886E2,4.8205603E2,9.3777405E1,1.0717304E0,1.7540368E0,1.9274983E2,1.5019031E1,4.4009586E2,4.196017E1,1.4396703E1,7.938071E1,1.9173857E2,1.0112555E0,1.3118587E1,1.9004445E0,4.112797E2,2.8816162E1,6.825061E0,3.513511E1,8.94837E0,5.448333E0,7.597651E1,3.404194E0,1.8988864E2,1.8499284E0,2.1429238E0,1.0975662E1,3.9556825E0,4.07324E2,2.1167637E1,7.648526E0,3.7520342E0,3.0730267E0,3.3802956E1,1.3321545E0,7.4611425E0,1.4872279E0,1.2699422E0,2.134252E0,1.8614131E2,3.7473273E0,1.0917416E0,9.883921E0,2.7343836E0,1.2212989E0,3.4979425E2,5.752975E1,2.0825064E0,1.908513E1,1.3991854E0,6.249341E0,2.4208088E0,1.3312254E0,6.2176447E0,1.2434974E0],"tree_param":{"num_deleted":"0","num_feature":"21","num_nodes":"59","size_leaf_vector":"1"}},{"base_weights":[1.6066728E-2,2.870721E-1,-2.801308E-1,3.6935145E-1,-2.806047E-1,-3.229668E-1,3.537254E-1,4.835188E-1,9.855893E-2,-4.4396314E-1,1.949369E-1,-4.5925942E-1,-1.707425E-1,1.6978593E-1,-1.3109592E-1,5.093361E-1,-3.111552E-2,-9.931177E-2,4.9203292E-1,1.0177856E-1,-4.7744647E-1,-1.551042E-1,1.5946159E-1,-2.5609002E-1,-5.0208384E-1,-5.011856E-1,8.449869E-3,5.2113694E-1,-3.1787008E-1,1.5610358E-1,-2.0245859E-1,-2.8437778E-1,2.7175575E-1,5.364666E-1,-2.7997294E-2,-1.7894601E-2,-5.173899E-1,1.1287036E-1,-3.6804375E-1,4.1393545E-1,-3.3032212E-1,-5.107914E-1,7.334539E-2,-1.568942E-1,9.658413E-2,2.1147424E-1,-4.2231107E-1,1.7097306E-1,9.52559E-2,3.627285E-2,-1.5986447E-1,-1.347193E-1,4.913692E-2,-1.2955065E-1,-1.1435166E-2,1.9554262E-1,-9.691106E-2,-2.9041793E-2,1.694598E-1,-1.04197726E-1,9.948061E-2,1.14795655E-1,-1.23795986E-1,-1.588421E-1,-6.0036566E-2,-1.569854E-1,3.4169655E-2,-9.6970186E-2,3.3245245E-1,-1.3841924E-1,1.2755852E-2,-3.6804922E-2,-1.5665609E-1,-4.066993E-2,1.316453E-1,-1.4752063E-1,7.117827E-2],"categories":[],"categories_nodes":[],"categories_segments":[],"categories_sizes":[],"default_left":[0,0,0,0,0,0,0,0,0,0,0,0,0,0,0,0,0,0,0,0,0,0,0,0,0,0,0,0,0,0,0,0,0,0,0,0,0,0,0,0,0,0,0,0,0,0,0,0,0,0,0,0,0,0,0,0,0,0,0,0,0,0,0,0,0,0,0,0,0,0,0,0,0,0,0,0,0],"id":18,"left_children":[1,3,5,7,9,11,13,15,17,19,21,23,25,-1,-1,27,29,31,33,-1,35,37,-1,39,41,43,45,47,49,-1,51,53,55,57,59,61,63,-1,65,67,69,71,-1,-1,-1,73,75,-1,-1,-1,-1,-1,-1,-1,-1,-1,-1,-1,-1,-1,-1,-1,-1,-1,-1,-1,-1,-1,-1,-1,-1,-1,-1,-1,-1,-1,-1],"loss_changes":[5.7707737E1,1.7637434E1,9.441389E0,1.0101994E1,3.8223414E0,6.6082535E0,3.9765167E0,3.0807877E0,7.7271314E0,1.1086764E0,1.6130813E0,1.3457756E0,9.113592E0,0E0,0E0,2.3104935E0,1.2356292E0,4.6407256E0,7.814131E-1,0E0,6.338358E-1,9.465829E-1,0E0,1.705492E0,1.0279312E0,1.1390886E0,8.898857E0,1.9741554E0,4.1458693E-1,0E0,9.628589E-1,1.611371E0,5.325002E0,6.051197E-1,5.24117E-1,7.646762E-1,1.7476082E-2,0E0,4.789105E-1,2.1953108E0,1.4344702E0,5.4465866E-1,0E0,0E0,0E0,5.513707E0,1.6095228E0,0E0,0E0,0E0,0E0,0E0,0E0,0E0,0E0,0E0,0E0,0E0,0E0,0E0,0E0,0E0,0E0,0E0,0E0,0E0,0E0,0E0,0E0,0E0,0E0,0E0,0E0,0E0,0E0,0E0,0E0],"parents":[2147483647,0,0,1,1,2,2,3,3,4,4,5,5,6,6,7,7,8,8,9,9,10,10,11,11,12,12,15,15,16,16,17,17,18,18,20,20,21,21,23,23,24,24,25,25,26,26,27,27,28,28,30,30,31,31,32,32,33,33,34,34,35,35,36,36,38,38,39,39,40,40,41,41,45,45,46,46],"right_children":[2,4,6,8,10,12,14,16,18,20,22,24,26,-1,-1,28,30,32,34,-1,36,38,-1,40,42,44,46,48,50,-1,52,54,56,58,60,62,64,-1,66,68,70,72,-1,-1,-1,74,76,-1,-1,-1,-1,-1,-1,-1,-1,-1,-1,-1,-1,-1,-1,-1,-1,-1,-1,-1,-1,-1,-1,-1,-1,-1,-1,-1,-1,-1,-1],"split_conditions":[6.696255E-1,-2.1456338E-1,1.9616057E-1,9.020374E-1,-3.2311615E-1,-4.9100795E-1,-2.1456338E-1,1.5911077E0,-8.0157906E-2,-1.0315616E0,-1.3295767E-1,-1.3489091E-1,-1.9118226E0,1.6978593E-1,-1.3109592E-1,5.118892E0,-9.436335E-1,5.845494E-1,2.366461E0,1.0177856E-1,-1.3886698E0,8.7734246E-1,1.5946159E-1,-1.175785E0,-2.0520438E-1,4.207228E0,6.3990784E-1,3.457789E-1,2.5108404E0,1.5610358E-1,4.8658064E-1,1.4817616E0,2.256834E0,-1.1116569E0,7.091711E-1,-5.087701E-1,1.1141022E0,1.1287036E-1,1.0700959E0,-1.8817896E-1,1.0585922E0,7.2399783E-1,7.334539E-2,-1.568942E-1,9.658413E-2,9.2424256E-1,1.1861457E0,1.7097306E-1,9.52559E-2,3.627285E-2,-1.5986447E-1,-1.347193E-1,4.913692E-2,-1.2955065E-1,-1.1435166E-2,1.9554262E-1,-9.691106E-2,-2.9041793E-2,1.694598E-1,-1.04197726E-1,9.948061E-2,1.14795655E-1,-1.23795986E-1,-1.588421E-1,-6.0036566E-2,-1.569854E-1,3.4169655E-2,-9.6970186E-2,3.3245245E-1,-1.3841924E-1,1.2755852E-2,-3.6804922E-2,-1.5665609E-1,-4.066993E-2,1.316453E-1,-1.4752063E-1,7.117827E-2],"split_indices":[7,6,1,18,1,3,6,9,1,0,3,9,17,0,0,15,13,9,14,0,7,19,0,8,1,13,18,7,14,0,0,0,9,11,1,0,20,0,4,0,20,7,0,0,0,7,3,0,0,0,0,0,0,0,0,0,0,0,0,0,0,0,0,0,0,0,0,0,0,0,0,0,0,0,0,0,0],"split_type":[0,0,0,0,0,0,0,0,0,0,0,0,0,0,0,0,0,0,0,0,0,0,0,0,0,0,0,0,0,0,0,0,0,0,0,0,0,0,0,0,0,0,0,0,0,0,0,0,0,0,0,0,0,0,0,0,0,0,0,0,0,0,0,0,0,0,0,0,0,0,0,0,0,0,0,0,0],"sum_hessian":[7.1690857E2,3.7439102E2,3.4251755E2,3.2730118E2,4.7089825E1,3.212949E2,2.1222649E1,2.2968103E2,9.762015E1,3.5098995E1,1.199083E1,1.684541E2,1.528408E2,1.6955915E1,4.2667327E0,2.18719E2,1.0962036E1,6.5452774E1,3.2167374E1,1.0645816E0,3.4034412E1,6.142395E0,5.8484354E0,3.0540848E1,1.3791325E2,5.3108376E1,9.973242E1,2.1600746E2,2.7115397E0,2.1157424E0,8.846293E0,4.3827763E1,2.1625013E1,2.960609E1,2.5612822E0,2.8374412E0,3.1196972E1,1.5379515E0,4.6044436E0,2.589706E0,2.7951141E1,1.3663542E2,1.2778339E0,5.2093674E1,1.0147016E0,6.8130516E1,3.160191E1,1.7281381E2,4.319365E1,1.0356737E0,1.6758661E0,5.151511E0,3.6947827E0,2.6941792E1,1.688597E1,1.3135806E1,8.489206E0,1.1673295E0,2.843876E1,1.3746806E0,1.1866014E0,1.4236178E0,1.4138234E0,2.9408054E1,1.7889174E0,3.4177525E0,1.1866913E0,1.5152075E0,1.0744984E0,2.0504953E1,7.4461884E0,4.233027E0,1.3240239E2,2.71261E1,4.1004414E1,2.8822601E1,2.7793083E0],"tree_param":{"num_deleted":"0","num_feature":"21","num_nodes":"77","size_leaf_vector":"1"}},{"base_weights":[2.3699459E-3,-3.9330602E-1,1.8711652E-1,-4.3524566E-1,-1.1530474E-2,2.3727083E-1,-1.5526776E-1,-4.5195058E-1,1.2975687E-1,1.8541677E-1,-1.393349E-1,2.853031E-1,-2.3241556E-1,-5.0461715E-1,-2.3872118E-1,1.3830526E-1,-1.1200593E-1,2.728775E-1,-1.0949127E-1,3.2314926E-1,-3.8059205E-1,-4.5976672E-1,1.03765994E-1,-5.1458645E-1,1.3317919E-1,-4.737123E-1,-6.9972146E-3,-4.509535E-2,4.0278655E-1,1.2225738E-1,4.2290404E-1,6.0305186E-2,-5.514142E-1,-5.1264054E-1,4.8427153E-2,4.4180104E-1,-1.9997911E-1,-1.584986E-1,4.721575E-2,-1.5290973E-1,-3.155635E-2,1.09816626E-1,-1.4718947E-1,1.0723625E-1,-1.168021E-1,1.4543188E-1,-4.105172E-2,-1.7201567E-1,6.224815E-2,-9.0184875E-2,1.3259313E-1,9.6489005E-2,-1.1698777E-1,7.2797844E-3,-1.7689866E-1,-1.4599435E-2,-1.593782E-1,-2.8120028E-2,1.5682589E-1,-1.7722416E-1,1.349828E-1],"categories":[],"categories_nodes":[],"categories_segments":[],"categories_sizes":[],"default_left":[0,0,0,0,0,0,0,0,0,0,0,0,0,0,0,0,0,0,0,0,0,0,0,0,0,0,0,0,0,0,0,0,0,0,0,0,0,0,0,0,0,0,0,0,0,0,0,0,0,0,0,0,0,0,0,0,0,0,0,0,0],"id":19,"left_children":[1,3,5,7,9,11,-1,13,15,17,-1,19,21,23,25,-1,-1,27,-1,29,31,33,35,37,-1,39,41,43,45,47,49,51,53,55,-1,57,59,-1,-1,-1,-1,-1,-1,-1,-1,-1,-1,-1,-1,-1,-1,-1,-1,-1,-1,-1,-1,-1,-1,-1,-1],"loss_changes":[5.418992E1,3.7730598E0,1.7983068E1,2.065014E0,2.2610824E0,1.072496E1,0E0,2.2007446E0,1.3190005E0,9.520082E-1,0E0,1.0936287E1,3.4400332E0,1.7873917E0,2.32937E0,0E0,0E0,6.7297566E-1,0E0,8.09528E0,1.8057203E0,9.584546E-1,2.0106711E0,1.5939484E0,0E0,2.2826004E-1,4.254256E0,9.009562E-1,5.6869674E-1,8.200537E0,3.8759232E0,1.0047683E0,3.8996315E-1,1.8848753E-1,0E0,4.466504E-1,2.9450724E0,0E0,0E0,0E0,0E0,0E0,0E0,0E0,0E0,0E0,0E0,0E0,0E0,0E0,0E0,0E0,0E0,0E0,0E0,0E0,0E0,0E0,0E0,0E0,0E0],"parents":[2147483647,0,0,1,1,2,2,3,3,4,4,5,5,7,7,8,8,9,9,11,11,12,12,13,13,14,14,17,17,19,19,20,20,21,21,22,22,23,23,25,25,26,26,27,27,28,28,29,29,30,30,31,31,32,32,33,33,35,35,36,36],"right_children":[2,4,6,8,10,12,-1,14,16,18,-1,20,22,24,26,-1,-1,28,-1,30,32,34,36,38,-1,40,42,44,46,48,50,52,54,56,-1,58,60,-1,-1,-1,-1,-1,-1,-1,-1,-1,-1,-1,-1,-1,-1,-1,-1,-1,-1,-1,-1,-1,-1,-1,-1],"split_conditions":[-4.570817E-1,9.034987E-1,3.280497E0,1.1806086E0,-5.0852064E-2,-3.1685E-1,-1.5526776E-1,-5.0461926E-2,-5.5382735E-1,9.1017276E-1,-1.393349E-1,1.8491919E0,8.920422E-1,5.118892E0,-6.0860085E-1,1.3830526E-1,-1.1200593E-1,-1.0213789E0,-1.0949127E-1,6.696255E-1,-1.2828056E0,4.205037E-2,-3.6448973E-1,4.8982863E0,1.3317919E-1,9.436754E-1,2.104565E-1,-1.3295767E-1,-3.4128508E-1,-9.436335E-1,-7.3195255E-1,1.8951635E0,-2.107375E-1,-1.2158535E0,4.8427153E-2,7.229867E-2,9.312532E-1,-1.584986E-1,4.721575E-2,-1.5290973E-1,-3.155635E-2,1.09816626E-1,-1.4718947E-1,1.0723625E-1,-1.168021E-1,1.4543188E-1,-4.105172E-2,-1.7201567E-1,6.224815E-2,-9.0184875E-2,1.3259313E-1,9.6489005E-2,-1.1698777E-1,7.2797844E-3,-1.7689866E-1,-1.4599435E-2,-1.593782E-1,-2.8120028E-2,1.5682589E-1,-1.7722416E-1,1.349828E-1],"split_indices":[9,0,9,17,1,1,0,2,1,10,0,7,16,15,18,0,0,14,0,7,8,2,3,8,0,4,1,3,1,13,17,7,9,11,0,7,3,0,0,0,0,0,0,0,0,0,0,0,0,0,0,0,0,0,0,0,0,0,0,0,0],"split_type":[0,0,0,0,0,0,0,0,0,0,0,0,0,0,0,0,0,0,0,0,0,0,0,0,0,0,0,0,0,0,0,0,0,0,0,0,0,0,0,0,0,0,0,0,0,0,0,0,0,0,0,0,0,0,0,0,0,0,0,0,0],"sum_hessian":[7.393077E2,2.3495987E2,5.043478E2,2.1157716E2,2.3382698E1,4.7145587E2,3.2891926E1,2.0569565E2,5.8815227E0,1.670801E1,6.674688E0,4.2807187E2,4.3384E1,1.6385721E2,4.183844E1,3.596897E0,2.284626E0,1.4852108E1,1.8559029E0,4.055378E2,2.253405E1,2.566189E1,1.7722109E1,1.6260571E2,1.2514966E0,2.0254286E1,2.1584154E1,4.4972496E0,1.0354858E1,1.3529616E2,2.7024167E2,6.473282E0,1.6060768E1,2.3810001E1,1.8518888E0,8.172499E0,9.549609E0,1.5955646E2,3.049251E0,1.8103394E1,2.150893E0,1.2322373E1,9.26178E0,2.0553799E0,2.4418697E0,9.077366E0,1.2774922E0,1.4143048E1,1.2115311E2,6.561844E0,2.636798E2,4.2767973E0,2.1964846E0,1.0233685E0,1.50374E1,1.0580902E0,2.2751911E1,1.0524126E0,7.1200867E0,6.0206923E0,3.5289166E0],"tree_param":{"num_deleted":"0","num_feature":"21","num_nodes":"61","size_leaf_vector":"1"}},{"base_weights":[-2.0922946E-2,5.368036E-1,-2.0649971E-1,-1.09516844E-1,5.4740477E-1,-3.3717063E-1,4.7928816E-1,5.572945E-1,2.2773443E-1,-4.3171346E-1,3.271258E-1,1.254563E-1,5.469266E-1,5.627377E-1,2.5488102E-1,-1.10185854E-1,1.3719329E-1,-4.966285E-1,2.8207687E-1,-2.592176E-1,5.656697E-1,4.6687678E-1,-1.3772534E-1,1.6894723E-1,1.8296126E-1,3.0261672E-1,1.706018E-1,-3.1072337E-2,1.224607E-1,3.3338666E-1,-5.099579E-1,4.550857E-1,-3.0468532E-1,3.4607515E-1,-1.5440059E-1,6.397886E-1,-1.1830331E-1,6.329601E-1,-9.2602536E-2,-9.8100506E-2,1.4366455E-1,1.3212669E-1,-3.6149144E-2,1.5165307E-1,-4.5593504E-2,-5.6748744E-2,-1.594924E-1,-8.162453E-2,1.7602271E-1,1.0232437E-1,-1.4524388E-1,1.4298764E-1,5.5822693E-3,1.5313977E-1,3.5777754E-1,2.1732834E-1,1.368356E-2],"categories":[],"categories_nodes":[],"categories_segments":[],"categories_sizes":[],"default_left":[0,0,0,0,0,0,0,0,0,0,0,0,0,0,0,0,0,0,0,0,0,0,0,0,0,0,0,0,0,0,0,0,0,0,0,0,0,0,0,0,0,0,0,0,0,0,0,0,0,0,0,0,0,0,0,0,0],"id":20,"left_children":[1,3,5,-1,7,9,11,13,15,17,19,21,23,25,27,-1,-1,29,31,33,35,37,-1,-1,39,41,-1,-1,-1,43,45,47,49,51,-1,53,-1,55,-1,-1,-1,-1,-1,-1,-1,-1,-1,-1,-1,-1,-1,-1,-1,-1,-1,-1,-1],"loss_changes":[6.58482E1,1.7185516E0,4.2932556E1,0E0,3.7071228E-1,2.5356377E1,1.769434E0,1.0676193E-1,1.0442065E0,1.6445496E1,7.222536E0,2.9331028E0,2.7609634E-1,5.7121277E-2,2.9043204E-1,0E0,0E0,3.7427292E0,3.1813557E0,2.5462294E0,2.833393E0,1.3669511E0,0E0,0E0,7.935846E-1,3.7081215E-1,0E0,0E0,0E0,5.5374247E-1,2.1129074E0,2.4141126E0,1.0255176E0,2.1101004E-1,0E0,1.8258629E0,0E0,3.870294E-1,0E0,0E0,0E0,0E0,0E0,0E0,0E0,0E0,0E0,0E0,0E0,0E0,0E0,0E0,0E0,0E0,0E0,0E0,0E0],"parents":[2147483647,0,0,1,1,2,2,4,4,5,5,6,6,7,7,8,8,9,9,10,10,11,11,12,12,13,13,14,14,17,17,18,18,19,19,20,20,21,21,24,24,25,25,29,29,30,30,31,31,32,32,33,33,35,35,37,37],"right_children":[2,4,6,-1,8,10,12,14,16,18,20,22,24,26,28,-1,-1,30,32,34,36,38,-1,-1,40,42,-1,-1,-1,44,46,48,50,52,-1,54,-1,56,-1,-1,-1,-1,-1,-1,-1,-1,-1,-1,-1,-1,-1,-1,-1,-1,-1,-1,-1],"split_conditions":[-1.640498E0,-1.1915518E0,2.942233E0,-1.09516844E-1,2.6774108E0,1.711644E0,3.280497E0,-1.6832068E0,-2.1456338E-1,2.9590409E0,-1.2703645E0,-7.758266E-1,1.5030916E-1,-2.759966E-1,-2.0270936E0,-1.10185854E-1,1.3719329E-1,-2.1865046E0,-3.1989342E-1,-1.0051052E-1,-9.3629956E-1,-1.0623342E0,-1.3772534E-1,1.6894723E-1,3.5580015E0,1.4547626E0,1.706018E-1,-3.1072337E-2,1.224607E-1,-6.4210284E-1,-1.254123E0,-4.1162902E-1,-6.760811E-1,-1.457576E-1,-1.5440059E-1,-3.4869336E-2,-1.1830331E-1,-1.5763466E-1,-9.2602536E-2,-9.8100506E-2,1.4366455E-1,1.3212669E-1,-3.6149144E-2,1.5165307E-1,-4.5593504E-2,-5.6748744E-2,-1.594924E-1,-8.162453E-2,1.7602271E-1,1.0232437E-1,-1.4524388E-1,1.4298764E-1,5.5822693E-3,1.5313977E-1,3.5777754E-1,2.1732834E-1,1.368356E-2],"split_indices":[17,7,9,0,13,7,9,17,6,6,8,13,3,4,18,0,0,16,16,18,8,3,0,0,9,14,0,0,0,13,14,0,3,2,0,2,0,2,0,0,0,0,0,0,0,0,0,0,0,0,0,0,0,0,0,0,0],"split_type":[0,0,0,0,0,0,0,0,0,0,0,0,0,0,0,0,0,0,0,0,0,0,0,0,0,0,0,0,0,0,0,0,0,0,0,0,0,0,0,0,0,0,0,0,0,0,0,0,0,0,0,0,0,0,0,0,0],"sum_hessian":[6.3413684E2,1.578492E2,4.7628763E2,1.4454652E0,1.5640373E2,4.0048672E2,7.580093E1,1.509892E2,5.414529E0,3.5089706E2,4.9589634E1,1.2622841E1,6.317808E1,1.4747395E2,3.5152452E0,1.3404595E0,4.0740695E0,3.219242E2,2.8972876E1,1.431545E1,3.5274185E1,8.095618E0,4.527222E0,5.995705E1,3.2210307E0,4.4494324E0,1.4302452E2,1.1503236E0,2.3649218E0,4.7086444E0,3.1721555E2,2.2548721E1,6.4241548E0,4.1432447E0,1.0172205E1,3.3055653E1,2.2185335E0,6.8191633E0,1.2764555E0,1.1441953E0,2.0768354E0,3.3254473E0,1.123985E0,3.4453313E0,1.2633129E0,2.0699507E1,2.9651605E2,3.2931824E0,1.9255539E1,1.2012017E0,5.2229533E0,2.636623E0,1.5066218E0,2.8347462E1,4.708191E0,5.698369E0,1.120794E0],"tree_param":{"num_deleted":"0","num_feature":"21","num_nodes":"57","size_leaf_vector":"1"}},{"base_weights":[1.9201923E-2,-1.4713149E-1,4.1467258E-1,7.408973E-2,-3.2173598E-1,4.8871908E-1,-3.902736E-1,2.4187464E-1,-2.323639E-1,-4.7253248E-1,-1.5933558E-1,5.0967455E-1,6.2915295E-2,1.0038624E-1,-4.8003107E-1,4.085733E-1,-6.964835E-2,1.7962386E-1,-3.1730515E-1,-4.896532E-1,8.985244E-3,-1.5312162E-1,7.248044E-3,-4.079662E-2,5.157176E-1,3.313993E-1,-1.4580284E-1,-3.0964954E-2,-1.5059431E-1,4.9134493E-1,-1.5692282E-1,-3.2406422E-1,2.847094E-1,-4.1031083E-1,-9.489167E-2,-3.0906615E-1,-5.080227E-1,-1.1377718E-1,1.4518912E-1,3.6223528E-1,-2.2542137E-1,5.409416E-1,3.45887E-1,-5.573271E-2,1.4766374E-1,1.7328689E-1,-3.8514186E-2,-1.2597728E-1,7.39008E-2,7.9910606E-2,-1.23185396E-1,1.7188925E-1,-1.3847561E-1,3.7955754E-2,-1.3911185E-1,1.510433E-1,-1.1522295E-1,1.5073153E-1,-1.5470642E-1,-1.5503667E-1,-7.410188E-2,1.3973889E-1,-1.3095443E-1,-1.2212219E-1,1.7335442E-1,1.6547322E-1,3.925184E-2,1.4520763E-1,-1.18698284E-1],"categories":[],"categories_nodes":[],"categories_segments":[],"categories_sizes":[],"default_left":[0,0,0,0,0,0,0,0,0,0,0,0,0,0,0,0,0,0,0,0,0,0,0,0,0,0,0,0,0,0,0,0,0,0,0,0,0,0,0,0,0,0,0,0,0,0,0,0,0,0,0,0,0,0,0,0,0,0,0,0,0,0,0,0,0,0,0,0,0],"id":21,"left_children":[1,3,5,7,9,11,13,15,17,19,21,23,25,-1,27,29,31,-1,33,35,37,-1,39,-1,41,43,-1,-1,-1,45,47,49,51,53,55,57,59,-1,-1,61,63,65,67,-1,-1,-1,-1,-1,-1,-1,-1,-1,-1,-1,-1,-1,-1,-1,-1,-1,-1,-1,-1,-1,-1,-1,-1,-1,-1],"loss_changes":[3.955592E1,1.637756E1,1.080164E1,9.700923E0,5.7240562E0,1.4265823E0,1.1725705E0,6.348413E0,4.9109445E0,1.012495E0,6.760008E0,6.775017E-1,1.4592488E0,0E0,6.605005E-2,3.7946901E0,3.9938428E0,0E0,1.229639E0,2.3476791E-1,1.1388793E0,0E0,6.6343713E0,0E0,4.7444153E-1,6.3286054E-1,0E0,0E0,0E0,3.7915535E0,1.2593482E0,1.4206269E0,4.269703E0,1.289577E0,3.547513E0,2.5156283E0,1.14076614E-1,0E0,0E0,2.8333745E0,7.3181324E0,5.065727E-1,2.5212817E0,0E0,0E0,0E0,0E0,0E0,0E0,0E0,0E0,0E0,0E0,0E0,0E0,0E0,0E0,0E0,0E0,0E0,0E0,0E0,0E0,0E0,0E0,0E0,0E0,0E0,0E0],"parents":[2147483647,0,0,1,1,2,2,3,3,4,4,5,5,6,6,7,7,8,8,9,9,10,10,11,11,12,12,14,14,15,15,16,16,18,18,19,19,20,20,22,22,24,24,25,25,29,29,30,30,31,31,32,32,33,33,34,34,35,35,36,36,39,39,40,40,41,41,42,42],"right_children":[2,4,6,8,10,12,14,16,18,20,22,24,26,-1,28,30,32,-1,34,36,38,-1,40,-1,42,44,-1,-1,-1,46,48,50,52,54,56,58,60,-1,-1,62,64,66,68,-1,-1,-1,-1,-1,-1,-1,-1,-1,-1,-1,-1,-1,-1,-1,-1,-1,-1,-1,-1,-1,-1,-1,-1,-1,-1],"split_conditions":[-3.1685E-1,7.2399783E-1,1.4251857E0,-2.0432083E-1,-4.9100795E-1,1.5075037E0,8.6735624E-1,1.0439743E0,-9.436335E-1,1.7517074E0,-1.640498E0,-2.199267E0,-1.8099634E-2,1.0038624E-1,7.6681983E-1,1.2325315E0,5.845494E-1,1.7962386E-1,1.1141022E0,-1.9480577E-1,-3.521222E-1,-1.5312162E-1,-7.5360924E-2,-4.079662E-2,-7.5360924E-2,-1.003513E0,-1.4580284E-1,-3.0964954E-2,-1.5059431E-1,1.7194855E0,-8.295196E-1,-9.461986E-2,2.7780318E0,-1.3886698E0,-1.9480577E-1,-1.175785E0,-7.2141576E-1,-1.1377718E-1,1.4518912E-1,1.371823E0,1.6058112E0,5.79263E0,-8.3721995E-2,-5.573271E-2,1.4766374E-1,1.7328689E-1,-3.8514186E-2,-1.2597728E-1,7.39008E-2,7.9910606E-2,-1.23185396E-1,1.7188925E-1,-1.3847561E-1,3.7955754E-2,-1.3911185E-1,1.510433E-1,-1.1522295E-1,1.5073153E-1,-1.5470642E-1,-1.5503667E-1,-7.410188E-2,1.3973889E-1,-1.3095443E-1,-1.2212219E-1,1.7335442E-1,1.6547322E-1,3.925184E-2,1.4520763E-1,-1.18698284E-1],"split_indices":[1,7,6,2,3,0,11,18,13,4,17,17,9,0,19,19,9,0,20,9,0,0,9,0,9,11,0,0,0,9,18,10,9,7,9,8,8,0,0,12,7,2,2,0,0,0,0,0,0,0,0,0,0,0,0,0,0,0,0,0,0,0,0,0,0,0,0,0,0],"split_type":[0,0,0,0,0,0,0,0,0,0,0,0,0,0,0,0,0,0,0,0,0,0,0,0,0,0,0,0,0,0,0,0,0,0,0,0,0,0,0,0,0,0,0,0,0,0,0,0,0,0,0,0,0,0,0,0,0,0,0,0,0,0,0,0,0,0,0,0,0],"sum_hessian":[5.994092E2,4.2238406E2,1.7702512E2,1.865737E2,2.3581036E2,1.6247226E2,1.4552864E1,1.2070036E2,6.587333E1,1.2128332E2,1.1452704E2,1.5466368E2,7.8085737E0,1.3028449E0,1.3250019E1,7.8423645E1,4.2276714E1,5.547243E0,6.0326088E1,1.17102745E2,4.18057E0,3.619122E1,7.833582E1,1.2347625E0,1.5342892E2,5.5099053E0,2.2986684E0,1.0432314E0,1.2206788E1,6.85248E1,9.898845E0,2.4658386E1,1.7618328E1,4.1942406E1,1.8383684E1,1.2457773E1,1.0464497E2,2.411204E0,1.7693659E0,3.0794827E1,4.7540997E1,1.3168529E2,2.1743626E1,1.2700853E0,4.23982E0,6.0210285E1,8.314519E0,5.9663334E0,3.932511E0,2.8870003E0,2.1771385E1,1.2876906E1,4.7414227E0,3.6704679E0,3.827194E1,5.74837E0,1.2635314E1,2.2376716E0,1.0220102E1,1.0029664E2,4.348336E0,2.762941E1,3.165416E0,3.9175106E1,8.36589E0,1.2802017E2,3.6651201E0,1.8621937E1,3.1216893E0],"tree_param":{"num_deleted":"0","num_feature":"21","num_nodes":"69","size_leaf_vector":"1"}},{"base_weights":[1.2040159E-3,-3.715239E-1,1.6205429E-1,4.0569633E-2,-4.1380337E-1,2.0396043E-1,-1.513738E-1,-2.9693028E-1,2.8963888E-1,-4.419247E-1,4.010689E-2,-9.559948E-2,2.679482E-1,-1.3712652E-1,1.287234E-1,-2.7561817E-1,5.860653E-1,-4.7039202E-1,5.100501E-2,-1.2562296E-1,3.2925987E-1,-3.1553635E-1,1.8056956E-1,3.079202E-1,-1.7251606E-1,9.954534E-2,-4.2313345E-2,-1.23113744E-1,1.763063E-2,8.932515E-1,7.5022034E-2,-4.956884E-1,8.973403E-2,2.7316225E-1,-1.1951325E-1,5.803393E-1,-1.0029795E-1,-5.738708E-1,-8.3695985E-2,3.8431194E-1,-2.3828486E-1,1.4824903E-1,4.7617456E-1,4.3804702E-1,-5.933589E-1,3.444035E-1,9.230817E-2,-9.234691E-2,1.1053426E-1,-1.5336008E-1,2.7750913E-2,1.367238E-1,-1.16589926E-1,-1.0981781E-1,1.6396822E-1,1.9295406E-1,4.620051E-2,7.58649E-3,-1.846011E-1,-1.1046724E-1,8.67127E-2,1.406605E-1,-6.2898755E-2,-1.5509747E-1,4.2497925E-2,-1.0499303E-3,1.1776445E-1,1.5151861E-1,-9.249181E-2,1.5515353E-1,-2.5199963E-2,-2.206208E-1,7.724574E-2],"categories":[],"categories_nodes":[],"categories_segments":[],"categories_sizes":[],"default_left":[0,0,0,0,0,0,0,0,0,0,0,0,0,0,0,0,0,0,0,0,0,0,0,0,0,0,0,0,0,0,0,0,0,0,0,0,0,0,0,0,0,0,0,0,0,0,0,0,0,0,0,0,0,0,0,0,0,0,0,0,0,0,0,0,0,0,0,0,0,0,0,0,0],"id":22,"left_children":[1,3,5,7,9,11,-1,13,15,17,19,21,23,-1,25,27,29,31,33,-1,35,37,39,41,43,-1,-1,-1,-1,45,47,49,51,53,-1,55,-1,57,59,61,63,65,67,69,71,-1,-1,-1,-1,-1,-1,-1,-1,-1,-1,-1,-1,-1,-1,-1,-1,-1,-1,-1,-1,-1,-1,-1,-1,-1,-1,-1,-1],"loss_changes":[3.7441837E1,3.2969456E0,1.2289926E1,1.6351423E0,2.19837E0,7.906748E0,0E0,6.2596154E-1,2.0230505E0,2.282547E0,1.5818397E0,4.4973273E0,6.022558E0,0E0,2.1416008E-1,2.2698763E-1,1.1272957E0,2.2019157E0,1.0762001E0,0E0,1.399626E0,2.4111094E0,2.9115996E0,8.289991E0,7.6729274E0,0E0,0E0,0E0,0E0,3.4191442E-1,5.5690515E-1,1.3778954E0,1.4773351E0,1.4369614E0,0E0,5.1387787E-2,0E0,4.9380493E-1,2.5255413E0,1.2340775E0,1.2837205E0,5.974663E0,3.5793571E0,5.534954E-1,2.3047223E0,0E0,0E0,0E0,0E0,0E0,0E0,0E0,0E0,0E0,0E0,0E0,0E0,0E0,0E0,0E0,0E0,0E0,0E0,0E0,0E0,0E0,0E0,0E0,0E0,0E0,0E0,0E0,0E0],"parents":[2147483647,0,0,1,1,2,2,3,3,4,4,5,5,7,7,8,8,9,9,10,10,11,11,12,12,14,14,15,15,16,16,17,17,18,18,20,20,21,21,22,22,23,23,24,24,29,29,30,30,31,31,32,32,33,33,35,35,37,37,38,38,39,39,40,40,41,41,42,42,43,43,44,44],"right_children":[2,4,6,8,10,12,-1,14,16,18,20,22,24,-1,26,28,30,32,34,-1,36,38,40,42,44,-1,-1,-1,-1,46,48,50,52,54,-1,56,-1,58,60,62,64,66,68,70,72,-1,-1,-1,-1,-1,-1,-1,-1,-1,-1,-1,-1,-1,-1,-1,-1,-1,-1,-1,-1,-1,-1,-1,-1,-1,-1,-1,-1],"split_conditions":[-4.570817E-1,-6.1362886E-1,3.280497E0,1.2062353E-1,2.5108404E0,-1.7150184E-2,-1.513738E-1,1.6017605E0,-1.0213789E0,3.2374206E0,-5.7680434E-1,-1.6302583E-1,1.7355846E0,-1.3712652E-1,1.4232863E0,-1.003513E0,-6.747624E-1,1.3086672E0,3.094922E0,-1.2562296E-1,-5.0852064E-2,-8.245712E-1,-8.3727723E-1,-2.0432083E-1,-1.2703645E0,9.954534E-2,-4.2313345E-2,-1.23113744E-1,1.763063E-2,3.5837507E-1,1.5531976E0,7.331934E0,-5.5382735E-1,-2.1456338E-1,-1.1951325E-1,-1.2975756E0,-1.0029795E-1,-3.4187117E-1,7.7750754E-1,1.8697635E0,-2.1055949E-1,7.2399783E-1,1.7002009E0,1.8773998E0,-3.338374E-1,3.444035E-1,9.230817E-2,-9.234691E-2,1.1053426E-1,-1.5336008E-1,2.7750913E-2,1.367238E-1,-1.16589926E-1,-1.0981781E-1,1.6396822E-1,1.9295406E-1,4.620051E-2,7.58649E-3,-1.846011E-1,-1.1046724E-1,8.67127E-2,1.406605E-1,-6.2898755E-2,-1.5509747E-1,4.2497925E-2,-1.0499303E-3,1.1776445E-1,1.5151861E-1,-9.249181E-2,1.5515353E-1,-2.5199963E-2,-2.206208E-1,7.724574E-2],"split_indices":[9,8,9,10,14,16,0,12,14,8,1,2,7,0,16,11,1,17,19,0,1,14,8,2,8,0,0,0,0,16,7,2,1,6,0,12,0,9,7,7,14,7,0,7,14,0,0,0,0,0,0,0,0,0,0,0,0,0,0,0,0,0,0,0,0,0,0,0,0,0,0,0,0],"split_type":[0,0,0,0,0,0,0,0,0,0,0,0,0,0,0,0,0,0,0,0,0,0,0,0,0,0,0,0,0,0,0,0,0,0,0,0,0,0,0,0,0,0,0,0,0,0,0,0,0,0,0,0,0,0,0,0,0,0,0,0,0,0,0,0,0,0,0,0,0,0,0,0,0],"sum_hessian":[6.225116E2,1.8726494E2,4.3524667E2,1.742879E1,1.6983615E2,4.1015726E2,2.5089409E1,7.3190255E0,1.0109765E1,1.5995291E2,9.883236E0,7.210452E1,3.3805273E2,5.264379E0,2.054646E0,3.501993E0,6.607772E0,1.51263E2,8.689911E0,3.6472805E0,6.235955E0,4.005933E1,3.2045197E1,3.1020285E2,2.7849882E1,1.0409534E0,1.0136926E0,2.3340795E0,1.1679134E0,3.6599135E0,2.9478583E0,1.4483693E2,6.426075E0,6.077547E0,2.612364E0,4.6151743E0,1.6207811E0,1.8249283E1,2.1810047E1,2.1614012E1,1.0431185E1,1.6012628E2,1.5007658E2,1.134686E1,1.6503021E1,1.8809979E0,1.7789156E0,1.2577499E0,1.6901083E0,1.4124295E2,3.5939748E0,3.6673622E0,2.7587125E0,1.7191502E0,4.3583965E0,3.57902E0,1.0361542E0,1.2064852E0,1.7042799E1,1.2375428E1,9.434618E0,1.910492E1,2.5090916E0,5.8091826E0,4.622002E0,9.938068E1,6.074561E1,1.4509001E2,4.986566E0,9.861403E0,1.4854563E0,1.4258348E1,2.2446723E0],"tree_param":{"num_deleted":"0","num_feature":"21","num_nodes":"73","size_leaf_vector":"1"}},{"base_weights":[-2.4042029E-2,4.0229598E-1,-2.4494833E-1,-2.2959231E-1,4.6656224E-1,-3.7511486E-1,5.130843E-1,-4.041555E-1,3.5226887E-1,-1.2562643E-1,4.842186E-1,-4.835923E-1,3.0911344E-1,1.5803542E-2,5.295034E-1,-1.5267335E-1,9.543715E-2,2.645404E-2,1.2179038E-1,5.2986974E-1,3.076389E-1,-5.124844E-1,9.873602E-2,-1.8371773E-1,5.490252E-1,1.6316909E-1,4.0584274E-2,5.3623915E-1,1.3001607E-1,-1.2998445E-1,4.2107278E-1,-5.2392817E-1,-2.512635E-1,3.3486992E-1,-1.30368E-1,3.3138525E-1,-4.3066758E-1,4.133616E-1,4.454294E-1,8.922763E-2,1.651216E-1,9.352356E-2,-3.558783E-2,1.4378703E-1,-1.0440367E-1,2.0189399E-2,-1.5818802E-1,3.588232E-1,-1.4973925E-1,1.4050412E-1,-9.638323E-2,1.358887E-1,6.1829383E-3,-1.4665224E-1,-8.866432E-3,1.5061125E-1,-1.1138138E-1],"categories":[],"categories_nodes":[],"categories_segments":[],"categories_sizes":[],"default_left":[0,0,0,0,0,0,0,0,0,0,0,0,0,0,0,0,0,0,0,0,0,0,0,0,0,0,0,0,0,0,0,0,0,0,0,0,0,0,0,0,0,0,0,0,0,0,0,0,0,0,0,0,0,0,0,0,0],"id":23,"left_children":[1,3,5,7,9,11,13,15,17,-1,19,21,23,-1,25,-1,-1,-1,-1,27,29,31,33,35,37,-1,-1,39,41,-1,43,45,47,49,-1,51,53,55,-1,-1,-1,-1,-1,-1,-1,-1,-1,-1,-1,-1,-1,-1,-1,-1,-1,-1,-1],"loss_changes":[4.820251E1,7.2016487E0,3.3450256E1,1.8485801E0,2.6866875E0,2.1543652E1,3.4870815E-1,1.1748128E0,2.6753485E-2,0E0,1.0966301E0,4.243084E0,4.836711E0,0E0,1.9874573E-1,0E0,0E0,0E0,0E0,2.4297333E-1,3.0806575E0,5.7852936E-1,1.7344191E0,1.9062368E0,2.8379755E0,0E0,0E0,2.4406433E-1,1.836159E-1,0E0,1.528492E0,4.8648453E-1,4.863336E0,9.6584177E-1,0E0,1.8176341E-1,2.1436298E-1,1.9351244E0,0E0,0E0,0E0,0E0,0E0,0E0,0E0,0E0,0E0,0E0,0E0,0E0,0E0,0E0,0E0,0E0,0E0,0E0,0E0],"parents":[2147483647,0,0,1,1,2,2,3,3,4,4,5,5,6,6,7,7,8,8,10,10,11,11,12,12,14,14,19,19,20,20,21,21,22,22,23,23,24,24,27,27,28,28,30,30,31,31,32,32,33,33,35,35,36,36,37,37],"right_children":[2,4,6,8,10,12,14,16,18,-1,20,22,24,-1,26,-1,-1,-1,-1,28,30,32,34,36,38,-1,-1,40,42,-1,44,46,48,50,-1,52,54,56,-1,-1,-1,-1,-1,-1,-1,-1,-1,-1,-1,-1,-1,-1,-1,-1,-1,-1,-1],"split_conditions":[-8.820638E-1,-1.0178376E0,3.2511275E0,2.8472524E0,-2.02536E0,1.711644E0,3.280497E0,2.9505944E0,1.1770518E0,-1.2562643E-1,-1.5910934E0,2.9590409E0,-1.2703645E0,1.5803542E-2,5.29418E-1,-1.5267335E-1,9.543715E-2,2.645404E-2,1.2179038E-1,3.2374206E0,-1.2010785E0,2.4958166E-1,-4.3409538E-1,-1.0051052E-1,-3.2118645E-2,1.6316909E-1,4.0584274E-2,-2.122677E0,6.851767E-1,-1.2998445E-1,2.0977378E0,-2.1865046E0,-8.903827E-1,-5.6378466E-1,-1.30368E-1,-1.457576E-1,2.8673484E0,-6.6412705E-1,4.454294E-1,8.922763E-2,1.651216E-1,9.352356E-2,-3.558783E-2,1.4378703E-1,-1.0440367E-1,2.0189399E-2,-1.5818802E-1,3.588232E-1,-1.4973925E-1,1.4050412E-1,-9.638323E-2,1.358887E-1,6.1829383E-3,-1.4665224E-1,-8.866432E-3,1.5061125E-1,-1.1138138E-1],"split_indices":[18,7,9,19,13,7,9,2,8,0,17,6,8,0,3,0,0,0,0,8,0,2,15,18,2,0,0,0,14,0,4,16,11,1,0,2,9,14,0,0,0,0,0,0,0,0,0,0,0,0,0,0,0,0,0,0,0],"split_type":[0,0,0,0,0,0,0,0,0,0,0,0,0,0,0,0,0,0,0,0,0,0,0,0,0,0,0,0,0,0,0,0,0,0,0,0,0,0,0,0,0,0,0,0,0,0,0,0,0,0,0,0,0,0,0,0,0],"sum_hessian":[5.0976218E2,1.7370302E2,3.3605917E2,1.5798095E1,1.5790492E2,2.8724045E2,4.8818714E1,1.2387232E1,3.4108634E0,2.6434097E0,1.5526152E2,2.4818628E2,3.9054173E1,1.825947E0,4.6992767E1,1.1076205E1,1.3110261E0,1.0228187E0,2.3880448E0,1.21777626E2,3.3483887E1,2.365689E2,1.1617385E1,1.286365E1,2.6190523E1,4.4971146E1,2.0216212E0,1.19532455E2,2.2451715E0,4.0713315E0,2.9412554E1,2.2567662E2,1.0892281E1,8.309958E0,3.307426E0,4.057778E0,8.805872E0,2.413341E1,2.0571148E0,7.925165E0,1.1160729E2,1.150498E0,1.0946736E0,2.769308E1,1.7194731E0,1.1697543E0,2.2450687E2,1.0332832E0,9.858997E0,7.1430883E0,1.16687E0,2.587867E0,1.4699106E0,7.49951E0,1.3063624E0,2.2006493E1,2.1269174E0],"tree_param":{"num_deleted":"0","num_feature":"21","num_nodes":"57","size_leaf_vector":"1"}},{"base_weights":[2.288768E-2,-1.2558283E-1,3.9224148E-1,6.902604E-2,-2.9224566E-1,4.6234912E-1,-3.7066653E-1,1.5586844E-1,-4.2169717E-1,-4.5286232E-1,-1.3071287E-1,4.857171E-1,2.883206E-2,8.947155E-2,-4.5909455E-1,4.8666865E-1,1.4824624E-2,-4.094036E-2,-1.5156929E-1,-1.9001624E-1,-4.9470696E-1,-1.4994326E-1,1.9038964E-2,-3.114709E-2,4.9173367E-1,2.9506874E-1,-1.3930786E-1,-3.8214132E-2,-1.4521085E-1,1.677374E-1,-1.934041E-1,-7.1304655E-1,9.023765E-2,-1.1057669E-1,9.449338E-2,1.5476863E-1,-3.512636E-1,-1.5173852E-1,-1.9970515E-1,1.9327936E-1,-4.283729E-1,5.13003E-1,2.3970139E-1,-5.3688288E-2,1.3830464E-1,8.939784E-2,-1.3103567E-1,-2.3763976E-1,-3.3005938E-2,1.3420068E-1,-1.7166171E-2,-1.475581E-1,4.666446E-3,6.890044E-2,-1.14771836E-1,-1.3324185E-2,1.554758E-1,-1.5241577E-1,5.1277228E-2,1.5747853E-1,3.3149857E-2,-8.933644E-2,1.452303E-1],"categories":[],"categories_nodes":[],"categories_segments":[],"categories_sizes":[],"default_left":[0,0,0,0,0,0,0,0,0,0,0,0,0,0,0,0,0,0,0,0,0,0,0,0,0,0,0,0,0,0,0,0,0,0,0,0,0,0,0,0,0,0,0,0,0,0,0,0,0,0,0,0,0,0,0,0,0,0,0,0,0,0,0],"id":24,"left_children":[1,3,5,7,9,11,13,15,17,19,21,23,25,-1,27,29,31,33,-1,35,37,-1,39,-1,41,43,-1,-1,-1,-1,45,47,49,-1,-1,-1,51,-1,53,55,57,59,61,-1,-1,-1,-1,-1,-1,-1,-1,-1,-1,-1,-1,-1,-1,-1,-1,-1,-1,-1,-1],"loss_changes":[2.7649126E1,1.16883E1,7.9026127E0,7.1727037E0,4.9735813E0,1.3315926E0,8.8932776E-1,6.6379156E0,7.8544664E-1,9.7133255E-1,5.4329023E0,4.978714E-1,1.1686517E0,0E0,3.455448E-2,2.2044125E0,5.6018586E0,7.7476996E-1,0E0,1.8801739E0,1.7026901E-1,0E0,5.599323E0,0E0,5.4641914E-1,5.319735E-1,0E0,0E0,0E0,0E0,7.088989E-1,3.6988354E-1,4.8857794E0,0E0,0E0,0E0,6.6497254E-1,0E0,4.5350415E-1,4.010242E0,1.048795E0,4.905281E-1,1.6673168E0,0E0,0E0,0E0,0E0,0E0,0E0,0E0,0E0,0E0,0E0,0E0,0E0,0E0,0E0,0E0,0E0,0E0,0E0,0E0,0E0],"parents":[2147483647,0,0,1,1,2,2,3,3,4,4,5,5,6,6,7,7,8,8,9,9,10,10,11,11,12,12,14,14,15,15,16,16,17,17,19,19,20,20,22,22,24,24,25,25,30,30,31,31,32,32,36,36,38,38,39,39,40,40,41,41,42,42],"right_children":[2,4,6,8,10,12,14,16,18,20,22,24,26,-1,28,30,32,34,-1,36,38,-1,40,-1,42,44,-1,-1,-1,-1,46,48,50,-1,-1,-1,52,-1,54,56,58,60,62,-1,-1,-1,-1,-1,-1,-1,-1,-1,-1,-1,-1,-1,-1,-1,-1,-1,-1,-1,-1],"split_conditions":[-3.1685E-1,7.2399783E-1,1.4251857E0,-2.1456338E-1,-4.9100795E-1,1.5075037E0,8.6735624E-1,1.6142885E-1,-5.087701E-1,-1.9480577E-1,-1.640498E0,-2.199267E0,-1.8099634E-2,8.947155E-2,7.889606E-1,1.2668923E0,1.8419628E-1,-1.7492884E0,-1.5156929E-1,-1.175785E0,-7.2141576E-1,-1.4994326E-1,6.3990784E-1,-3.114709E-2,1.7315056E0,-1.003513E0,-1.3930786E-1,-3.8214132E-2,-1.4521085E-1,1.677374E-1,7.6681983E-1,5.278808E-1,6.5036935E-1,-1.1057669E-1,9.449338E-2,1.5476863E-1,1.7517074E0,-1.5173852E-1,-3.7047803E-1,1.0667334E0,-5.7680434E-1,5.79263E0,-3.1416717E-1,-5.3688288E-2,1.3830464E-1,8.939784E-2,-1.3103567E-1,-2.3763976E-1,-3.3005938E-2,1.3420068E-1,-1.7166171E-2,-1.475581E-1,4.666446E-3,6.890044E-2,-1.14771836E-1,-1.3324185E-2,1.554758E-1,-1.5241577E-1,5.1277228E-2,1.5747853E-1,3.3149857E-2,-8.933644E-2,