{"learner":{"attributes":{"scikit_learn":"{\"_estimator_type\": \"classifier\"}"},"feature_names":[],"feature_types":[],"gradient_booster":{"model":{"gbtree_model_param":{"num_parallel_tree":"1","num_trees":"300"},"iteration_indptr":[0,3,6,9,12,15,18,21,24,27,30,33,36,39,42,45,48,51,54,57,60,63,66,69,72,75,78,81,84,87,90,93,96,99,102,105,108,111,114,117,120,123,126,129,132,135,138,141,144,147,150,153,156,159,162,165,168,171,174,177,180,183,186,189,192,195,198,201,204,207,210,213,216,219,222,225,228,231,234,237,240,243,246,249,252,255,258,261,264,267,270,273,276,279,282,285,288,291,294,297,300],"tree_info":[0,1,2,0,1,2,0,1,2,0,1,2,0,1,2,0,1,2,0,1,2,0,1,2,0,1,2,0,1,2,0,1,2,0,1,2,0,1,2,0,1,2,0,1,2,0,1,2,0,1,2,0,1,2,0,1,2,0,1,2,0,1,2,0,1,2,0,1,2,0,1,2,0,1,2,0,1,2,0,1,2,0,1,2,0,1,2,0,1,2,0,1,2,0,1,2,0,1,2,0,1,2,0,1,2,0,1,2,0,1,2,0,1,2,0,1,2,0,1,2,0,1,2,0,1,2,0,1,2,0,1,2,0,1,2,0,1,2,0,1,2,0,1,2,0,1,2,0,1,2,0,1,2,0,1,2,0,1,2,0,1,2,0,1,2,0,1,2,0,1,2,0,1,2,0,1,2,0,1,2,0,1,2,0,1,2,0,1,2,0,1,2,0,1,2,0,1,2,0,1,2,0,1,2,0,1,2,0,1,2,0,1,2,0,1,2,0,1,2,0,1,2,0,1,2,0,1,2,0,1,2,0,1,2,0,1,2,0,1,2,0,1,2,0,1,2,0,1,2,0,1,2,0,1,2,0,1,2,0,1,2,0,1,2,0,1,2,0,1,2,0,1,2,0,1,2,0,1,2,0,1,2,0,1,2,0,1,2,0,1,2,0,1,2,0,1,2,0,1,2],"trees":[{"base_weights":[1.0010065E0,1.3314488E0,1.8260865E-1,-5.647059E-1,1.3672343E0,6.878547E-1,-3.4114894E-1,-7.663455E-9,-1.972603E-1,1.3815503E0,-1.7027028E-1,-5.4216874E-1,1.1560062E0,-5.5391437E-1,4.5405403E-1,1.4150065E0,8.842105E-1,-6.824035E-1,2.8800002E-1,1.281407E0,-4.5283023E-1,-6.621393E-1,1.5463914E-1,1.1415929E0,-5.555556E-1,1.4278581E0,5.217391E-1,5.9067357E-1,4.09901E-1,-2.1583714E-1,-7.663455E-9,1.3373494E0,-1.4400001E-1,-7.663455E-9,-1.7560977E-1,-7.0710576E-1,2.5714284E-1,2.8536585E-1,-3.692308E-1,4.0824744E-1,-3.600001E-2,-1.956522E-1,-7.663455E-9,-7.663455E-9,4.2971265E-1,2.3684211E-1,-1.2857145E-1,2.4705882E-1,-7.346941E-2,4.1364452E-1,8.181818E-2,-2.2099012E-1,-1.3333336E-1,-1.8679248E-1,1.2857142E-1],"categories":[],"categories_nodes":[],"categories_segments":[],"categories_sizes":[],"default_left":[0,0,0,0,0,0,0,0,0,0,0,0,0,0,0,0,0,0,0,0,0,0,0,0,0,0,0,0,0,0,0,0,0,0,0,0,0,0,0,0,0,0,0,0,0,0,0,0,0,0,0,0,0,0,0],"id":0,"left_children":[1,3,5,7,9,11,13,-1,-1,15,-1,17,19,21,23,25,27,29,-1,31,33,35,37,39,41,43,45,47,-1,-1,-1,49,-1,-1,-1,51,-1,-1,53,-1,-1,-1,-1,-1,-1,-1,-1,-1,-1,-1,-1,-1,-1,-1,-1],"loss_changes":[1.7887384E2,3.277704E1,5.0954727E1,4.9508452E-1,1.3614746E1,5.699482E1,1.628712E1,0E0,0E0,6.404602E0,0E0,6.483264E0,1.494931E1,5.8706684E0,1.4902771E1,4.1851196E0,3.674467E0,6.5461254E-1,0E0,7.1782303E0,3.5342836E-1,5.0770493E0,4.8488345E0,3.6359348E0,4.8309207E-1,2.7269287E0,2.288983E0,4.3740764E0,0E0,0E0,0E0,2.4737854E0,0E0,0E0,0E0,1.6984177E-1,0E0,0E0,1.7269752E0,0E0,0E0,0E0,0E0,0E0,0E0,0E0,0E0,0E0,0E0,0E0,0E0,0E0,0E0,0E0,0E0],"parents":[2147483647,0,0,1,1,2,2,3,3,4,4,5,5,6,6,9,9,11,11,12,12,13,13,14,14,15,15,16,16,17,17,19,19,20,20,21,21,22,22,23,23,24,24,25,25,26,26,27,27,31,31,35,35,38,38],"right_children":[2,4,6,8,10,12,14,-1,-1,16,-1,18,20,22,24,26,28,30,-1,32,34,36,38,40,42,44,46,48,-1,-1,-1,50,-1,-1,-1,52,-1,-1,54,-1,-1,-1,-1,-1,-1,-1,-1,-1,-1,-1,-1,-1,-1,-1,-1],"split_conditions":[7.787545E-1,-1.6642263E0,-1.3061614E-1,1.3410176E0,2.8379464E0,-1.6012192E0,-8.378362E-1,-7.663455E-9,-1.972603E-1,1.4061234E0,-1.7027028E-1,4.181222E0,1.5884881E0,5.200283E-1,-7.091081E-1,2.9567537E0,1.8932979E-1,-1.8532476E0,2.8800002E-1,4.5724897E0,1.8198406E0,-6.631697E-2,-5.014251E-1,-8.416427E-3,-1.2772168E-1,-2.0424771E0,-5.4051597E-3,-5.468689E-1,4.09901E-1,-2.1583714E-1,-7.663455E-9,8.560584E-1,-1.4400001E-1,-7.663455E-9,-1.7560977E-1,-1.566679E-1,2.5714284E-1,2.8536585E-1,-7.606708E-1,4.0824744E-1,-3.600001E-2,-1.956522E-1,-7.663455E-9,-7.663455E-9,4.2971265E-1,2.3684211E-1,-1.2857145E-1,2.4705882E-1,-7.346941E-2,4.1364452E-1,8.181818E-2,-2.2099012E-1,-1.3333336E-1,-1.8679248E-1,1.2857142E-1],"split_indices":[7,17,9,6,9,17,8,0,0,12,0,13,7,3,11,6,1,17,0,6,7,1,13,14,2,16,0,19,0,0,0,17,0,0,0,3,0,0,11,0,0,0,0,0,0,0,0,0,0,0,0,0,0,0,0],"split_type":[0,0,0,0,0,0,0,0,0,0,0,0,0,0,0,0,0,0,0,0,0,0,0,0,0,0,0,0,0,0,0,0,0,0,0,0,0,0,0,0,0,0,0,0,0,0,0,0,0,0,0,0,0,0,0],"sum_hessian":[6.613333E2,4.7066663E2,1.9066666E2,8.444444E0,4.622222E2,9.6888885E1,9.377777E1,1.3333333E0,7.1111107E0,4.5911108E2,3.111111E0,2.6666664E1,7.022222E1,7.422222E1,1.9555553E1,4.2844443E2,3.0666664E1,2.4888887E1,1.7777777E0,6.533333E1,4.8888884E0,6.444444E1,9.777777E0,1.1555555E1,7.9999995E0,4.2177774E2,6.666666E0,2.0444443E1,1.0222221E1,2.3555553E1,1.3333333E0,6.3555553E1,1.7777777E0,1.3333333E0,3.5555553E0,6.3111107E1,1.3333333E0,3.5555553E0,6.222222E0,9.777777E0,1.7777777E0,6.666666E0,1.3333333E0,1.3333333E0,4.2044443E2,5.333333E0,1.3333333E0,1.5999999E1,4.444444E0,6.0888885E1,2.6666665E0,5.5111107E1,7.9999995E0,4.8888884E0,1.3333333E0],"tree_param":{"num_deleted":"0","num_feature":"21","num_nodes":"55","size_leaf_vector":"1"}},{"base_weights":[-4.5596382E-1,4.032096E-1,-6.2738794E-1,5.7919073E-1,-2.1063831E-1,-6.8745625E-1,-2.5249648E-1,-2.8571433E-1,8.1021893E-1,-7.16956E-1,-4.7339454E-1,1.869688E-1,-6.8067235E-1,-5.172414E-1,3.9622638E-1,9.6E-1,-1.956522E-1,-7.216108E-1,3.1034475E-2,-5.47025E-1,2.4545455E-1,-7.26644E-2,3.5753426E-1,7.2E-2,-2.1906161E-1,-8.1081115E-2,-6.153847E-1,-1.2857145E-1,7.317073E-1,-7.643317E-2,1.2830188E0,-7.261873E-1,-2.44898E-1,-5.9281445E-1,1.2413793E-1,-5.5200005E-1,2.774566E-1,-1.4400001E-1,1.2857142E-1,-2.0412374E-1,-6.206898E-2,7.2E-2,2.8800002E-1,-1.4516132E-1,1.3561644E-1,4.0489978E-1,4.864864E-2,-2.1856797E-1,-7.663455E-9,1.2857142E-1,-1.7027028E-1,-1.8773009E-1,1.2857142E-1,-2.0642205E-1,7.2E-2,1.8461537E-1,-1.1076925E-1],"categories":[],"categories_nodes":[],"categories_segments":[],"categories_sizes":[],"default_left":[0,0,0,0,0,0,0,0,0,0,0,0,0,0,0,0,0,0,0,0,0,0,0,0,0,0,0,0,0,0,0,0,0,0,0,0,0,0,0,0,0,0,0,0,0,0,0,0,0,0,0,0,0,0,0,0,0],"id":1,"left_children":[1,3,5,7,-1,9,11,13,15,17,19,21,23,25,27,29,-1,31,-1,33,-1,35,-1,-1,-1,37,39,-1,41,43,45,47,49,51,-1,53,55,-1,-1,-1,-1,-1,-1,-1,-1,-1,-1,-1,-1,-1,-1,-1,-1,-1,-1,-1,-1],"loss_changes":[9.780344E1,2.1954988E1,1.2269485E1,1.9436172E1,0E0,2.6643066E0,1.4783493E1,3.520587E0,1.7297367E1,1.6637115E0,6.206362E0,1.0318994E1,1.9841957E0,6.3976E-1,1.9430676E0,2.3347198E1,0E0,7.251282E-1,0E0,2.792141E0,0E0,5.542218E0,0E0,0E0,0E0,1.0415444E0,2.0454454E-1,0E0,2.8097534E-1,3.9749782E0,3.7403336E0,7.0544434E-1,1.4263651E0,2.1417713E0,0E0,1.6619453E0,4.4279237E0,0E0,0E0,0E0,0E0,0E0,0E0,0E0,0E0,0E0,0E0,0E0,0E0,0E0,0E0,0E0,0E0,0E0,0E0,0E0,0E0],"parents":[2147483647,0,0,1,1,2,2,3,3,5,5,6,6,7,7,8,8,9,9,10,10,11,11,12,12,13,13,14,14,15,15,17,17,19,19,21,21,25,25,26,26,28,28,29,29,30,30,31,31,32,32,33,33,35,35,36,36],"right_children":[2,4,6,8,-1,10,12,14,16,18,20,22,24,26,28,30,-1,32,-1,34,-1,36,-1,-1,-1,38,40,-1,42,44,46,48,50,52,-1,54,56,-1,-1,-1,-1,-1,-1,-1,-1,-1,-1,-1,-1,-1,-1,-1,-1,-1,-1,-1,-1],"split_conditions":[-8.378362E-1,3.342042E0,9.999545E-1,-7.460553E-2,-2.1063831E-1,3.741569E-2,-6.631697E-2,1.1004905E0,1.9355168E0,3.3763523E0,1.2475153E0,7.2091633E-1,-1.0958282E0,-1.1989535E0,-2.98648E-1,7.787545E-1,-1.956522E-1,7.4296074E0,3.1034475E-2,9.1906554E-1,2.4545455E-1,9.8207265E-1,3.5753426E-1,7.2E-2,-2.1906161E-1,9.3310136E-1,-6.457463E-2,-1.2857145E-1,1.0450797E0,9.9345475E-1,1.1967245E0,5.711629E0,4.4497654E-1,2.893957E0,1.2413793E-1,1.4020983E0,5.9752184E-1,-1.4400001E-1,1.2857142E-1,-2.0412374E-1,-6.206898E-2,7.2E-2,2.8800002E-1,-1.4516132E-1,1.3561644E-1,4.0489978E-1,4.864864E-2,-2.1856797E-1,-7.663455E-9,1.2857142E-1,-1.7027028E-1,-1.8773009E-1,1.2857142E-1,-2.0642205E-1,7.2E-2,1.8461537E-1,-1.1076925E-1],"split_indices":[8,9,0,9,0,9,1,0,7,14,13,7,11,11,9,7,0,2,0,17,0,17,0,0,0,12,11,0,17,16,3,15,1,9,0,0,9,0,0,0,0,0,0,0,0,0,0,0,0,0,0,0,0,0,0,0,0],"split_type":[0,0,0,0,0,0,0,0,0,0,0,0,0,0,0,0,0,0,0,0,0,0,0,0,0,0,0,0,0,0,0,0,0,0,0,0,0,0,0,0,0,0,0,0,0,0,0,0,0,0,0,0,0,0,0,0,0],"sum_hessian":[6.613333E2,1.0977777E2,5.5155554E2,9.511111E1,1.4666666E1,4.7466663E2,7.6888885E1,1.9999998E1,7.511111E1,4.1511108E2,5.9555553E1,3.822222E1,3.8666664E1,1.5111111E1,4.8888884E0,6.844444E1,6.666666E0,4.1288885E2,2.222222E0,5.6888885E1,2.6666665E0,3.1111109E1,7.1111107E0,1.7777777E0,3.6888885E1,3.111111E0,1.1999999E1,1.3333333E0,3.5555553E0,1.6444443E1,5.1999996E1,4.0844443E2,4.444444E0,5.4666664E1,2.222222E0,1.2888888E1,1.8222221E1,1.7777777E0,1.3333333E0,9.777777E0,2.222222E0,1.7777777E0,1.7777777E0,9.333333E0,7.1111107E0,4.8888885E1,3.111111E0,4.0711108E2,1.3333333E0,1.3333333E0,3.111111E0,5.333333E1,1.3333333E0,1.1111111E1,1.7777777E0,1.1999999E1,6.222222E0],"tree_param":{"num_deleted":"0","num_feature":"21","num_nodes":"57","size_leaf_vector":"1"}},{"base_weights":[-5.450428E-1,1.2401216E0,-6.482894E-1,1.3672131E0,-2.727273E-1,-6.9482297E-1,1.1586207E0,7.2E-2,4.2664364E-1,-1.2857145E-1,-7.663455E-9,-7.2551197E-1,1.1612903E0,4.176E-1,-6.206898E-2,2.1724138E-1,-7.320867E-1,4.0000004E-1,-7.663455E-9,-7.402598E-1,-2.1649489E-1,-2.2257519E-1,-8.181819E-2,-1.2857145E-1,1.2413793E-1],"categories":[],"categories_nodes":[],"categories_segments":[],"categories_sizes":[],"default_left":[0,0,0,0,0,0,0,0,0,0,0,0,0,0,0,0,0,0,0,0,0,0,0,0,0],"id":2,"left_children":[1,3,5,7,9,11,13,-1,-1,-1,-1,15,17,-1,-1,-1,19,-1,-1,21,23,-1,-1,-1,-1],"loss_changes":[1.22879974E2,7.401428E0,5.3505768E1,1.7570877E0,1.5584415E-1,3.568445E1,5.422346E0,0E0,0E0,0E0,0E0,6.271057E0,2.064515E0,0E0,0E0,0E0,2.3685608E0,0E0,0E0,2.5515747E-1,1.6179981E0,0E0,0E0,0E0,0E0],"parents":[2147483647,0,0,1,1,2,2,3,3,4,4,5,5,6,6,11,11,12,12,16,16,19,19,20,20],"right_children":[2,4,6,8,10,12,14,-1,-1,-1,-1,16,18,-1,-1,-1,20,-1,-1,22,24,-1,-1,-1,-1],"split_conditions":[-1.6012192E0,2.770786E0,3.342042E0,-1.1299033E0,1.0608702E0,1.9355168E0,1.816802E-1,7.2E-2,4.2664364E-1,-1.2857145E-1,-7.663455E-9,-2.0424771E0,-4.95016E-1,4.176E-1,-6.206898E-2,2.1724138E-1,2.9567537E0,4.0000004E-1,-7.663455E-9,3.7772822E0,1.5144086E-1,-2.2257519E-1,-8.181819E-2,-1.2857145E-1,1.2413793E-1],"split_indices":[17,13,9,7,4,7,3,0,0,0,0,16,3,0,0,0,6,0,0,4,2,0,0,0,0],"split_type":[0,0,0,0,0,0,0,0,0,0,0,0,0,0,0,0,0,0,0,0,0,0,0,0,0],"sum_hessian":[6.613333E2,3.5555553E1,6.257777E2,3.2888885E1,2.6666665E0,6.106666E2,1.5111111E1,1.7777777E0,3.1111109E1,1.3333333E0,1.3333333E0,6.013333E2,9.333333E0,1.2888888E1,2.222222E0,2.222222E0,5.991111E2,7.9999995E0,1.3333333E0,5.893333E2,9.777777E0,5.866666E2,2.6666665E0,7.5555553E0,2.222222E0],"tree_param":{"num_deleted":"0","num_feature":"21","num_nodes":"25","size_leaf_vector":"1"}},{"base_weights":[7.0610094E-1,-1.1256754E-1,8.463613E-1,7.256435E-1,-2.875847E-1,-4.816167E-1,9.1756773E-1,8.778779E-1,-9.457963E-2,-4.4566068E-1,4.1483325E-1,-6.191885E-1,2.0104258E-1,9.3344915E-1,1.2696923E-1,2.8770664E-1,-2.1478832E-4,9.035069E-2,-1.3779542E-1,-5.0174123E-1,2.4575232E-1,6.7125547E-1,-3.6516702E-1,-1.9561015E-1,-3.2567725E-2,9.781525E-1,6.686128E-1,2.2262439E-1,-2.3624144E-1,6.426207E-2,-6.087591E-1,2.1700154E-1,8.935619E-1,-1.5298563E-1,3.7179687E-3,9.809622E-1,-5.5935145E-3,3.2426125E-1,9.770778E-1,-5.178423E-1,2.0183553E-1,-1.3610354E-1,1.253644E-1,-5.087873E-2,-1.8859875E-1,1.645177E-1,-6.276458E-2,2.9364434E-1,8.627526E-2,1.9633214E-3,2.9509076E-1,2.4906994E-1,8.97759E-3,3.4405213E-2,3.0416104E-1,-1.8615845E-1,-1.4293845E-2],"categories":[],"categories_nodes":[],"categories_segments":[],"categories_sizes":[],"default_left":[0,0,0,0,0,0,0,0,0,0,0,0,0,0,0,0,0,0,0,0,0,0,0,0,0,0,0,0,0,0,0,0,0,0,0,0,0,0,0,0,0,0,0,0,0,0,0,0,0,0,0,0,0,0,0,0,0],"id":3,"left_children":[1,3,5,7,9,11,13,15,17,19,21,23,-1,25,27,-1,-1,-1,-1,29,-1,31,33,-1,-1,35,37,-1,39,41,43,45,47,-1,-1,49,-1,51,53,55,-1,-1,-1,-1,-1,-1,-1,-1,-1,-1,-1,-1,-1,-1,-1,-1,-1],"loss_changes":[8.192374E1,1.5629448E1,5.798285E1,2.3856716E0,9.92E0,5.4256988E0,7.1373596E0,1.1165104E0,6.8533945E-1,5.521818E0,3.5701373E0,4.11726E-1,0E0,6.0510254E0,2.976332E0,0E0,0E0,0E0,0E0,4.2557354E0,0E0,1.1051083E0,2.6656395E-1,0E0,0E0,1.3693542E0,8.7067375E0,0E0,2.560403E0,2.3826153E0,4.059353E-1,8.982857E-1,1.4812708E-1,0E0,0E0,1.2467957E0,0E0,6.1760345E0,1.2897797E0,3.162589E-1,0E0,0E0,0E0,0E0,0E0,0E0,0E0,0E0,0E0,0E0,0E0,0E0,0E0,0E0,0E0,0E0,0E0],"parents":[2147483647,0,0,1,1,2,2,3,3,4,4,5,5,6,6,7,7,8,8,9,9,10,10,11,11,13,13,14,14,19,19,21,21,22,22,25,25,26,26,28,28,29,29,30,30,31,31,32,32,35,35,37,37,38,38,39,39],"right_children":[2,4,6,8,10,12,14,16,18,20,22,24,-1,26,28,-1,-1,-1,-1,30,-1,32,34,-1,-1,36,38,-1,40,42,44,46,48,-1,-1,50,-1,52,54,56,-1,-1,-1,-1,-1,-1,-1,-1,-1,-1,-1,-1,-1,-1,-1,-1,-1],"split_conditions":[-8.378362E-1,7.2091633E-1,-1.6642263E0,-4.7910798E-1,5.200283E-1,2.770786E0,2.9567537E0,2.7819357E0,2.3200153E-1,-6.631697E-2,1.3723361E0,2.6993985E0,2.0104258E-1,9.999545E-1,-4.0754902E-1,2.8770664E-1,-2.1478832E-4,9.035069E-2,-1.3779542E-1,-1.3061614E-1,2.4575232E-1,1.067945E0,1.4020983E0,-1.9561015E-1,-3.2567725E-2,2.893957E0,-6.631697E-2,2.2262439E-1,8.583764E-1,-6.1425996E-1,7.787545E-1,1.3256598E0,-7.091081E-1,-1.5298563E-1,3.7179687E-3,-2.0424771E0,-5.5935145E-3,-2.0449351E-1,-1.0958282E0,5.200283E-1,2.0183553E-1,-1.3610354E-1,1.253644E-1,-5.087873E-2,-1.8859875E-1,1.645177E-1,-6.276458E-2,2.9364434E-1,8.627526E-2,1.9633214E-3,2.9509076E-1,2.4906994E-1,8.97759E-3,3.4405213E-2,3.0416104E-1,-1.8615845E-1,-1.4293845E-2],"split_indices":[8,7,17,19,3,13,6,9,13,1,12,14,0,0,0,0,0,0,0,9,0,7,0,0,0,9,1,0,3,13,7,9,11,0,0,16,0,7,11,3,0,0,0,0,0,0,0,0,0,0,0,0,0,0,0,0,0],"split_type":[0,0,0,0,0,0,0,0,0,0,0,0,0,0,0,0,0,0,0,0,0,0,0,0,0,0,0,0,0,0,0,0,0,0,0,0,0,0,0,0,0,0,0,0,0,0,0,0,0,0,0,0,0,0,0,0,0],"sum_hessian":[7.116256E2,1.04116745E2,6.0750885E2,1.7440878E1,8.6675865E1,3.0623667E1,5.768852E2,1.465129E1,2.7895887E0,7.105157E1,1.56243E1,2.7769175E1,2.854492E0,5.653479E2,1.1537289E1,1.3328747E1,1.3225431E0,1.4215097E0,1.368079E0,6.861272E1,2.4388502E0,1.1863601E1,3.760699E0,2.5830738E1,1.9384367E0,4.8139658E2,8.395133E1,3.8960516E0,7.6412373E0,1.097372E1,5.7638996E1,4.5475063E0,7.3160944E0,2.4648418E0,1.295857E0,4.800593E2,1.3372664E0,4.063741E1,4.331392E1,6.162525E0,1.478712E0,4.337579E0,6.636141E0,2.9117951E0,5.47272E1,2.397083E0,2.1504235E0,5.8743863E0,1.4417083E0,1.3230441E0,4.7873627E2,1.4275949E1,2.636146E1,1.9407542E0,4.1373165E1,4.795514E0,1.3670111E0],"tree_param":{"num_deleted":"0","num_feature":"21","num_nodes":"57","size_leaf_vector":"1"}},{"base_weights":[-3.8450754E-1,2.1242179E-1,-5.7714456E-1,-2.5140464E-1,4.5474148E-1,-5.972111E-1,2.2049953E-1,-4.1446853E-1,3.3504796E-1,-7.295607E-2,6.1854935E-1,-6.3393724E-1,-3.4929058E-1,-1.6640338E-1,7.989042E-1,-1.8209454E-1,-6.032146E-1,7.123924E-1,-1.550534E-1,-4.8725635E-1,3.5158107E-1,7.515566E-1,-4.1260383E-1,-6.410137E-1,1.2553717E-1,-5.4675657E-1,3.62411E-1,8.3011165E-2,2.7373514E-1,-1.8410435E-1,2.1654293E-1,-1.9432504E-1,2.9152265E-2,-6.2171277E-2,1.0598003E0,6.599024E-2,-1.8934005E-1,4.8687044E-1,-1.2947097E-1,-1.2712751E-1,8.834688E-1,-1.750182E-1,2.6643695E-2,-6.483398E-1,-2.4424635E-2,2.3096293E-1,-1.3408782E-1,-6.424726E-1,-1.07012264E-1,-1.5754613E-1,6.891931E-1,-1.6107655E-1,1.3972569E-1,3.6025596E-1,9.7512096E-2,1.2985459E-1,-1.0791038E-1,2.5376183E-1,1.2295955E-2,-1.6631688E-1,1.0251092E-1,2.9170144E-1,-1.5264043E-1,-1.9671863E-1,-9.34885E-2,1.8793333E-1,-1.4915773E-1,-1.9963987E-1,-4.9524405E-4,-1.714988E-1,1.9481958E-1,-1.0910112E-1,2.59355E-1],"categories":[],"categories_nodes":[],"categories_segments":[],"categories_sizes":[],"default_left":[0,0,0,0,0,0,0,0,0,0,0,0,0,0,0,0,0,0,0,0,0,0,0,0,0,0,0,0,0,0,0,0,0,0,0,0,0,0,0,0,0,0,0,0,0,0,0,0,0,0,0,0,0,0,0,0,0,0,0,0,0,0,0,0,0,0,0,0,0,0,0,0,0],"id":4,"left_children":[1,3,5,7,9,11,13,15,17,19,21,23,25,-1,27,29,31,33,-1,35,37,39,41,43,45,47,49,-1,-1,-1,51,-1,-1,-1,53,55,-1,57,-1,59,61,-1,-1,63,65,-1,-1,67,69,-1,71,-1,-1,-1,-1,-1,-1,-1,-1,-1,-1,-1,-1,-1,-1,-1,-1,-1,-1,-1,-1,-1,-1],"loss_changes":[6.833754E1,1.6463657E1,7.314499E0,4.973991E0,8.335077E0,3.7667694E0,5.708219E0,1.6449037E0,4.0819893E0,4.3244247E0,1.0361935E1,2.1241913E0,8.453476E0,0E0,1.7056751E-1,3.4644094E0,7.3806953E-1,2.9119406E0,0E0,1.0262542E0,1.5072961E0,7.6778564E0,8.241831E-1,1.6868134E0,1.9475359E0,1.883481E0,4.236775E0,0E0,0E0,0E0,2.2790184E0,0E0,0E0,0E0,2.6052904E-1,6.957639E-1,0E0,1.7116537E0,0E0,2.071183E0,7.5321503E0,0E0,0E0,7.2232056E-1,1.9931157E0,0E0,0E0,5.572138E-1,3.7069345E0,0E0,2.1966853E0,0E0,0E0,0E0,0E0,0E0,0E0,0E0,0E0,0E0,0E0,0E0,0E0,0E0,0E0,0E0,0E0,0E0,0E0,0E0,0E0,0E0,0E0],"parents":[2147483647,0,0,1,1,2,2,3,3,4,4,5,5,6,6,7,7,8,8,9,9,10,10,11,11,12,12,14,14,15,15,16,16,17,17,19,19,20,20,21,21,22,22,23,23,24,24,25,25,26,26,30,30,34,34,35,35,37,37,39,39,40,40,43,43,44,44,47,47,48,48,50,50],"right_children":[2,4,6,8,10,12,14,16,18,20,22,24,26,-1,28,30,32,34,-1,36,38,40,42,44,46,48,50,-1,-1,-1,52,-1,-1,-1,54,56,-1,58,-1,60,62,-1,-1,64,66,-1,-1,68,70,-1,72,-1,-1,-1,-1,-1,-1,-1,-1,-1,-1,-1,-1,-1,-1,-1,-1,-1,-1,-1,-1,-1,-1],"split_conditions":[-7.240654E-1,3.967387E-1,1.7037063E0,-5.286387E-1,7.2091633E-1,3.741569E-2,1.1589474E-1,-9.5160705E-1,-5.776105E-1,1.5412725E0,1.8776786E0,1.5074853E0,6.685373E-1,-1.6640338E-1,8.469708E-2,-5.127246E-1,4.577021E-1,-3.4689328E-1,-1.550534E-1,9.1906554E-1,2.0818691E0,-1.3061614E-1,9.614274E-1,7.4296074E0,-3.2196373E-1,1.7438129E-1,-1.05941124E-1,8.3011165E-2,2.7373514E-1,-1.8410435E-1,4.600793E-1,-1.9432504E-1,2.9152265E-2,-6.2171277E-2,-2.0647709E-1,8.9941853E-1,-1.8934005E-1,5.200283E-1,-1.2947097E-1,-9.5160705E-1,3.342042E0,-1.750182E-1,2.6643695E-2,1.4231224E0,4.4497654E-1,2.3096293E-1,-1.3408782E-1,2.8379464E0,3.4918603E-1,-1.5754613E-1,-1.2292851E0,-1.6107655E-1,1.3972569E-1,3.6025596E-1,9.7512096E-2,1.2985459E-1,-1.0791038E-1,2.5376183E-1,1.2295955E-2,-1.6631688E-1,1.0251092E-1,2.9170144E-1,-1.5264043E-1,-1.9671863E-1,-9.34885E-2,1.8793333E-1,-1.4915773E-1,-1.9963987E-1,-4.9524405E-4,-1.714988E-1,1.9481958E-1,-1.0910112E-1,2.59355E-1],"split_indices":[8,0,0,11,7,9,11,8,1,12,7,12,14,0,7,10,16,14,0,17,12,9,18,2,1,10,0,0,0,0,12,0,0,0,0,0,0,3,0,8,9,0,0,17,1,0,0,9,18,0,12,0,0,0,0,0,0,0,0,0,0,0,0,0,0,0,0,0,0,0,0,0,0],"split_type":[0,0,0,0,0,0,0,0,0,0,0,0,0,0,0,0,0,0,0,0,0,0,0,0,0,0,0,0,0,0,0,0,0,0,0,0,0,0,0,0,0,0,0,0,0,0,0,0,0,0,0,0,0,0,0,0,0,0,0,0,0,0,0,0,0,0,0,0,0,0,0,0,0],"sum_hessian":[5.9222156E2,1.4446411E2,4.4775745E2,4.956115E1,9.490296E1,4.3701462E2,1.0742823E1,3.900815E1,1.0553003E1,2.2612555E1,7.2290405E1,3.7927325E2,5.7741356E1,4.6080875E0,6.1347346E0,1.8364063E1,2.0644083E1,7.4269857E0,3.1260176E0,1.1369486E1,1.1243069E1,6.427128E1,8.019127E0,3.759265E2,3.3467357E0,4.5381687E1,1.2359669E1,1.7095276E0,4.425207E0,8.558605E0,9.805458E0,1.9480536E1,1.1635493E0,2.1470265E0,5.279959E0,2.4582376E0,8.911248E0,9.909518E0,1.333551E0,8.394007E0,5.5877274E1,5.859721E0,2.1594052E0,3.7146146E2,4.465058E0,1.4123638E0,1.9343721E0,3.6890892E1,8.490795E0,3.1626444E0,9.197024E0,2.1501496E0,7.6553087E0,3.897419E0,1.3825402E0,1.311329E0,1.1469085E0,4.992638E0,4.9168797E0,4.2962165E0,4.0977907E0,5.2808125E1,3.0691507E0,3.6255783E2,8.903631E0,1.7418963E0,2.7231615E0,3.5575924E1,1.3149688E0,5.4110947E0,3.0797007E0,1.1595203E0,8.037504E0],"tree_param":{"num_deleted":"0","num_feature":"21","num_nodes":"73","size_leaf_vector":"1"}},{"base_weights":[-4.7161937E-1,8.563845E-1,-5.694815E-1,9.4002855E-1,-2.588251E-1,-6.147401E-1,8.1544125E-1,5.1336646E-2,9.7523606E-1,-1.2577523E-1,4.4131195E-3,-6.4526546E-1,8.3518463E-1,2.8990054E-1,-5.499361E-2,1.3646199E-1,3.001346E-1,1.6829467E-1,-6.520477E-1,2.8389367E-1,2.51217E-4,-6.605046E-1,-1.785452E-1,-4.7915593E-2,-1.9873337E-1,-1.1517949E-1,1.1711363E-1],"categories":[],"categories_nodes":[],"categories_segments":[],"categories_sizes":[],"default_left":[0,0,0,0,0,0,0,0,0,0,0,0,0,0,0,0,0,0,0,0,0,0,0,0,0,0,0],"id":5,"left_children":[1,3,5,7,9,11,13,-1,15,-1,-1,17,19,-1,-1,-1,-1,-1,21,-1,-1,23,25,-1,-1,-1,-1],"loss_changes":[7.629181E1,4.0148335E0,3.458966E1,8.571472E-1,1.6436474E-1,2.3872986E1,2.835617E0,0E0,1.6677856E-2,0E0,0E0,4.594635E0,1.0475264E0,0E0,0E0,0E0,0E0,0E0,1.9421844E0,0E0,0E0,3.8487244E-1,1.3648639E0,0E0,0E0,0E0,0E0],"parents":[2147483647,0,0,1,1,2,2,3,3,4,4,5,5,6,6,8,8,11,11,12,12,18,18,21,21,22,22],"right_children":[2,4,6,8,10,12,14,-1,16,-1,-1,18,20,-1,-1,-1,-1,-1,22,-1,-1,24,26,-1,-1,-1,-1],"split_conditions":[-1.6012192E0,2.770786E0,3.342042E0,-1.1299033E0,1.0101069E0,1.9355168E0,1.816802E-1,5.1336646E-2,4.2215742E-2,-1.2577523E-1,4.4131195E-3,-2.0424771E0,-4.95016E-1,2.8990054E-1,-5.499361E-2,1.3646199E-1,3.001346E-1,1.6829467E-1,2.9567537E0,2.8389367E-1,2.51217E-4,-1.5382121E0,1.5144086E-1,-4.7915593E-2,-1.9873337E-1,-1.1517949E-1,1.1711363E-1],"split_indices":[17,13,9,7,7,7,3,0,4,0,0,16,3,0,0,0,0,0,6,0,0,17,2,0,0,0,0],"split_type":[0,0,0,0,0,0,0,0,0,0,0,0,0,0,0,0,0,0,0,0,0,0,0,0,0,0,0],"sum_hessian":[5.822826E2,3.943209E1,5.428505E2,3.6827038E1,2.6050541E0,5.262103E2,1.6640179E1,1.8690356E0,3.4958E1,1.3062449E0,1.2988093E0,5.1590393E2,1.0306399E1,1.4484315E1,2.1558642E0,2.4954715E0,3.2462532E1,2.427635E0,5.1347626E2,8.976601E0,1.3297981E0,5.040784E2,9.397886E0,2.2667055E0,5.018117E2,7.1440024E0,2.253884E0],"tree_param":{"num_deleted":"0","num_feature":"21","num_nodes":"27","size_leaf_vector":"1"}},{"base_weights":[5.6568813E-1,-2.896622E-1,6.4911187E-1,4.4268388E-1,-4.2964473E-1,-4.2483842E-1,6.9784755E-1,6.8926185E-1,-1.3099056E-1,-4.9976146E-1,3.7554744E-1,-5.631329E-1,1.6015229E-1,3.6523765E-1,7.4472916E-1,4.9636386E-2,2.3234229E-1,-5.3072983E-1,4.3541748E-2,2.0319958E-1,-2.8848438E-2,-1.597445E-2,-1.8014275E-1,5.958936E-1,2.1139205E-2,7.5924236E-1,8.688487E-2,-2.8112176E-1,-5.948775E-1,7.2867596E-1,8.6399116E-2,5.850259E-1,-3.4627935E-1,7.729038E-1,1.3992792E-1,5.870248E-1,-2.2563618E-1,-1.3857433E-1,7.2932996E-2,-1.8504155E-1,-7.279356E-2,4.1408725E-2,2.3550917E-1,-9.541447E-2,1.3810724E-1,-5.107435E-2,2.502191E-1,-1.8418679E-1,1.0814368E-1,2.3595122E-1,1.46009E-1,-1.4517696E-1,2.1194756E-1,2.1203567E-1,5.5415165E-2,-1.4478253E-1,1.689128E-1],"categories":[],"categories_nodes":[],"categories_segments":[],"categories_sizes":[],"default_left":[0,0,0,0,0,0,0,0,0,0,0,0,0,0,0,0,0,0,0,0,0,0,0,0,0,0,0,0,0,0,0,0,0,0,0,0,0,0,0,0,0,0,0,0,0,0,0,0,0,0,0,0,0,0,0,0,0],"id":6,"left_children":[1,3,5,7,9,11,13,15,-1,17,19,21,-1,23,25,-1,-1,27,-1,-1,-1,-1,-1,29,31,33,35,37,39,41,43,45,47,49,51,53,55,-1,-1,-1,-1,-1,-1,-1,-1,-1,-1,-1,-1,-1,-1,-1,-1,-1,-1,-1,-1],"loss_changes":[4.832701E1,6.40693E0,3.2484497E1,2.5176685E0,3.0906181E0,3.9224405E0,8.907257E0,2.4556375E-1,0E0,1.0302353E0,7.3274803E-1,4.318676E-1,0E0,5.915044E0,4.850769E0,0E0,0E0,5.6540394E-1,0E0,0E0,0E0,0E0,0E0,2.9594793E0,6.6270714E0,4.1538086E0,2.0464525E0,1.178623E0,1.2456417E-1,1.0668125E0,1.7149575E0,2.5129743E0,3.8921072E0,1.5348206E0,4.6162243E0,1.0971081E-1,1.9454792E0,0E0,0E0,0E0,0E0,0E0,0E0,0E0,0E0,0E0,0E0,0E0,0E0,0E0,0E0,0E0,0E0,0E0,0E0,0E0,0E0],"parents":[2147483647,0,0,1,1,2,2,3,3,4,4,5,5,6,6,7,7,9,9,10,10,11,11,13,13,14,14,17,17,23,23,24,24,25,25,26,26,27,27,28,28,29,29,30,30,31,31,32,32,33,33,34,34,35,35,36,36],"right_children":[2,4,6,8,10,12,14,16,-1,18,20,22,-1,24,26,-1,-1,28,-1,-1,-1,-1,-1,30,32,34,36,38,40,42,44,46,48,50,52,54,56,-1,-1,-1,-1,-1,-1,-1,-1,-1,-1,-1,-1,-1,-1,-1,-1,-1,-1,-1,-1],"split_conditions":[-9.5160705E-1,-7.460553E-2,-1.6642263E0,1.3571357E0,1.1967245E0,2.770786E0,-7.240654E-1,-3.546586E-1,-1.3099056E-1,-3.2196373E-1,9.999545E-1,4.2215742E-2,1.6015229E-1,7.2091633E-1,2.9567537E0,4.9636386E-2,2.3234229E-1,9.513081E-2,4.3541748E-2,2.0319958E-1,-2.8848438E-2,-1.597445E-2,-1.8014275E-1,1.6088471E0,-1.0184841E0,1.7037063E0,-4.0754902E-1,-1.566679E-1,2.1090312E0,2.003733E-1,5.200283E-1,1.816802E-1,-5.776105E-1,1.2971082E0,-6.631697E-2,-1.1299033E0,8.583764E-1,-1.3857433E-1,7.2932996E-2,-1.8504155E-1,-7.279356E-2,4.1408725E-2,2.3550917E-1,-9.541447E-2,1.3810724E-1,-5.107435E-2,2.502191E-1,-1.8418679E-1,1.0814368E-1,2.3595122E-1,1.46009E-1,-1.4517696E-1,2.1194756E-1,2.1203567E-1,5.5415165E-2,-1.4478253E-1,1.689128E-1],"split_indices":[8,9,17,7,3,13,8,9,0,1,0,4,0,7,6,0,0,0,0,0,0,0,0,12,11,0,0,3,7,7,3,3,1,17,1,7,3,0,0,0,0,0,0,0,0,0,0,0,0,0,0,0,0,0,0,0,0],"split_type":[0,0,0,0,0,0,0,0,0,0,0,0,0,0,0,0,0,0,0,0,0,0,0,0,0,0,0,0,0,0,0,0,0,0,0,0,0,0,0,0,0,0,0,0,0,0,0,0,0,0,0,0,0,0,0,0,0],"sum_hessian":[6.736261E2,5.9641796E1,6.139843E2,9.22371E0,5.0418083E1,2.631797E1,5.876664E2,7.372469E0,1.851241E0,4.6728275E1,3.6898072E0,2.3360668E1,2.9573023E0,7.368517E1,5.139812E2,1.4431273E0,5.929342E0,4.4756107E1,1.972168E0,1.9843632E0,1.7054441E0,1.7596827E0,2.1600985E1,4.3676323E1,3.000885E1,5.0273584E2,1.1245338E1,1.0250873E1,3.4505238E1,3.4305557E1,9.370766E0,1.1605433E1,1.8403416E1,4.916427E2,1.1093135E1,3.9867806E0,7.2585573E0,7.710584E0,2.5402884E0,3.1775944E1,2.729292E0,3.2884934E0,3.1017063E1,4.57369E0,4.7970757E0,2.9562354E0,8.649199E0,1.3443248E1,4.9601684E0,4.6767148E2,2.3971237E1,5.3490677E0,5.744067E0,2.4890118E0,1.4977691E0,5.767451E0,1.4911067E0],"tree_param":{"num_deleted":"0","num_feature":"21","num_nodes":"57","size_leaf_vector":"1"}},{"base_weights":[-3.3484694E-1,1.7152682E-1,-5.170655E-1,-2.1675164E-1,3.619195E-1,-5.417074E-1,1.2448629E-1,-3.7511572E-1,3.0099106E-1,-6.2254537E-2,4.9423483E-1,-5.725307E-1,-2.4721056E-1,5.7571983E-1,-1.5990654E-1,-1.768845E-1,-5.456813E-1,6.05687E-1,-1.4156345E-1,-4.0681553E-1,3.396818E-1,5.9435153E-1,-3.539433E-1,-5.952989E-1,-2.9606837E-1,6.806322E-1,-5.49703E-1,1.1244299E-1,2.698702E-1,-1.6743562E-1,1.3607599E-1,4.985951E-2,-1.7914777E-1,8.177229E-1,-1.13612734E-1,5.075845E-2,-5.177963E-1,6.655366E-1,-1.2273692E-2,-1.1170118E-1,6.9970125E-1,-1.5821148E-1,2.9425556E-2,-6.0404277E-1,-1.741237E-1,-4.313928E-1,4.4154167E-1,9.324508E-1,-4.6864003E-2,-4.7737565E-2,-1.8069349E-1,-1.2736148E-1,1.4460413E-1,1.3395254E-1,-9.393381E-2,2.9725525E-1,4.683706E-2,-1.7875776E-1,2.0132564E-2,2.6165465E-1,-3.9688908E-3,-1.05009764E-1,1.5743081E-1,-1.5537995E-1,8.807699E-2,2.2971494E-1,-1.3645206E-1,-1.8379709E-1,-1.0186819E-1,-1.5180485E-1,8.184731E-2,-1.5072994E-1,7.071563E-2,-9.525769E-2,2.2038518E-1,3.274352E-1,1.15687005E-1,-1.3507473E-1,1.1181305E-1],"categories":[],"categories_nodes":[],"categories_segments":[],"categories_sizes":[],"default_left":[0,0,0,0,0,0,0,0,0,0,0,0,0,0,0,0,0,0,0,0,0,0,0,0,0,0,0,0,0,0,0,0,0,0,0,0,0,0,0,0,0,0,0,0,0,0,0,0,0,0,0,0,0,0,0,0,0,0,0,0,0,0,0,0,0,0,0,0,0,0,0,0,0,0,0,0,0,0,0],"id":7,"left_children":[1,3,5,7,9,11,13,15,17,19,21,23,25,27,-1,29,31,33,-1,35,37,39,41,43,45,47,49,51,-1,-1,53,-1,-1,55,-1,-1,57,59,61,63,65,-1,-1,67,69,71,73,75,-1,77,-1,-1,-1,-1,-1,-1,-1,-1,-1,-1,-1,-1,-1,-1,-1,-1,-1,-1,-1,-1,-1,-1,-1,-1,-1,-1,-1,-1,-1],"loss_changes":[4.745492E1,1.0176159E1,6.039238E0,3.8490264E0,5.1957216E0,3.1622696E0,4.693608E0,1.09834E0,2.9298801E0,3.2915087E0,6.1763916E0,1.892868E0,1.0546671E1,1.2864764E0,0E0,2.2025077E0,7.777624E-1,2.0819826E0,0E0,9.0040064E-1,1.2759672E0,4.780102E0,6.823493E-1,1.0096359E0,2.8856468E0,2.117679E0,7.0766354E-1,1.1866068E0,0E0,0E0,1.6168236E0,0E0,0E0,6.8176985E-1,0E0,0E0,5.379877E-1,8.1920505E-1,1.3257775E0,1.6453165E0,4.551159E0,0E0,0E0,4.666977E-1,1.2597578E0,1.223669E0,1.2743869E0,2.1701336E-1,0E0,7.993082E-1,0E0,0E0,0E0,0E0,0E0,0E0,0E0,0E0,0E0,0E0,0E0,0E0,0E0,0E0,0E0,0E0,0E0,0E0,0E0,0E0,0E0,0E0,0E0,0E0,0E0,0E0,0E0,0E0,0E0],"parents":[2147483647,0,0,1,1,2,2,3,3,4,4,5,5,6,6,7,7,8,8,9,9,10,10,11,11,12,12,13,13,15,15,16,16,17,17,19,19,20,20,21,21,22,22,23,23,24,24,25,25,26,26,27,27,30,30,33,33,36,36,37,37,38,38,39,39,40,40,43,43,44,44,45,45,46,46,47,47,49,49],"right_children":[2,4,6,8,10,12,14,16,18,20,22,24,26,28,-1,30,32,34,-1,36,38,40,42,44,46,48,50,52,-1,-1,54,-1,-1,56,-1,-1,58,60,62,64,66,-1,-1,68,70,72,74,76,-1,78,-1,-1,-1,-1,-1,-1,-1,-1,-1,-1,-1,-1,-1,-1,-1,-1,-1,-1,-1,-1,-1,-1,-1,-1,-1,-1,-1,-1,-1],"split_conditions":[-7.240654E-1,3.967387E-1,1.6031703E0,-5.286387E-1,7.2091633E-1,1.0450797E0,-6.631697E-2,-9.5160705E-1,-5.776105E-1,1.6088471E0,1.8776786E0,2.0224447E0,-3.2196373E-1,6.685373E-1,-1.5990654E-1,-5.127246E-1,1.425352E-1,1.7041644E0,-1.4156345E-1,2.003733E-1,5.200283E-1,-1.3061614E-1,-1.7798069E-1,1.9659973E0,-7.460553E-2,1.3015624E0,-6.631697E-2,8.469708E-2,2.698702E-1,-1.6743562E-1,-1.1473908E0,4.985951E-2,-1.7914777E-1,-2.0647709E-1,-1.13612734E-1,5.075845E-2,-1.2772168E-1,2.0480819E0,1.4101512E0,-9.5160705E-1,3.342042E0,-1.5821148E-1,2.9425556E-2,1.0456067E0,9.824964E-1,3.3763523E0,-1.2292851E0,-5.776105E-1,-4.6864003E-2,-4.512947E-1,-1.8069349E-1,-1.2736148E-1,1.4460413E-1,1.3395254E-1,-9.393381E-2,2.9725525E-1,4.683706E-2,-1.7875776E-1,2.0132564E-2,2.6165465E-1,-3.9688908E-3,-1.05009764E-1,1.5743081E-1,-1.5537995E-1,8.807699E-2,2.2971494E-1,-1.3645206E-1,-1.8379709E-1,-1.0186819E-1,-1.5180485E-1,8.184731E-2,-1.5072994E-1,7.071563E-2,-9.525769E-2,2.2038518E-1,3.274352E-1,1.15687005E-1,-1.3507473E-1,1.1181305E-1],"split_indices":[8,0,0,11,7,17,1,8,1,12,7,14,1,14,0,10,7,7,0,7,3,9,10,2,9,0,1,7,0,0,11,0,0,0,0,0,2,12,16,8,9,0,0,9,8,14,12,1,0,11,0,0,0,0,0,0,0,0,0,0,0,0,0,0,0,0,0,0,0,0,0,0,0,0,0,0,0,0,0],"split_type":[0,0,0,0,0,0,0,0,0,0,0,0,0,0,0,0,0,0,0,0,0,0,0,0,0,0,0,0,0,0,0,0,0,0,0,0,0,0,0,0,0,0,0,0,0,0,0,0,0,0,0,0,0,0,0,0,0,0,0,0,0,0,0,0,0,0,0,0,0,0,0,0,0,0,0,0,0,0,0],"sum_hessian":[5.123398E2,1.3559332E2,3.7674646E2,4.4566967E1,9.102635E1,3.6296088E2,1.3785606E1,3.4339027E1,1.0227942E1,2.1769047E1,6.925731E1,3.2771655E2,3.5244312E1,8.248933E0,5.536673E0,1.6823645E1,1.7515383E1,7.4910026E0,2.7369397E0,1.1714565E1,1.00544815E1,6.22131E1,7.0442095E0,3.0171536E2,2.6001198E1,8.357884E0,2.6886429E1,3.9481525E0,4.300781E0,7.231369E0,9.592276E0,1.030885E0,1.6484497E1,6.302729E0,1.1882732E0,1.8077049E0,9.90686E0,4.758188E0,5.2962933E0,8.069707E0,5.4143394E1,4.970512E0,2.0736978E0,2.9515356E2,6.5617785E0,2.232122E1,3.679978E0,6.3368053E0,2.021079E0,2.7314715E0,2.4154959E1,1.5488955E0,2.399257E0,5.6757526E0,3.9165225E0,4.60106E0,1.7016691E0,8.723827E0,1.183033E0,3.429231E0,1.328957E0,3.4651823E0,1.831111E0,3.8913727E0,4.178334E0,5.153355E1,2.6098433E0,2.845687E2,1.0584865E1,3.6897235E0,2.872055E0,2.0396103E1,1.9251175E0,1.0018237E0,2.6781545E0,4.1377206E0,2.1990848E0,1.3592892E0,1.3721824E0],"tree_param":{"num_deleted":"0","num_feature":"21","num_nodes":"79","size_leaf_vector":"1"}},{"base_weights":[-4.2460304E-1,6.783302E-1,-5.177045E-1,7.3625994E-1,-1.2630923E-1,-5.6181157E-1,6.505313E-1,7.695531E-1,-2.8682807E-2,-5.924594E-1,6.821796E-1,2.3404576E-1,-5.3344972E-2,7.885701E-1,5.76944E-2,-6.002187E-1,3.7532315E-1,2.3105189E-1,3.989622E-3,2.4376833E-1,1.0097249E-1,7.117619E-2,-6.03718E-1,-1.0588581E-1,2.3339783E-1,-1.8284856E-1,-3.7838645E-2],"categories":[],"categories_nodes":[],"categories_segments":[],"categories_sizes":[],"default_left":[0,0,0,0,0,0,0,0,0,0,0,0,0,0,0,0,0,0,0,0,0,0,0,0,0,0,0],"id":8,"left_children":[1,3,5,7,-1,9,11,13,-1,15,17,-1,-1,19,-1,21,23,-1,-1,-1,-1,-1,25,-1,-1,-1,-1],"loss_changes":[5.1073486E1,2.7863235E0,2.3866013E1,1.1066532E0,0E0,1.7180283E1,1.9700823E0,2.4326706E-1,0E0,3.454132E0,6.3982487E-1,0E0,0E0,1.0069275E-1,0E0,1.3943939E0,1.4579492E0,0E0,0E0,0E0,0E0,0E0,1.0969696E0,0E0,0E0,0E0,0E0],"parents":[2147483647,0,0,1,1,2,2,3,3,5,5,6,6,7,7,9,9,10,10,13,13,15,15,16,16,22,22],"right_children":[2,4,6,8,-1,10,12,14,-1,16,18,-1,-1,20,-1,22,24,-1,-1,-1,-1,-1,26,-1,-1,-1,-1],"split_conditions":[-1.6012192E0,4.181222E0,3.342042E0,-7.900503E-1,-1.2630923E-1,1.9355168E0,1.816802E-1,3.4854538E0,-2.8682807E-2,4.5724897E0,-4.95016E-1,2.3404576E-1,-5.3344972E-2,2.6993985E0,5.76944E-2,-2.0424771E0,6.6307825E-1,2.3105189E-1,3.989622E-3,2.4376833E-1,1.0097249E-1,7.117619E-2,5.7346916E0,-1.0588581E-1,2.3339783E-1,-1.8284856E-1,-3.7838645E-2],"split_indices":[17,13,9,12,0,7,3,8,0,6,3,0,0,14,0,16,7,0,0,0,0,0,2,0,0,0,0],"split_type":[0,0,0,0,0,0,0,0,0,0,0,0,0,0,0,0,0,0,0,0,0,0,0,0,0,0,0],"sum_hessian":[4.9296188E2,3.7883713E1,4.5507816E2,3.6301144E1,1.5825688E0,4.3902188E2,1.6056295E1,3.497623E1,1.3249139E0,4.2897702E2,1.0044835E1,1.3934055E1,2.12224E0,3.3506268E1,1.4699616E0,4.2594177E2,3.0352478E0,8.743203E0,1.3016318E0,3.1059948E1,2.4463217E0,1.4943817E0,4.244474E2,1.1246508E0,1.910597E0,4.1910156E2,5.3458366E0],"tree_param":{"num_deleted":"0","num_feature":"21","num_nodes":"27","size_leaf_vector":"1"}},{"base_weights":[4.8108217E-1,-2.5244603E-1,5.5091435E-1,2.582082E-1,-4.22757E-1,-3.7824622E-1,5.908248E-1,-1.4719906E-1,5.001871E-1,-4.8914444E-1,1.3654844E-1,-5.1880336E-1,4.466265E-1,4.2260352E-1,6.702001E-1,6.4444786E-1,-1.041323E-1,-9.199992E-2,-5.242724E-1,-1.6419704E-3,-1.6931441E-1,5.173461E-2,1.6083539E-1,5.8872014E-1,1.2344671E-1,6.764448E-1,-9.268732E-2,2.120087E-1,2.7677836E-2,1.0608142E-1,-1.2058748E-1,-5.449956E-1,1.593102E-2,6.510076E-1,-2.8551431E-2,3.089446E-1,-4.929579E-1,2.8152874E-1,6.8472457E-1,1.3142844E-1,-1.7165099E-1,-1.7003211E-1,-4.653707E-2,1.9958994E-1,4.0181503E-3,1.7873651E-1,-1.3778187E-1,1.1062039E-1,-1.5415366E-1,-3.2638438E-2,-1.8161872E-1,1.6204926E-1,-6.409625E-2,2.0614819E-1,-1.2981848E-2],"categories":[],"categories_nodes":[],"categories_segments":[],"categories_sizes":[],"default_left":[0,0,0,0,0,0,0,0,0,0,0,0,0,0,0,0,0,0,0,0,0,0,0,0,0,0,0,0,0,0,0,0,0,0,0,0,0,0,0,0,0,0,0,0,0,0,0,0,0,0,0,0,0,0,0],"id":9,"left_children":[1,3,5,7,9,11,13,-1,15,17,-1,19,21,23,25,27,-1,29,31,-1,-1,-1,-1,33,35,37,39,-1,-1,-1,-1,41,-1,43,45,47,49,51,53,-1,-1,-1,-1,-1,-1,-1,-1,-1,-1,-1,-1,-1,-1,-1,-1],"loss_changes":[3.0796753E1,4.6934166E0,2.050035E1,2.7468462E0,2.548523E0,2.9133198E0,6.722397E0,0E0,1.5594382E0,4.7608757E-1,0E0,4.7008753E-1,3.355682E-3,8.420454E0,1.7527771E0,2.6780653E-1,0E0,7.314843E-1,4.39538E-1,0E0,0E0,0E0,0E0,4.2333603E0,7.2739267E0,9.582062E-1,1.2075447E0,0E0,0E0,0E0,0E0,1.9410706E-1,0E0,8.9888E-1,3.2332625E0,2.5749612E0,5.731065E-1,1.2586627E0,6.399231E-1,0E0,0E0,0E0,0E0,0E0,0E0,0E0,0E0,0E0,0E0,0E0,0E0,0E0,0E0,0E0,0E0],"parents":[2147483647,0,0,1,1,2,2,3,3,4,4,5,5,6,6,8,8,9,9,11,11,12,12,13,13,14,14,15,15,17,17,18,18,23,23,24,24,25,25,26,26,31,31,33,33,34,34,35,35,36,36,37,37,38,38],"right_children":[2,4,6,8,10,12,14,-1,16,18,-1,20,22,24,26,28,-1,30,32,-1,-1,-1,-1,34,36,38,40,-1,-1,-1,-1,42,-1,44,46,48,50,52,54,-1,-1,-1,-1,-1,-1,-1,-1,-1,-1,-1,-1,-1,-1,-1,-1],"split_conditions":[-9.5160705E-1,2.6145816E-1,-1.6642263E0,-1.2762976E0,1.1967245E0,2.770786E0,-5.776105E-1,-1.4719906E-1,1.7041644E0,-5.197374E-1,1.3654844E-1,-2.1166604E0,-1.8043648E0,2.2598723E-1,3.3763523E0,1.1004905E0,-1.041323E-1,-1.2247349E0,-3.2196373E-1,-1.6419704E-3,-1.6931441E-1,5.173461E-2,1.6083539E-1,1.214915E0,7.787545E-1,-8.378362E-1,-1.2772168E-1,2.120087E-1,2.7677836E-2,1.0608142E-1,-1.2058748E-1,2.1090312E0,1.593102E-2,2.9567537E0,-1.1877415E0,2.8379464E0,7.9888254E-1,-4.7910798E-1,5.111168E0,1.3142844E-1,-1.7165099E-1,-1.7003211E-1,-4.653707E-2,1.9958994E-1,4.0181503E-3,1.7873651E-1,-1.3778187E-1,1.1062039E-1,-1.5415366E-1,-3.2638438E-2,-1.8161872E-1,1.6204926E-1,-6.409625E-2,2.0614819E-1,-1.2981848E-2],"split_indices":[8,9,17,11,3,13,1,0,7,20,0,0,16,17,14,0,0,11,1,0,0,0,0,19,7,8,2,0,0,0,0,7,0,6,7,9,0,19,19,0,0,0,0,0,0,0,0,0,0,0,0,0,0,0,0],"split_type":[0,0,0,0,0,0,0,0,0,0,0,0,0,0,0,0,0,0,0,0,0,0,0,0,0,0,0,0,0,0,0,0,0,0,0,0,0,0,0,0,0,0,0,0,0,0,0,0,0,0,0,0,0,0,0],"sum_hessian":[5.97504E2,5.171078E1,5.457933E2,1.2803909E1,3.890687E1,2.2128935E1,5.236643E2,2.8759043E0,9.928005E0,3.658331E1,2.3235624E0,1.9224209E1,2.9047267E0,1.6990547E2,3.5375885E2,8.688161E0,1.2398443E0,3.2669766E0,3.331633E1,1.6590424E0,1.7565166E1,1.4350629E0,1.4696639E0,1.0862175E2,6.1283722E1,3.5099902E2,2.7598307E0,7.5565124E0,1.1316483E0,1.2824614E0,1.9845153E0,3.221611E1,1.1002195E0,9.861598E1,1.0005768E1,4.7490845E1,1.3792876E1,7.9266634E0,3.4307236E2,1.3508132E0,1.4090176E0,3.0081997E1,2.134114E0,9.641149E1,2.2044892E0,3.928333E0,6.077435E0,4.4788063E1,2.7027826E0,3.5684066E0,1.0224469E1,5.14735E0,2.7793136E0,3.419841E2,1.0882717E0],"tree_param":{"num_deleted":"0","num_feature":"21","num_nodes":"55","size_leaf_vector":"1"}},{"base_weights":[-2.9632705E-1,1.4165781E-1,-4.685714E-1,-1.9441609E-1,3.0236778E-1,-5.2926093E-1,-1.8426459E-1,-3.4269756E-1,2.526584E-1,-3.8587477E-2,4.1152212E-1,-5.3910965E-1,1.1811091E-1,-3.8387018E-1,5.5063295E-1,-1.7099012E-1,-4.992569E-1,5.001183E-1,-1.2967126E-1,-3.4806213E-1,2.8229496E-1,4.9451128E-1,-3.1185555E-1,-5.5732757E-1,-1.498638E-1,1.8936305E-1,-1.1891509E-1,-5.075145E-1,-1.5395684E-2,-1.10520974E-1,7.088669E-1,-1.548815E-1,8.1489936E-2,-1.6729294E-1,4.949683E-2,-5.8788683E-2,7.3312765E-1,4.2383004E-2,-4.581389E-1,4.1295946E-1,-1.2075961E-1,-9.867165E-2,5.864383E-1,-1.4640445E-1,3.1317826E-2,-5.686951E-1,1.1358644E-1,2.8402668E-1,-1.6245513E-1,-5.5487E-1,-5.5628553E-2,-4.0839288E-1,6.4310193E-1,7.9493827E-1,4.4069964E-2,-1.4853488E-1,8.087725E-2,2.4973725E-1,4.563776E-2,-1.6441485E-1,3.9333127E-2,2.2648494E-1,1.4715417E-2,1.4053862E-1,-9.7628124E-2,1.9220115E-1,-1.229017E-1,-1.7258249E-1,7.6795414E-2,2.1014316E-1,-1.23864114E-1,-1.7466624E-1,2.0179888E-2,8.708926E-2,-1.13002084E-1,-1.5367436E-1,5.230404E-2,2.6097548E-1,3.130998E-2,2.622441E-1,8.003058E-2],"categories":[],"categories_nodes":[],"categories_segments":[],"categories_sizes":[],"default_left":[0,0,0,0,0,0,0,0,0,0,0,0,0,0,0,0,0,0,0,0,0,0,0,0,0,0,0,0,0,0,0,0,0,0,0,0,0,0,0,0,0,0,0,0,0,0,0,0,0,0,0,0,0,0,0,0,0,0,0,0,0,0,0,0,0,0,0,0,0,0,0,0,0,0,0,0,0,0,0,0,0],"id":10,"left_children":[1,3,5,7,9,11,13,15,17,19,21,23,25,27,29,31,33,35,-1,37,39,41,43,45,47,-1,-1,49,51,-1,53,-1,55,-1,-1,-1,57,-1,59,61,-1,63,65,-1,-1,67,69,-1,-1,71,73,75,77,79,-1,-1,-1,-1,-1,-1,-1,-1,-1,-1,-1,-1,-1,-1,-1,-1,-1,-1,-1,-1,-1,-1,-1,-1,-1,-1,-1],"loss_changes":[3.279972E1,6.7150455E0,5.2799454E0,2.7699203E0,3.1332774E0,1.6977692E0,8.478611E0,7.431481E-1,2.0223572E0,2.2062418E0,3.9684381E0,1.7079926E0,1.4806433E0,2.0382738E0,2.071477E0,1.4560587E0,6.9702554E-1,1.4885805E0,0E0,6.708983E-1,1.1481913E0,3.1869726E0,5.7538813E-1,1.9024124E0,5.9515123E0,0E0,0E0,6.880455E-1,3.4495728E0,0E0,4.134574E-1,0E0,1.2433097E0,0E0,0E0,0E0,2.4406052E-1,0E0,5.710665E-1,1.1712936E0,0E0,1.2527106E0,2.9542408E0,0E0,0E0,1.4339523E0,1.7872685E0,0E0,0E0,5.546951E-1,5.8668405E-1,5.930675E-1,5.1908994E-1,1.5502024E-1,0E0,0E0,0E0,0E0,0E0,0E0,0E0,0E0,0E0,0E0,0E0,0E0,0E0,0E0,0E0,0E0,0E0,0E0,0E0,0E0,0E0,0E0,0E0,0E0,0E0,0E0,0E0],"parents":[2147483647,0,0,1,1,2,2,3,3,4,4,5,5,6,6,7,7,8,8,9,9,10,10,11,11,12,12,13,13,14,14,15,15,16,16,17,17,19,19,20,20,21,21,22,22,23,23,24,24,27,27,28,28,30,30,32,32,36,36,38,38,39,39,41,41,42,42,45,45,46,46,49,49,50,50,51,51,52,52,53,53],"right_children":[2,4,6,8,10,12,14,16,18,20,22,24,26,28,30,32,34,36,-1,38,40,42,44,46,48,-1,-1,50,52,-1,54,-1,56,-1,-1,-1,58,-1,60,62,-1,64,66,-1,-1,68,70,-1,-1,72,74,76,78,80,-1,-1,-1,-1,-1,-1,-1,-1,-1,-1,-1,-1,-1,-1,-1,-1,-1,-1,-1,-1,-1,-1,-1,-1,-1,-1,-1],"split_conditions":[-7.240654E-1,3.967387E-1,-7.460553E-2,-5.286387E-1,7.2091633E-1,7.4296074E0,1.345491E0,-9.5160705E-1,-5.776105E-1,1.6088471E0,1.8776786E0,1.4231224E0,4.4497654E-1,2.2723559E-1,-2.0647709E-1,-5.127246E-1,4.577021E-1,-3.4689328E-1,-1.2967126E-1,2.003733E-1,2.0818691E0,-1.3061614E-1,9.614274E-1,3.4854538E0,-3.2196373E-1,1.8936305E-1,-1.1891509E-1,6.685373E-1,8.560584E-1,-1.10520974E-1,2.6188693E0,-1.548815E-1,4.600793E-1,-1.6729294E-1,4.949683E-2,-5.8788683E-2,1.1576279E0,4.2383004E-2,4.5767125E-1,5.200283E-1,-1.2075961E-1,1.1257832E0,3.342042E0,-1.4640445E-1,3.1317826E-2,1.5074853E0,-5.776105E-1,2.8402668E-1,-1.6245513E-1,2.893957E0,3.8550723E-2,7.6555365E-1,1.6031703E0,8.26251E-1,4.4069964E-2,-1.4853488E-1,8.087725E-2,2.4973725E-1,4.563776E-2,-1.6441485E-1,3.9333127E-2,2.2648494E-1,1.4715417E-2,1.4053862E-1,-9.7628124E-2,1.9220115E-1,-1.229017E-1,-1.7258249E-1,7.6795414E-2,2.1014316E-1,-1.23864114E-1,-1.7466624E-1,2.0179888E-2,8.708926E-2,-1.13002084E-1,-1.5367436E-1,5.230404E-2,2.6097548E-1,3.130998E-2,2.622441E-1,8.003058E-2],"split_indices":[8,0,9,11,7,2,14,8,1,12,7,17,1,10,0,10,16,14,0,7,12,9,18,8,1,0,0,14,17,0,15,0,12,0,0,0,9,0,13,3,0,7,9,0,0,12,1,0,0,9,11,9,0,10,0,0,0,0,0,0,0,0,0,0,0,0,0,0,0,0,0,0,0,0,0,0,0,0,0,0,0],"split_type":[0,0,0,0,0,0,0,0,0,0,0,0,0,0,0,0,0,0,0,0,0,0,0,0,0,0,0,0,0,0,0,0,0,0,0,0,0,0,0,0,0,0,0,0,0,0,0,0,0,0,0,0,0,0,0,0,0,0,0,0,0,0,0,0,0,0,0,0,0,0,0,0,0,0,0,0,0,0,0,0,0],"sum_hessian":[4.328967E2,1.22240295E2,3.106564E2,3.947698E1,8.276332E1,2.5529771E2,5.5358704E1,2.9820019E1,9.656958E0,2.022739E1,6.2535927E1,2.5163672E2,3.6609983E0,4.3909966E1,1.1448735E1,1.521979E1,1.4600229E1,7.292053E0,2.3649046E0,1.0253609E1,9.973782E0,5.6383717E1,6.1522107E0,2.3997339E2,1.16633215E1,1.7194031E0,1.9415952E0,3.2595104E1,1.1314862E1,1.4865433E0,9.962192E0,5.987173E0,9.232617E0,1.3568102E1,1.0321269E0,1.8686711E0,5.4233823E0,1.8309243E0,8.422685E0,8.709083E0,1.2646995E0,7.5556374E0,4.882808E1,4.201636E0,1.950575E0,2.3612498E2,3.8484123E0,2.696331E0,8.96699E0,2.9297014E1,3.2980902E0,7.323778E0,3.9910843E0,8.279528E0,1.6826642E0,1.869537E0,7.3630805E0,4.2619495E0,1.1614326E0,7.3683105E0,1.054374E0,3.9357843E0,4.7732983E0,1.8536278E0,5.7020097E0,4.664535E1,2.1827285E0,2.3455598E2,1.5690012E0,1.6634827E0,2.1849296E0,2.8124735E1,1.1722795E0,1.6336286E0,1.6644616E0,6.3186445E0,1.0051333E0,2.376006E0,1.6150786E0,6.6301637E0,1.6493635E0],"tree_param":{"num_deleted":"0","num_feature":"21","num_nodes":"81","size_leaf_vector":"1"}},{"base_weights":[-3.905213E-1,5.741133E-1,-4.7965044E-1,-5.1769882E-2,6.6551983E-1,-5.231761E-1,5.6024903E-1,-1.5901798E-1,1.4358786E-1,2.139244E-1,1.14182726E-1,-5.540418E-1,5.7689E-1,2.0280062E-1,-4.2665936E-2,-6.309512E-2,1.2026391E-1,1.2022648E-1,-5.618954E-1,1.99585E-1,-3.0388446E-3,-5.7243663E-1,-1.2735336E-1,-1.725748E-1,-1.8498237E-3,3.8771853E-2,-1.5389386E-1],"categories":[],"categories_nodes":[],"categories_segments":[],"categories_sizes":[],"default_left":[0,0,0,0,0,0,0,0,0,0,0,0,0,0,0,0,0,0,0,0,0,0,0,0,0,0,0],"id":11,"left_children":[1,3,5,7,9,11,13,-1,-1,-1,15,17,19,-1,-1,-1,-1,-1,21,-1,-1,23,25,-1,-1,-1,-1],"loss_changes":[3.5358776E1,2.0350351E0,1.7225098E1,1.619547E0,7.205944E-1,1.252874E1,1.3574228E0,0E0,0E0,0E0,4.2105174E-1,2.851715E0,5.4137444E-1,0E0,0E0,0E0,0E0,0E0,1.5203781E0,0E0,0E0,5.3687286E-1,1.0086946E0,0E0,0E0,0E0,0E0],"parents":[2147483647,0,0,1,1,2,2,3,3,4,4,5,5,6,6,10,10,11,11,12,12,18,18,21,21,22,22],"right_children":[2,4,6,8,10,12,14,-1,-1,-1,16,18,20,-1,-1,-1,-1,-1,22,-1,-1,24,26,-1,-1,-1,-1],"split_conditions":[-1.6012192E0,-1.9155885E0,3.342042E0,1.4004217E0,3.7772822E0,1.9355168E0,1.816802E-1,-1.5901798E-1,1.4358786E-1,2.139244E-1,-3.0701306E-1,-2.0424771E0,-4.95016E-1,2.0280062E-1,-4.2665936E-2,-6.309512E-2,1.2026391E-1,1.2022648E-1,2.9567537E0,1.99585E-1,-3.0388446E-3,3.7772822E0,-6.5611243E-1,-1.725748E-1,-1.8498237E-3,3.8771853E-2,-1.5389386E-1],"split_indices":[17,0,9,4,4,7,3,0,0,0,0,16,3,0,0,0,0,0,6,0,0,4,17,0,0,0,0],"split_type":[0,0,0,0,0,0,0,0,0,0,0,0,0,0,0,0,0,0,0,0,0,0,0,0,0,0,0],"sum_hessian":[4.0705536E2,3.3969204E1,3.7308615E2,4.384064E0,2.958514E1,3.585747E2,1.4511465E1,2.3055997E0,2.0784645E0,2.696557E1,2.6195705E0,3.4927118E2,9.303524E0,1.249089E1,2.020576E0,1.3537421E0,1.2658285E0,2.4412951E0,3.4682986E2,7.970068E0,1.3334559E0,3.383058E2,8.524081E0,3.3661795E2,1.6878585E0,5.5175805E0,3.0065005E0],"tree_param":{"num_deleted":"0","num_feature":"21","num_nodes":"27","size_leaf_vector":"1"}},{"base_weights":[4.215931E-1,5.386138E-1,7.288858E-2,-3.0766764E-1,5.5270594E-1,-2.7919495E-1,2.8254205E-1,-1.648655E-1,1.2835564E-1,5.605041E-1,-1.4188291E-1,-4.7735727E-1,4.3492538E-1,-4.6689034E-1,3.9200595E-1,6.032481E-1,3.8375E-1,-1.8434967E-1,-5.4693854E-1,1.8238427E-1,-1.1040165E-1,-2.3237247E-2,-1.5483898E-1,4.8948622E-1,-3.0753365E-1,6.157407E-1,1.1106413E-1,4.860305E-2,6.126571E-1,-1.5685531E-1,1.08352646E-1,-1.6933155E-1,-2.6727816E-1,5.9159327E-1,2.5500044E-1,-1.6290607E-1,1.8492743E-1,1.861347E-1,-6.42181E-2,-1.8525398E-1,1.3380982E-1,-1.2255617E-1,1.1771972E-1,-3.3417117E-2,1.9157131E-1,-1.2882528E-1,1.1220321E-1,1.0084254E-2,-1.2468768E-1,1.8782769E-1,-5.663678E-3,-3.8067862E-2,1.528637E-1],"categories":[],"categories_nodes":[],"categories_segments":[],"categories_sizes":[],"default_left":[0,0,0,0,0,0,0,0,0,0,0,0,0,0,0,0,0,0,0,0,0,0,0,0,0,0,0,0,0,0,0,0,0,0,0,0,0,0,0,0,0,0,0,0,0,0,0,0,0,0,0,0,0],"id":12,"left_children":[1,3,5,7,9,11,13,-1,-1,15,-1,17,19,21,23,25,27,29,31,-1,-1,-1,-1,33,35,37,39,41,43,-1,45,-1,47,49,51,-1,-1,-1,-1,-1,-1,-1,-1,-1,-1,-1,-1,-1,-1,-1,-1,-1,-1],"loss_changes":[2.0876091E1,4.7450256E0,9.670859E0,1.4672773E0,3.285881E0,7.1419153E0,6.9053335E0,0E0,0E0,2.6039581E0,0E0,6.909218E-1,1.7751272E0,1.6903257E-1,5.0632887E0,1.7790604E0,5.787861E0,9.4448924E-1,2.3460388E-4,0E0,0E0,0E0,0E0,1.3723316E0,2.385534E0,1.2767792E0,2.388341E0,5.1674347E0,9.149208E-1,0E0,9.654722E-1,0E0,1.7991227E-1,9.292612E-1,2.1115398E0,0E0,0E0,0E0,0E0,0E0,0E0,0E0,0E0,0E0,0E0,0E0,0E0,0E0,0E0,0E0,0E0,0E0,0E0],"parents":[2147483647,0,0,1,1,2,2,3,3,4,4,5,5,6,6,9,9,11,11,12,12,13,13,14,14,15,15,16,16,17,17,18,18,23,23,24,24,25,25,26,26,27,27,28,28,30,30,32,32,33,33,34,34],"right_children":[2,4,6,8,10,12,14,-1,-1,16,-1,18,20,22,24,26,28,30,32,-1,-1,-1,-1,34,36,38,40,42,44,-1,46,-1,48,50,52,-1,-1,-1,-1,-1,-1,-1,-1,-1,-1,-1,-1,-1,-1,-1,-1,-1,-1],"split_conditions":[7.787545E-1,-1.5382121E0,-4.95016E-1,-7.900503E-1,2.8379464E0,-6.631697E-2,-2.105276E0,-1.648655E-1,1.2835564E-1,9.614274E-1,-1.4188291E-1,-1.3061614E-1,2.9567537E0,-2.1166604E0,1.1004905E0,2.0856385E0,-6.631697E-2,-3.9910895E-1,1.0440229E0,1.8238427E-1,-1.1040165E-1,-2.3237247E-2,-1.5483898E-1,-1.8662676E-1,-5.776105E-1,1.4020983E0,-6.631697E-2,1.3015624E0,-1.0958282E0,-1.5685531E-1,-1.1989535E0,-1.6933155E-1,-6.1029464E-1,2.9567537E0,1.1257832E0,-1.6290607E-1,1.8492743E-1,1.861347E-1,-6.42181E-2,-1.8525398E-1,1.3380982E-1,-1.2255617E-1,1.1771972E-1,-3.3417117E-2,1.9157131E-1,-1.2882528E-1,1.1220321E-1,1.0084254E-2,-1.2468768E-1,1.8782769E-1,-5.663678E-3,-3.8067862E-2,1.528637E-1],"split_indices":[7,17,3,12,9,1,17,0,0,18,0,9,6,0,0,2,1,18,11,0,0,0,0,9,1,0,1,0,11,0,11,0,8,6,7,0,0,0,0,0,0,0,0,0,0,0,0,0,0,0,0,0,0],"split_type":[0,0,0,0,0,0,0,0,0,0,0,0,0,0,0,0,0,0,0,0,0,0,0,0,0,0,0,0,0,0,0,0,0,0,0,0,0,0,0,0,0,0,0,0,0,0,0,0,0,0,0,0,0],"sum_hessian":[5.1156018E2,3.82615E2,1.289452E2,5.9256773E0,3.766893E2,4.800159E1,8.094362E1,4.649482E0,1.2761954E0,3.74297E2,2.3923109E0,3.7834408E1,1.0167183E1,9.899888E0,7.1043724E1,2.9946506E2,7.483193E1,7.960796E0,2.9873611E1,8.564478E0,1.602705E0,1.4000505E0,8.499838E0,6.2618206E1,8.425521E0,2.918074E2,7.657672E0,3.0860643E1,4.3971287E1,3.3269682E0,4.6338277E0,2.7156004E1,2.717608E0,4.256172E1,2.0056484E1,7.0428257E0,1.382695E0,2.904119E2,1.395479E0,2.1461556E0,5.5115166E0,1.3166167E1,1.7694477E1,1.405392E0,4.2565895E1,1.3283751E0,3.3054526E0,1.1527996E0,1.5648084E0,4.026091E1,2.3008108E0,8.222215E0,1.183427E1],"tree_param":{"num_deleted":"0","num_feature":"21","num_nodes":"53","size_leaf_vector":"1"}},{"base_weights":[-2.628829E-1,1.2233163E-1,-4.2758304E-1,-1.6857763E-1,2.594988E-1,-4.9685144E-1,-1.4742683E-1,-3.197698E-1,2.5579476E-1,2.9711172E-1,-1.3390678E-1,-5.2431077E-1,-1.712981E-1,-3.7246075E-1,3.5315582E-1,-4.8420125E-1,-1.8599445E-1,4.679033E-1,-1.17696695E-1,-2.0861035E-2,4.1121408E-1,-5.380062E-1,1.619874E-1,8.2281774E-1,-1.5952069E-1,-4.8730564E-1,-1.86535E-3,-1.2691374E-1,5.2988046E-1,1.1719485E-3,-1.654515E-1,-1.5220964E-1,7.481677E-2,-5.314367E-2,6.771045E-1,-3.4787625E-1,2.2443064E-1,4.5996454E-1,-1.2280479E-1,-5.5178356E-1,1.4326595E-1,1.7408662E-1,-1.0691444E-1,7.08283E-2,2.891576E-1,-5.137691E-1,2.0061068E-2,-1.4494058E-1,4.0091887E-1,7.2737694E-1,1.0006558E-1,-4.1941408E-2,1.2590829E-1,2.2948869E-1,3.8793147E-2,2.296709E-2,-1.5113482E-1,-5.1928837E-2,1.3799906E-1,-6.211717E-3,1.6345921E-1,-1.6861492E-1,-4.833441E-2,1.687044E-1,-1.0741086E-1,-1.6357055E-1,-7.855669E-2,2.0497365E-1,-3.5147917E-2,2.3845918E-1,2.9373739E-2,1.5980265E-1,-1.3497002E-1],"categories":[],"categories_nodes":[],"categories_segments":[],"categories_sizes":[],"default_left":[0,0,0,0,0,0,0,0,0,0,0,0,0,0,0,0,0,0,0,0,0,0,0,0,0,0,0,0,0,0,0,0,0,0,0,0,0,0,0,0,0,0,0,0,0,0,0,0,0,0,0,0,0,0,0,0,0,0,0,0,0,0,0,0,0,0,0,0,0,0,0,0,0],"id":13,"left_children":[1,3,5,7,9,11,13,15,17,19,-1,21,23,25,27,29,31,33,-1,35,37,39,41,43,-1,45,47,-1,49,-1,-1,-1,51,-1,53,55,57,59,-1,61,63,-1,-1,-1,-1,65,-1,-1,67,69,71,-1,-1,-1,-1,-1,-1,-1,-1,-1,-1,-1,-1,-1,-1,-1,-1,-1,-1,-1,-1,-1,-1],"loss_changes":[2.3012014E1,4.399675E0,4.850479E0,2.364977E0,2.1125965E0,1.7249298E0,5.9575443E0,4.9685264E-1,1.5449672E0,2.599255E0,0E0,1.8422356E0,6.6277914E0,1.5383506E0,2.4947634E0,3.7487578E-1,1.4071935E0,1.1883558E0,0E0,1.6669835E0,2.292303E0,1.7995758E0,1.1656303E0,1.8533587E-1,0E0,4.3920946E-1,2.0468729E0,0E0,1.1094236E0,0E0,0E0,0E0,7.9064924E-1,0E0,1.9879317E-1,6.263095E-1,1.1964495E0,2.056528E0,0E0,6.3088226E-1,1.1314751E0,0E0,0E0,0E0,0E0,6.6991806E-2,0E0,0E0,9.2120814E-1,3.2075882E-1,1.5587089E0,0E0,0E0,0E0,0E0,0E0,0E0,0E0,0E0,0E0,0E0,0E0,0E0,0E0,0E0,0E0,0E0,0E0,0E0,0E0,0E0,0E0,0E0],"parents":[2147483647,0,0,1,1,2,2,3,3,4,4,5,5,6,6,7,7,8,8,9,9,11,11,12,12,13,13,14,14,15,15,16,16,17,17,19,19,20,20,21,21,22,22,23,23,25,25,26,26,28,28,32,32,34,34,35,35,36,36,37,37,39,39,40,40,45,45,48,48,49,49,50,50],"right_children":[2,4,6,8,10,12,14,16,18,20,-1,22,24,26,28,30,32,34,-1,36,38,40,42,44,-1,46,48,-1,50,-1,-1,-1,52,-1,54,56,58,60,-1,62,64,-1,-1,-1,-1,66,-1,-1,68,70,72,-1,-1,-1,-1,-1,-1,-1,-1,-1,-1,-1,-1,-1,-1,-1,-1,-1,-1,-1,-1,-1,-1],"split_conditions":[-7.240654E-1,3.967387E-1,-1.3061614E-1,-5.286387E-1,1.9355168E0,1.234101E0,6.685373E-1,2.6145816E-1,-5.776105E-1,7.2091633E-1,-1.3390678E-1,3.4854538E0,-3.2196373E-1,8.560584E-1,-1.05941124E-1,-1.2762976E0,-4.9510646E-1,-3.4689328E-1,-1.17696695E-1,1.5412725E0,3.342042E0,7.4296074E0,-5.776105E-1,-5.468689E-1,-1.5952069E-1,2.8379464E0,-1.6036259E-1,-1.2691374E-1,-5.776105E-1,1.1719485E-3,-1.654515E-1,-1.5220964E-1,-1.2772168E-1,-5.314367E-2,1.1576279E0,9.1906554E-1,-1.3536415E0,-1.3061614E-1,-1.2280479E-1,2.6993985E0,4.4497654E-1,1.7408662E-1,-1.0691444E-1,7.08283E-2,2.891576E-1,4.9150708E-1,2.0061068E-2,-1.4494058E-1,-5.776105E-1,8.26251E-1,1.0724893E0,-4.1941408E-2,1.2590829E-1,2.2948869E-1,3.8793147E-2,2.296709E-2,-1.5113482E-1,-5.1928837E-2,1.3799906E-1,-6.211717E-3,1.6345921E-1,-1.6861492E-1,-4.833441E-2,1.687044E-1,-1.0741086E-1,-1.6357055E-1,-7.855669E-2,2.0497365E-1,-3.5147917E-2,2.3845918E-1,2.9373739E-2,1.5980265E-1,-1.3497002E-1],"split_indices":[8,0,9,11,7,17,14,9,1,7,0,8,1,17,0,11,10,14,0,12,9,2,1,19,0,9,10,0,1,0,0,0,2,0,9,17,11,9,0,14,1,0,0,0,0,10,0,0,1,10,15,0,0,0,0,0,0,0,0,0,0,0,0,0,0,0,0,0,0,0,0,0,0],"split_type":[0,0,0,0,0,0,0,0,0,0,0,0,0,0,0,0,0,0,0,0,0,0,0,0,0,0,0,0,0,0,0,0,0,0,0,0,0,0,0,0,0,0,0,0,0,0,0,0,0,0,0,0,0,0,0,0,0,0,0,0,0,0,0,0,0,0,0,0,0,0,0,0,0],"sum_hessian":[3.6088437E2,1.0816238E2,2.5272198E2,3.4584755E1,7.357762E1,2.0200331E2,5.0718662E1,2.5681599E1,8.903156E0,7.040502E1,3.1725984E0,1.8572734E2,1.6275976E1,3.5165962E1,1.5552702E1,1.0345635E1,1.5335964E1,6.917373E0,1.985783E0,1.8808353E1,5.1596672E1,1.823054E2,3.4219291E0,3.9895751E0,1.2286402E1,2.6606018E1,8.559942E0,2.6258323E0,1.2926869E1,1.3678097E0,8.977825E0,6.446843E0,8.889121E0,1.7315521E0,5.185821E0,7.882044E0,1.0926311E1,4.9117977E1,2.4786932E0,1.7887802E2,3.4273815E0,1.8276461E0,1.594283E0,1.291391E0,2.6981843E0,2.5463001E1,1.1430168E0,3.8091087E0,4.750833E0,8.382757E0,4.5441117E0,5.8458204E0,3.0433004E0,4.127407E0,1.0584141E0,2.2542157E0,5.627828E0,4.164222E0,6.7620883E0,7.486759E0,4.1631218E1,1.7387029E2,5.00774E0,1.8004522E0,1.6269294E0,2.1600542E1,3.8624604E0,2.8687193E0,1.8821138E0,7.333722E0,1.0490355E0,2.5610201E0,1.9830917E0],"tree_param":{"num_deleted":"0","num_feature":"21","num_nodes":"73","size_leaf_vector":"1"}},{"base_weights":[-3.6441925E-1,4.84102E-1,-4.5232856E-1,-1.1834586E-1,5.918514E-1,-4.9763003E-1,4.719177E-1,-1.5287343E-1,1.3038781E-1,6.305765E-1,-2.9410357E-2,-5.3098273E-1,4.7692958E-1,2.0153227E-1,-1.3430706E-1,1.9772251E-1,2.1048818E-2,-5.405458E-1,2.898246E-1,1.760783E-1,-1.7388677E-2,-5.486904E-1,-2.6511697E-2,-3.398393E-2,1.7083327E-1,5.630005E-2,-1.6603829E-1,1.8841183E-1,-1.3283567E-1],"categories":[],"categories_nodes":[],"categories_segments":[],"categories_sizes":[],"default_left":[0,0,0,0,0,0,0,0,0,0,0,0,0,0,0,0,0,0,0,0,0,0,0,0,0,0,0,0,0],"id":14,"left_children":[1,3,5,7,9,11,13,-1,-1,15,-1,17,19,-1,-1,-1,-1,21,23,-1,-1,25,27,-1,-1,-1,-1,-1,-1],"loss_changes":[2.4977985E1,2.1240883E0,1.2849289E1,1.4403677E0,7.833805E-1,9.604332E0,2.9822931E0,0E0,0E0,3.64336E-1,0E0,2.3438492E0,6.2513685E-1,0E0,0E0,0E0,0E0,1.1400299E0,4.9958915E-1,0E0,0E0,1.0573502E0,1.7364141E0,0E0,0E0,0E0,0E0,0E0,0E0],"parents":[2147483647,0,0,1,1,2,2,3,3,4,4,5,5,6,6,9,9,11,11,12,12,17,17,18,18,21,21,22,22],"right_children":[2,4,6,8,10,12,14,-1,-1,16,-1,18,20,-1,-1,-1,-1,22,24,-1,-1,26,28,-1,-1,-1,-1,-1,-1],"split_conditions":[-1.5382121E0,-1.9155885E0,1.8776786E0,1.4004217E0,-9.433235E-1,3.342042E0,-1.566679E-1,-1.5287343E-1,1.3038781E-1,3.4854538E0,-2.9410357E-2,4.5724897E0,1.816802E-1,2.0153227E-1,-1.3430706E-1,1.9772251E-1,2.1048818E-2,5.7346916E0,8.365926E-1,1.760783E-1,-1.7388677E-2,-2.0424771E0,7.270086E0,-3.398393E-2,1.7083327E-1,5.630005E-2,-1.6603829E-1,1.8841183E-1,-1.3283567E-1],"split_indices":[17,0,7,4,18,9,3,0,0,8,0,6,3,0,0,0,0,2,7,0,0,16,2,0,0,0,0,0,0],"split_type":[0,0,0,0,0,0,0,0,0,0,0,0,0,0,0,0,0,0,0,0,0,0,0,0,0,0,0,0,0],"sum_hessian":[3.3092163E2,3.0642859E1,3.0027878E2,4.634139E0,2.6008718E1,2.8668848E2,1.3590305E1,2.7599359E0,1.8742034E0,2.4707777E1,1.3009424E0,2.7764178E2,9.04668E0,1.1385432E1,2.2048736E0,2.3344591E1,1.3631847E0,2.747818E2,2.859993E0,7.4229097E0,1.6237711E0,2.704296E2,4.3522E0,1.4149936E0,1.4449995E0,1.493948E0,2.6893567E2,1.4941204E0,2.8580797E0],"tree_param":{"num_deleted":"0","num_feature":"21","num_nodes":"29","size_leaf_vector":"1"}},{"base_weights":[3.7773243E-1,1.4906994E-1,5.2891713E-1,3.422538E-1,-9.69494E-2,-1.3273261E-1,5.4359186E-1,4.3602324E-1,-2.0660918E-2,-3.7572354E-1,2.2050132E-1,3.9756557E-1,5.921707E-1,5.0537175E-1,-2.5642115E-1,-5.7343084E-1,3.322323E-1,-1.630811E-1,-5.050088E-1,-1.4198536E-1,3.5256025E-1,4.8639348E-1,-2.766384E-1,5.96393E-1,-9.725861E-3,5.3958744E-1,-8.072553E-2,5.57173E-2,-4.4911984E-1,8.533505E-3,-2.0636038E-1,-1.1051607E-1,5.914493E-1,-1.689711E-1,7.517387E-2,-1.6132776E-1,-2.768222E-2,5.1334494E-1,-1.4768855E-1,5.199601E-1,-8.0671415E-2,2.2026002E-1,-5.8522516E-1,7.821768E-2,1.806336E-1,-1.148925E-2,1.661848E-1,7.2445616E-2,-1.0751378E-1,-1.903439E-2,-1.5739167E-1,1.4462055E-1,-1.6807686E-1,1.9662929E-1,1.7608713E-2,9.620048E-2,-1.3782814E-1,1.6518874E-1,1.609288E-2,1.696564E-1,6.841218E-2,-2.3221727E-2,1.1466688E-1,-8.477658E-3,-2.2825149E-1,-6.695583E-2,1.0754499E-1],"categories":[],"categories_nodes":[],"categories_segments":[],"categories_sizes":[],"default_left":[0,0,0,0,0,0,0,0,0,0,0,0,0,0,0,0,0,0,0,0,0,0,0,0,0,0,0,0,0,0,0,0,0,0,0,0,0,0,0,0,0,0,0,0,0,0,0,0,0,0,0,0,0,0,0,0,0,0,0,0,0,0,0,0,0,0,0],"id":15,"left_children":[1,3,5,7,9,-1,11,13,15,17,19,21,23,25,27,29,31,33,35,-1,37,39,41,43,-1,45,47,-1,49,-1,-1,51,53,-1,55,-1,-1,57,-1,59,-1,61,63,65,-1,-1,-1,-1,-1,-1,-1,-1,-1,-1,-1,-1,-1,-1,-1,-1,-1,-1,-1,-1,-1,-1,-1],"loss_changes":[1.4733658E1,8.2045765E0,3.9116364E0,3.2938938E0,6.84434E0,0E0,1.5675278E0,3.8152962E0,4.2429814E0,1.0461636E0,3.4976237E0,4.1164055E0,5.1688385E-1,1.4493866E0,7.352444E-1,6.023817E-1,1.5932571E0,1.6629288E0,2.890072E-1,0E0,4.4791927E0,1.6384373E0,1.4134953E0,5.084305E-1,0E0,5.720234E-1,5.103E-1,0E0,1.3042355E-1,0E0,0E0,1.8048153E0,2.5311208E-1,0E0,1.6614153E0,0E0,0E0,4.2686892E-1,0E0,6.2830067E-1,0E0,2.1934758E-1,5.1074076E-1,3.4995386E-1,0E0,0E0,0E0,0E0,0E0,0E0,0E0,0E0,0E0,0E0,0E0,0E0,0E0,0E0,0E0,0E0,0E0,0E0,0E0,0E0,0E0,0E0,0E0],"parents":[2147483647,0,0,1,1,2,2,3,3,4,4,6,6,7,7,8,8,9,9,10,10,11,11,12,12,13,13,14,14,15,15,16,16,17,17,18,18,20,20,21,21,22,22,23,23,25,25,26,26,28,28,31,31,32,32,34,34,37,37,39,39,41,41,42,42,43,43],"right_children":[2,4,6,8,10,-1,12,14,16,18,20,22,24,26,28,30,32,34,36,-1,38,40,42,44,-1,46,48,-1,50,-1,-1,52,54,-1,56,-1,-1,58,-1,60,-1,62,64,66,-1,-1,-1,-1,-1,-1,-1,-1,-1,-1,-1,-1,-1,-1,-1,-1,-1,-1,-1,-1,-1,-1,-1],"split_conditions":[-5.776105E-1,7.787545E-1,-2.6377578E0,9.1906554E-1,1.816802E-1,-1.3273261E-1,-6.631697E-2,1.3410176E0,1.3015624E0,2.6145816E-1,-1.6012192E0,1.1910979E0,3.3763523E0,1.6057129E0,-1.1877415E0,-1.629205E-1,2.5821143E-1,-1.3757867E-1,-7.240654E-1,-1.4198536E-1,5.7675827E-1,1.3150068E-1,1.6298011E-1,-1.1216094E0,-9.725861E-3,-1.5382121E0,-8.881727E-2,5.57173E-2,5.5417746E-1,8.533505E-3,-2.0636038E-1,1.3695883E0,2.7819357E0,-1.689711E-1,6.6703707E-1,-1.6132776E-1,-2.768222E-2,1.0070142E0,-1.4768855E-1,7.2091633E-1,-8.0671415E-2,3.34365E-2,-2.0449351E-1,-4.666798E-1,1.806336E-1,-1.148925E-2,1.661848E-1,7.2445616E-2,-1.0751378E-1,-1.903439E-2,-1.5739167E-1,1.4462055E-1,-1.6807686E-1,1.9662929E-1,1.7608713E-2,9.620048E-2,-1.3782814E-1,1.6518874E-1,1.609288E-2,1.696564E-1,6.841218E-2,-2.3221727E-2,1.1466688E-1,-8.477658E-3,-2.2825149E-1,-6.695583E-2,1.0754499E-1],"split_indices":[1,7,16,17,3,0,1,6,0,9,17,13,14,9,7,13,7,16,8,0,16,2,17,11,0,17,7,0,11,0,0,18,9,0,17,0,0,14,0,7,0,10,7,9,0,0,0,0,0,0,0,0,0,0,0,0,0,0,0,0,0,0,0,0,0,0,0],"split_type":[0,0,0,0,0,0,0,0,0,0,0,0,0,0,0,0,0,0,0,0,0,0,0,0,0,0,0,0,0,0,0,0,0,0,0,0,0,0,0,0,0,0,0,0,0,0,0,0,0,0,0,0,0,0,0,0,0,0,0,0,0,0,0,0,0,0,0],"sum_hessian":[4.2747516E2,1.709318E2,2.5654333E2,9.5528206E1,7.5403595E1,3.3841987E0,2.5315915E2,7.575363E1,1.9774572E1,4.0049744E1,3.535385E1,6.548813E1,1.8767102E2,6.9103096E1,6.650532E0,7.461687E0,1.2312885E1,1.599814E1,2.4051601E1,5.2401695E0,3.0113682E1,5.81105E1,7.3776236E0,1.8645572E2,1.2153095E0,6.536643E1,3.7366655E0,2.029668E0,4.6208634E0,1.3121163E0,6.1495705E0,4.7586546E0,7.5542307E0,5.461458E0,1.0536682E1,2.2002771E1,2.0488303E0,2.562867E1,4.485012E0,5.593619E1,2.17431E0,2.9360735E0,4.44155E0,2.1956367E0,1.8426007E2,1.5447093E0,6.3821724E1,1.7898495E0,1.946816E0,1.0579793E0,3.5628843E0,2.0222387E0,2.7364159E0,6.53869E0,1.015541E0,7.495049E0,3.0416327E0,2.3523033E1,2.1056368E0,4.7573875E1,8.362317E0,1.2185752E0,1.7174983E0,1.3430169E0,3.098533E0,1.1560535E0,1.0395832E0],"tree_param":{"num_deleted":"0","num_feature":"21","num_nodes":"67","size_leaf_vector":"1"}},{"base_weights":[-2.3468272E-1,-4.2351395E-1,5.7830103E-2,-7.909427E-2,-4.6835047E-1,-2.6131395E-1,2.2033261E-1,-2.4125546E-1,2.520702E-1,-4.98836E-1,-1.3353682E-1,-3.8949418E-1,1.6192439E-1,-5.231277E-2,3.623294E-1,-9.4966784E-2,-1.4305332E-1,1.5184557E-1,-3.936188E-2,-5.1491386E-1,1.5629083E-1,6.7470753E-1,-1.513311E-1,-4.4496986E-1,1.0040117E-1,-8.856949E-2,4.8334044E-1,1.5691356E-1,-3.075669E-1,4.3161607E-1,-3.4824198E-1,-1.3303596E-1,1.28746E-1,-1.19043924E-1,8.647276E-2,-5.310082E-1,1.3933429E-1,-9.985271E-2,1.525544E-1,5.3293582E-2,2.384354E-1,3.365691E-2,-4.735354E-1,1.2833239E-1,-1.1212253E-1,3.4855273E-2,1.776863E-1,2.814055E-1,-1.2364379E-1,-4.1570014E-1,1.2778367E-1,4.6303523E-1,-9.968852E-2,-1.3006233E-1,-4.6048025E-3,-1.1457955E-1,1.24673784E-1,-1.6321224E-1,-3.1982947E-2,1.4773147E-1,-1.04626395E-1,-3.2250471E-3,-1.4761274E-1,-8.64112E-2,1.3353631E-1,1.6660313E-1,-1.8573668E-3,-1.5823142E-1,-2.6614683E-2,1.6379549E-1,5.597961E-2],"categories":[],"categories_nodes":[],"categories_segments":[],"categories_sizes":[],"default_left":[0,0,0,0,0,0,0,0,0,0,0,0,0,0,0,0,0,0,0,0,0,0,0,0,0,0,0,0,0,0,0,0,0,0,0,0,0,0,0,0,0,0,0,0,0,0,0,0,0,0,0,0,0,0,0,0,0,0,0,0,0,0,0,0,0,0,0,0,0,0,0],"id":16,"left_children":[1,3,5,7,9,11,13,15,17,19,21,23,25,27,29,31,-1,-1,33,35,37,39,-1,41,-1,43,45,47,49,51,53,-1,55,-1,-1,57,59,-1,-1,-1,-1,-1,61,63,-1,-1,-1,65,-1,67,-1,69,-1,-1,-1,-1,-1,-1,-1,-1,-1,-1,-1,-1,-1,-1,-1,-1,-1,-1,-1],"loss_changes":[1.659425E1,2.779995E0,6.206474E0,1.2538185E0,1.5788002E0,2.2580278E0,3.0814426E0,4.86283E-1,5.9685934E-1,1.6329002E0,4.7826643E0,1.4082823E0,8.56904E-1,1.5416741E0,2.7173414E0,8.962639E-1,0E0,0E0,6.479944E-1,1.5911903E0,9.096638E-1,1.6255283E-1,0E0,5.233798E-1,0E0,4.5173478E-1,1.1453271E-1,1.2515577E0,1.2029544E0,1.304843E0,1.4060086E-1,0E0,1.2325044E0,0E0,0E0,7.2097015E-1,9.0448385E-1,0E0,0E0,0E0,0E0,0E0,2.3707056E-1,7.1544814E-1,0E0,0E0,0E0,1.0864316E0,0E0,3.8354945E-1,0E0,9.6387386E-1,0E0,0E0,0E0,0E0,0E0,0E0,0E0,0E0,0E0,0E0,0E0,0E0,0E0,0E0,0E0,0E0,0E0,0E0,0E0],"parents":[2147483647,0,0,1,1,2,2,3,3,4,4,5,5,6,6,7,7,8,8,9,9,10,10,11,11,12,12,13,13,14,14,15,15,18,18,19,19,20,20,21,21,23,23,25,25,26,26,27,27,28,28,29,29,30,30,32,32,35,35,36,36,42,42,43,43,47,47,49,49,51,51],"right_children":[2,4,6,8,10,12,14,16,18,20,22,24,26,28,30,32,-1,-1,34,36,38,40,-1,42,-1,44,46,48,50,52,54,-1,56,-1,-1,58,60,-1,-1,-1,-1,-1,62,64,-1,-1,-1,66,-1,68,-1,70,-1,-1,-1,-1,-1,-1,-1,-1,-1,-1,-1,-1,-1,-1,-1,-1,-1,-1,-1],"split_conditions":[-1.3061614E-1,-7.240654E-1,3.967387E-1,1.1004905E0,1.234101E0,-1.4766186E-1,5.47402E-1,3.9817402E-1,-1.0958282E0,3.4854538E0,-3.2196373E-1,4.577021E-1,-8.416427E-3,-5.776105E-1,1.8776786E0,-8.072698E-1,-1.4305332E-1,1.5184557E-1,2.624718E-1,7.4296074E0,1.3410176E0,-5.468689E-1,-1.513311E-1,-1.0060313E0,1.0040117E-1,-9.5160705E-1,-2.0647709E-1,-2.9733574E-1,1.078263E0,3.342042E0,8.1487054E-1,-1.3303596E-1,1.3914509E-1,-1.19043924E-1,8.647276E-2,2.6993985E0,8.586138E0,-9.985271E-2,1.525544E-1,5.3293582E-2,2.384354E-1,3.365691E-2,-1.330647E0,-4.5987028E-1,-1.1212253E-1,3.4855273E-2,1.776863E-1,7.0954305E-1,-1.2364379E-1,6.685373E-1,1.2778367E-1,1.0450797E0,-9.968852E-2,-1.3006233E-1,-4.6048025E-3,-1.1457955E-1,1.24673784E-1,-1.6321224E-1,-3.1982947E-2,1.4773147E-1,-1.04626395E-1,-3.2250471E-3,-1.4761274E-1,-8.64112E-2,1.3353631E-1,1.6660313E-1,-1.8573668E-3,-1.5823142E-1,-2.6614683E-2,1.6379549E-1,5.597961E-2],"split_indices":[9,8,0,0,17,2,7,16,11,8,1,16,14,1,7,18,0,0,10,2,6,19,0,10,0,8,0,4,13,9,16,0,10,0,0,14,2,0,0,0,0,0,12,10,0,0,0,9,0,14,0,17,0,0,0,0,0,0,0,0,0,0,0,0,0,0,0,0,0,0,0],"split_type":[0,0,0,0,0,0,0,0,0,0,0,0,0,0,0,0,0,0,0,0,0,0,0,0,0,0,0,0,0,0,0,0,0,0,0,0,0,0,0,0,0,0,0,0,0,0,0,0,0,0,0,0,0,0,0,0,0,0,0,0,0,0,0,0,0,0,0,0,0,0,0],"sum_hessian":[2.989835E2,1.8142014E2,1.17563354E2,2.1215275E1,1.6020486E2,3.945949E1,7.810387E1,1.4423847E1,6.791427E0,1.4638617E2,1.3818691E1,3.0348116E1,9.111377E0,2.6963448E1,5.1140415E1,9.764004E0,4.659843E0,3.2346015E0,3.5568259E0,1.4308858E2,3.2975967E0,4.0890217E0,9.72967E0,2.8546787E1,1.8013271E0,5.527775E0,3.583602E0,1.502942E1,1.1934027E1,4.6954536E1,4.185881E0,3.4334064E0,6.3305974E0,1.599904E0,1.9569218E0,1.3983699E2,3.2515821E0,1.4035344E0,1.8940623E0,1.2780265E0,2.810995E0,1.2494437E0,2.7297344E1,3.4520955E0,2.0756793E0,1.2929019E0,2.2907E0,1.2746406E1,2.2830143E0,1.0778372E1,1.1556551E0,4.547792E1,1.4766154E0,3.091406E0,1.0944748E0,2.1576219E0,4.1729755E0,1.3539725E2,4.4397545E0,1.8815091E0,1.3700731E0,1.1104478E0,2.6186897E1,1.5308232E0,1.9212723E0,6.0514092E0,6.6949964E0,7.576333E0,3.2020383E0,3.423117E1,1.124675E1],"tree_param":{"num_deleted":"0","num_feature":"21","num_nodes":"71","size_leaf_vector":"1"}},{"base_weights":[-3.4326544E-1,4.3612233E-1,-4.2869344E-1,-1.0708985E-1,5.3754205E-1,-5.01332E-1,1.13632254E-1,-1.3991588E-1,1.1814302E-1,5.772115E-1,-2.593158E-2,-5.1888376E-1,3.4876618E-1,2.4880806E-1,-1.37349E-1,1.8283284E-1,1.3933765E-2,9.863021E-2,-5.300398E-1,-5.295403E-2,1.68811E-1,2.4401033E-1,1.2512499E-1,-1.6376916E-1,-8.657947E-2,-1.2789373E-1,3.9760843E-1,-1.2893589E-1,3.6203127E-2,-1.11591764E-1,1.1206483E-1,1.8110889E-1,-1.198826E-1],"categories":[],"categories_nodes":[],"categories_segments":[],"categories_sizes":[],"default_left":[0,0,0,0,0,0,0,0,0,0,0,0,0,0,0,0,0,0,0,0,0,0,0,0,0,0,0,0,0,0,0,0,0],"id":17,"left_children":[1,3,5,7,9,11,13,-1,-1,15,-1,17,19,21,-1,-1,-1,-1,23,-1,-1,-1,25,-1,27,29,31,-1,-1,-1,-1,-1,-1],"loss_changes":[1.7924686E1,1.5346899E0,9.534874E0,1.0929122E0,6.1326075E-1,3.3495407E0,2.372161E0,0E0,0E0,3.40003E-1,0E0,2.1456108E0,6.492843E-1,1.5942736E0,0E0,0E0,0E0,0E0,1.4023476E0,0E0,0E0,0E0,1.5059869E0,0E0,6.4263505E-1,1.5710093E0,1.9508483E0,0E0,0E0,0E0,0E0,0E0,0E0],"parents":[2147483647,0,0,1,1,2,2,3,3,4,4,5,5,6,6,9,9,11,11,12,12,13,13,18,18,22,22,24,24,25,25,26,26],"right_children":[2,4,6,8,10,12,14,-1,-1,16,-1,18,20,22,-1,-1,-1,-1,24,-1,-1,-1,26,-1,28,30,32,-1,-1,-1,-1,-1,-1],"split_conditions":[-1.5382121E0,-1.9155885E0,1.3571357E0,1.4004217E0,-9.433235E-1,3.342042E0,-8.378362E-1,-1.3991588E-1,1.1814302E-1,3.4854538E0,-2.593158E-2,-2.0424771E0,-3.0701306E-1,-1.023847E0,-1.37349E-1,1.8283284E-1,1.3933765E-2,9.863021E-2,2.9567537E0,-5.295403E-2,1.68811E-1,2.4401033E-1,1.8776786E0,-1.6376916E-1,-4.0754902E-1,3.342042E0,-1.566679E-1,-1.2893589E-1,3.6203127E-2,-1.11591764E-1,1.1206483E-1,1.8110889E-1,-1.198826E-1],"split_indices":[17,0,7,4,18,9,8,0,0,8,0,16,0,14,0,0,0,0,6,0,0,0,7,0,0,9,3,0,0,0,0,0,0],"split_type":[0,0,0,0,0,0,0,0,0,0,0,0,0,0,0,0,0,0,0,0,0,0,0,0,0,0,0,0,0,0,0,0,0],"sum_hessian":[2.65406E2,2.5811752E1,2.3959425E2,4.0521584E0,2.1759594E1,2.1136044E2,2.8233803E1,2.3997307E0,1.6524279E0,2.0529394E1,1.2301997E0,2.0746655E2,3.893889E0,2.3289444E1,4.9443603E0,1.921435E1,1.3150438E0,2.3251982E0,2.0514136E2,1.1775587E0,2.7163303E0,3.1832156E0,2.0106228E1,1.9783609E2,7.305276E0,1.0700629E1,9.405598E0,2.3462715E0,4.9590044E0,7.3709807E0,3.3296485E0,7.6664867E0,1.7391112E0],"tree_param":{"num_deleted":"0","num_feature":"21","num_nodes":"33","size_leaf_vector":"1"}},{"base_weights":[3.4130475E-1,1.2711321E-1,4.893922E-1,3.0236435E-1,-9.8622516E-2,5.092193E-1,-2.0087196E-1,3.8890618E-1,-3.6299385E-3,-3.5460523E-1,1.9209333E-1,3.5996413E-1,5.6166023E-1,-1.4904898E-1,2.3381981E-1,4.562057E-1,-2.3886871E-1,-4.9608013E-1,3.100966E-1,-1.5763547E-1,-4.801673E-1,-1.3254452E-1,3.063615E-1,4.521407E-1,-2.7174085E-1,1.9442044E-2,5.67985E-1,1.0838245E-1,-9.303425E-3,4.9385673E-1,-8.918959E-2,8.569505E-2,-1.3720584E-1,1.1717925E-2,-1.8287489E-1,-1.0534545E-1,5.4727954E-1,-1.5743984E-1,5.6995716E-2,-1.5608487E-1,-1.8302549E-2,4.544542E-1,-1.3896112E-1,5.34762E-1,9.8505646E-2,1.8909338E-1,-5.378861E-1,1.7197186E-1,1.9742872E-1,1.5242961E-1,-3.970982E-2,6.1030075E-2,-9.844064E-2,-9.010311E-2,1.17404744E-1,1.300475E-1,-1.5234429E-1,1.8383855E-1,1.4677644E-2,8.1198856E-2,-1.2732472E-1,1.7392889E-1,8.1136905E-2,-7.411548E-3,1.6860937E-1,-1.2826636E-1,9.995204E-2,-2.7451167E-2,1.0463515E-1,-1.1427824E-2,-2.0748548E-1,-4.2188384E-2,1.16097845E-1],"categories":[],"categories_nodes":[],"categories_segments":[],"categories_sizes":[],"default_left":[0,0,0,0,0,0,0,0,0,0,0,0,0,0,0,0,0,0,0,0,0,0,0,0,0,0,0,0,0,0,0,0,0,0,0,0,0,0,0,0,0,0,0,0,0,0,0,0,0,0,0,0,0,0,0,0,0,0,0,0,0,0,0,0,0,0,0,0,0,0,0,0,0],"id":18,"left_children":[1,3,5,7,9,11,13,15,17,19,21,23,25,-1,27,29,31,33,35,37,39,-1,41,43,45,-1,47,-1,-1,49,51,53,-1,-1,-1,55,57,-1,59,-1,-1,61,-1,63,65,67,69,-1,71,-1,-1,-1,-1,-1,-1,-1,-1,-1,-1,-1,-1,-1,-1,-1,-1,-1,-1,-1,-1,-1,-1,-1,-1],"loss_changes":[1.1154381E1,5.8016853E0,2.9588547E0,2.182953E0,4.8695483E0,1.3881111E0,9.581927E-1,2.8225098E0,3.1128733E0,7.815337E-1,2.370634E0,3.3609982E0,4.3006134E-1,0E0,1.2364288E-1,1.2422934E0,5.267167E-1,4.998963E-1,1.2711118E0,1.2105811E0,3.1596327E-1,0E0,3.2575662E0,1.3762178E0,1.0468304E0,0E0,1.7221451E-1,0E0,0E0,5.554352E-1,3.894543E-1,5.4329014E-1,0E0,0E0,0E0,1.3725932E0,2.3124194E-1,0E0,1.1802257E0,0E0,0E0,3.7180233E-1,0E0,6.1524105E-1,1.4371586E0,1.9147891E-1,3.6895955E-1,0E0,2.8349936E-1,0E0,0E0,0E0,0E0,0E0,0E0,0E0,0E0,0E0,0E0,0E0,0E0,0E0,0E0,0E0,0E0,0E0,0E0,0E0,0E0,0E0,0E0,0E0,0E0],"parents":[2147483647,0,0,1,1,2,2,3,3,4,4,5,5,6,6,7,7,8,8,9,9,10,10,11,11,12,12,14,14,15,15,16,16,17,17,18,18,19,19,20,20,22,22,23,23,24,24,26,26,29,29,30,30,31,31,35,35,36,36,38,38,41,41,43,43,44,44,45,45,46,46,48,48],"right_children":[2,4,6,8,10,12,14,16,18,20,22,24,26,-1,28,30,32,34,36,38,40,-1,42,44,46,-1,48,-1,-1,50,52,54,-1,-1,-1,56,58,-1,60,-1,-1,62,-1,64,66,68,70,-1,72,-1,-1,-1,-1,-1,-1,-1,-1,-1,-1,-1,-1,-1,-1,-1,-1,-1,-1,-1,-1,-1,-1,-1,-1],"split_conditions":[-5.776105E-1,7.787545E-1,2.9567537E0,9.1906554E-1,1.816802E-1,-6.631697E-2,-1.3491907E0,1.3410176E0,1.3015624E0,2.6145816E-1,-1.6012192E0,1.1910979E0,-1.1216094E0,-1.4904898E-1,8.893349E-1,1.6057129E0,-4.0754902E-1,-1.629205E-1,2.5821143E-1,-1.3757867E-1,-7.240654E-1,-1.3254452E-1,5.7675827E-1,8.743986E-1,1.6298011E-1,1.9442044E-2,7.4296074E0,1.0838245E-1,-9.303425E-3,2.4684923E0,-8.881727E-2,-1.6642263E0,-1.3720584E-1,1.1717925E-2,-1.8287489E-1,1.3695883E0,2.7819357E0,-1.5743984E-1,6.6703707E-1,-1.5608487E-1,-1.8302549E-2,-5.3516257E-1,-1.3896112E-1,-1.2247349E0,-4.95016E-1,-2.0647709E-1,-2.0449351E-1,1.7197186E-1,7.213187E-1,1.5242961E-1,-3.970982E-2,6.1030075E-2,-9.844064E-2,-9.010311E-2,1.17404744E-1,1.300475E-1,-1.5234429E-1,1.8383855E-1,1.4677644E-2,8.1198856E-2,-1.2732472E-1,1.7392889E-1,8.1136905E-2,-7.411548E-3,1.6860937E-1,-1.2826636E-1,9.995204E-2,-2.7451167E-2,1.0463515E-1,-1.1427824E-2,-2.0748548E-1,-4.2188384E-2,1.16097845E-1],"split_indices":[1,7,6,17,3,1,17,6,0,9,17,13,11,0,11,9,0,13,7,16,8,0,16,16,17,0,2,0,0,19,7,17,0,0,0,18,9,0,17,0,0,18,0,11,3,0,7,0,4,0,0,0,0,0,0,0,0,0,0,0,0,0,0,0,0,0,0,0,0,0,0,0,0],"split_type":[0,0,0,0,0,0,0,0,0,0,0,0,0,0,0,0,0,0,0,0,0,0,0,0,0,0,0,0,0,0,0,0,0,0,0,0,0,0,0,0,0,0,0,0,0,0,0,0,0,0,0,0,0,0,0,0,0,0,0,0,0,0,0,0,0,0,0,0,0,0,0,0,0],"sum_hessian":[3.5262274E2,1.4489992E2,2.0772282E2,8.138037E1,6.3519554E1,2.0217778E2,5.54505E0,6.3227345E1,1.8153023E1,3.366069E1,2.9858862E1,5.4610874E1,1.4756691E2,3.2139196E0,2.3311305E0,5.735229E1,5.8750544E0,6.838118E0,1.1314905E1,1.3982197E1,1.9678493E1,4.1225176E0,2.5736345E1,4.7904972E1,6.7059016E0,1.9962249E0,1.4557068E2,1.3278891E0,1.0032415E0,5.373708E1,3.6152098E0,2.608232E0,3.2668223E0,1.3113362E0,5.526782E0,4.314177E0,7.000728E0,4.625077E0,9.3571205E0,1.7739483E1,1.9390109E0,2.1926369E1,3.8099756E0,3.8417206E1,9.487769E0,2.5610015E0,4.1449003E0,1.42996E2,2.574675E0,5.272657E1,1.0105114E0,1.6918814E0,1.9233285E0,1.1602364E0,1.4479957E0,1.8116311E0,2.502546E0,5.9843626E0,1.0163659E0,6.783943E0,2.5731776E0,1.17638645E1,1.0162504E1,1.7898486E0,3.6627357E1,2.673212E0,6.814557E0,1.0837322E0,1.4772693E0,1.2685497E0,2.8763504E0,1.0177805E0,1.5568945E0],"tree_param":{"num_deleted":"0","num_feature":"21","num_nodes":"73","size_leaf_vector":"1"}},{"base_weights":[-2.0751697E-1,-3.9396882E-1,5.753891E-2,-4.41832E-1,-3.5879802E-2,-2.2252102E-1,1.9595455E-1,-4.5767617E-1,1.627328E-1,4.184551E-1,-1.4558168E-1,-3.7192088E-1,1.0279753E-1,8.953439E-3,3.625942E-1,-4.7434297E-1,1.459635E-1,1.433077E-1,-9.197691E-2,-4.2921275E-2,5.490449E-1,-4.437488E-1,9.953278E-2,-9.221445E-2,3.8393232E-1,-5.270153E-2,1.5423489E-1,4.4281325E-1,-3.1278905E-1,-1.63939E-1,-5.138659E-1,1.3936023E-1,-9.626758E-2,2.0502527E-1,-1.9997276E-2,-1.09210454E-1,-1.4497575E-1,6.0890786E-2,-1.0767097E-1,4.4658557E-3,4.7344825E-1,1.4162894E-1,-2.7927896E-1,4.8010558E-1,-8.975751E-2,-1.1951008E-1,-1.9307045E-3,-1.5579397E-2,-1.3334645E-1,-1.5914886E-1,-2.2248374E-2,6.1382923E-2,-9.890129E-2,1.0958119E-1,-8.284938E-2,1.7241861E-1,2.996229E-2,-1.0167239E-1,1.1900909E-1,-1.05564386E-1,8.690969E-2,1.5700465E-1,-3.641978E-3],"categories":[],"categories_nodes":[],"categories_segments":[],"categories_sizes":[],"default_left":[0,0,0,0,0,0,0,0,0,0,0,0,0,0,0,0,0,0,0,0,0,0,0,0,0,0,0,0,0,0,0,0,0,0,0,0,0,0,0,0,0,0,0,0,0,0,0,0,0,0,0,0,0,0,0,0,0,0,0,0,0,0,0],"id":19,"left_children":[1,3,5,7,9,11,13,15,17,19,-1,21,23,25,27,29,31,-1,-1,-1,33,35,-1,37,39,41,-1,43,45,47,49,-1,-1,-1,-1,51,-1,53,-1,-1,55,57,59,61,-1,-1,-1,-1,-1,-1,-1,-1,-1,-1,-1,-1,-1,-1,-1,-1,-1,-1,-1],"loss_changes":[1.2323079E1,2.4905949E0,4.061738E0,1.3092785E0,3.945706E0,1.727326E0,2.1750052E0,1.33568E0,7.421341E-1,7.8633964E-1,0E0,1.361948E0,6.7798865E-1,1.0849197E0,2.139739E0,1.4214516E0,7.6581997E-1,0E0,0E0,0E0,7.1054006E-1,2.4106312E-1,0E0,3.373456E-1,1.5793282E-1,1.412275E0,0E0,1.0686922E0,1.15611106E-1,4.586632E-1,7.5333977E-1,0E0,0E0,0E0,0E0,3.1930226E-1,0E0,6.9217855E-1,0E0,0E0,9.3438685E-2,2.2727838E0,7.104386E-1,6.9207716E-1,0E0,0E0,0E0,0E0,0E0,0E0,0E0,0E0,0E0,0E0,0E0,0E0,0E0,0E0,0E0,0E0,0E0,0E0,0E0],"parents":[2147483647,0,0,1,1,2,2,3,3,4,4,5,5,6,6,7,7,8,8,9,9,11,11,12,12,13,13,14,14,15,15,16,16,20,20,21,21,23,23,24,24,25,25,27,27,28,28,29,29,30,30,35,35,37,37,40,40,41,41,42,42,43,43],"right_children":[2,4,6,8,10,12,14,16,18,20,-1,22,24,26,28,30,32,-1,-1,-1,34,36,-1,38,40,42,-1,44,46,48,50,-1,-1,-1,-1,52,-1,54,-1,-1,56,58,60,62,-1,-1,-1,-1,-1,-1,-1,-1,-1,-1,-1,-1,-1,-1,-1,-1,-1,-1,-1],"split_conditions":[-1.3061614E-1,1.171094E0,3.967387E-1,7.4296074E0,1.8932979E-1,-1.6760205E-1,7.787545E-1,3.4854538E0,4.4497654E-1,1.1125109E0,-1.4558168E-1,4.577021E-1,-8.416427E-3,2.8379464E0,1.8776786E0,-7.240654E-1,-5.776105E-1,1.433077E-1,-9.197691E-2,-4.2921275E-2,5.200283E-1,-1.0265614E0,9.953278E-2,-9.5160705E-1,-2.6041249E-2,6.5353245E-1,1.5423489E-1,3.342042E0,8.1487054E-1,-5.776105E-1,2.6993985E0,1.3936023E-1,-9.626758E-2,2.0502527E-1,-1.9997276E-2,-8.333641E-1,-1.4497575E-1,1.3256598E0,-1.0767097E-1,4.4658557E-3,-5.776105E-1,8.743986E-1,-1.6760205E-1,1.1967245E0,-8.975751E-2,-1.1951008E-1,-1.9307045E-3,-1.5579397E-2,-1.3334645E-1,-1.5914886E-1,-2.2248374E-2,6.1382923E-2,-9.890129E-2,1.0958119E-1,-8.284938E-2,1.7241861E-1,2.996229E-2,-1.0167239E-1,1.1900909E-1,-1.05564386E-1,8.690969E-2,1.5700465E-1,-3.641978E-3],"split_indices":[9,17,0,2,1,2,7,8,1,16,0,16,14,9,7,8,1,0,0,0,3,12,0,8,17,9,0,9,16,1,14,0,0,0,0,3,0,9,0,0,1,16,2,3,0,0,0,0,0,0,0,0,0,0,0,0,0,0,0,0,0,0,0],"split_type":[0,0,0,0,0,0,0,0,0,0,0,0,0,0,0,0,0,0,0,0,0,0,0,0,0,0,0,0,0,0,0,0,0,0,0,0,0,0,0,0,0,0,0,0,0,0,0,0,0,0,0,0,0,0,0,0,0,0,0,0,0,0,0],"sum_hessian":[2.4789455E2,1.4524002E2,1.02654526E2,1.27909424E2,1.733059E1,3.375319E1,6.890134E1,1.248796E2,3.0298219E0,8.652138E0,8.6784525E0,2.3032469E1,1.0720723E1,3.2963642E1,3.593769E1,1.217327E2,3.1469085E0,1.8024046E0,1.2274171E0,1.6144695E0,7.037668E0,2.1234426E1,1.7980417E0,6.7266836E0,3.9940395E0,3.017631E1,2.7873347E0,3.2430138E1,3.5075562E0,1.4330681E1,1.07402016E2,1.8734708E0,1.2734377E0,5.686623E0,1.3510448E0,2.640219E0,1.8594208E1,4.763596E0,1.9630877E0,1.0073494E0,2.98669E0,1.6445925E1,1.3730385E1,3.1214302E1,1.2158338E0,2.5069149E0,1.0006413E0,1.1088689E1,3.2419915E0,1.0328898E2,4.1130342E0,1.1191022E0,1.5211166E0,2.4591422E0,2.3044536E0,1.9260534E0,1.0606366E0,5.5885835E0,1.0857341E1,1.251501E1,1.2153752E0,2.8635515E1,2.5787873E0],"tree_param":{"num_deleted":"0","num_feature":"21","num_nodes":"63","size_leaf_vector":"1"}},{"base_weights":[-3.2404897E-1,4.0082654E-1,-4.0754247E-1,-1.02315105E-1,4.9750724E-1,-4.8216403E-1,1.10408396E-1,-1.2755992E-1,1.053235E-1,5.40765E-1,-2.5034564E-2,-5.010305E-1,3.2148436E-1,2.3441984E-1,-1.2940423E-1,1.4462475E-2,1.727871E-1,-5.2502817E-1,-5.748098E-3,-4.761954E-2,1.5845403E-1,2.3021804E-1,1.1320165E-1,5.6733456E-2,-1.5992813E-1,2.7311623E-1,-3.169864E-1,-1.1479593E-1,3.5306343E-1,-1.0486131E-1,1.8012594E-1,-1.2911686E-1,6.405655E-3,-1.0055372E-1,9.865789E-2,1.6419223E-1,-1.10196255E-1],"categories":[],"categories_nodes":[],"categories_segments":[],"categories_sizes":[],"default_left":[0,0,0,0,0,0,0,0,0,0,0,0,0,0,0,0,0,0,0,0,0,0,0,0,0,0,0,0,0,0,0,0,0,0,0,0,0],"id":20,"left_children":[1,3,5,7,9,11,13,-1,-1,15,-1,17,19,21,-1,-1,-1,23,25,-1,-1,-1,27,-1,-1,29,31,33,35,-1,-1,-1,-1,-1,-1,-1,-1],"loss_changes":[1.3058525E1,1.1459203E0,7.4568367E0,8.0186737E-1,5.239444E-1,2.7024994E0,1.7763927E0,0E0,0E0,2.8193045E-1,0E0,1.9481735E0,5.2592605E-1,1.2659062E0,0E0,0E0,0E0,1.0026321E0,8.3279E-1,0E0,0E0,0E0,1.0376016E0,0E0,0E0,1.2434909E0,1.8283871E-1,1.0979241E0,1.4786305E0,0E0,0E0,0E0,0E0,0E0,0E0,0E0,0E0],"parents":[2147483647,0,0,1,1,2,2,3,3,4,4,5,5,6,6,9,9,11,11,12,12,13,13,17,17,18,18,22,22,25,25,26,26,27,27,28,28],"right_children":[2,4,6,8,10,12,14,-1,-1,16,-1,18,20,22,-1,-1,-1,24,26,-1,-1,-1,28,-1,-1,30,32,34,36,-1,-1,-1,-1,-1,-1,-1,-1],"split_conditions":[-1.5382121E0,-1.9155885E0,1.3571357E0,1.4004217E0,-9.433235E-1,3.342042E0,-8.378362E-1,-1.2755992E-1,1.053235E-1,-1.1299033E0,-2.5034564E-2,2.9567537E0,-3.0701306E-1,-1.023847E0,-1.2940423E-1,1.4462475E-2,1.727871E-1,-2.0424771E0,-3.1616288E-1,-4.761954E-2,1.5845403E-1,2.3021804E-1,1.8776786E0,5.6733456E-2,-1.5992813E-1,-4.0754902E-1,2.3609216E0,3.342042E0,-1.566679E-1,-1.0486131E-1,1.8012594E-1,-1.2911686E-1,6.405655E-3,-1.0055372E-1,9.865789E-2,1.6419223E-1,-1.10196255E-1],"split_indices":[17,0,7,4,18,9,8,0,0,7,0,6,0,14,0,0,0,16,16,0,0,0,7,0,0,0,14,9,3,0,0,0,0,0,0,0,0],"split_type":[0,0,0,0,0,0,0,0,0,0,0,0,0,0,0,0,0,0,0,0,0,0,0,0,0,0,0,0,0,0,0,0,0,0,0,0,0],"sum_hessian":[2.120644E2,2.1510803E1,1.905536E2,3.4577646E0,1.8053038E1,1.6661794E2,2.3935675E1,2.0558634E0,1.4019014E0,1.6866356E1,1.1866815E0,1.6316405E2,3.453892E0,1.993884E1,3.9968343E0,1.282735E0,1.5583621E1,1.5556642E2,7.5976253E0,1.1091212E0,2.3447707E0,2.7068129E0,1.7232027E1,1.4866836E0,1.5407973E2,4.071824E0,3.5258012E0,9.101818E0,8.13021E0,1.3795232E0,2.692301E0,2.4369318E0,1.0888693E0,6.244438E0,2.8573797E0,6.5927896E0,1.5374198E0],"tree_param":{"num_deleted":"0","num_feature":"21","num_nodes":"37","size_leaf_vector":"1"}},{"base_weights":[3.0963987E-1,1.6048218E-1,5.197536E-1,3.9931595E-1,4.3067273E-2,5.3458685E-1,-9.575747E-2,4.4625503E-1,-1.457596E-1,-1.6468279E-1,1.6032685E-1,5.4223204E-1,1.9512309E-2,4.930291E-1,-1.3251023E-1,1.2443727E-1,-4.0986606E-1,-3.4115213E-1,2.1473469E-1,2.169177E-3,5.4792243E-1,-2.2809753E-1,5.3157E-1,4.6523562E-1,-1.1145522E-1,-4.620799E-1,-8.054818E-2,-1.4786565E-1,3.3430226E-2,3.883766E-1,4.7160383E-2,1.6613302E-1,2.2937837E-1,1.08865695E-2,-1.1929292E-1,1.6520354E-1,-4.311826E-2,1.6128168E-1,4.9088594E-2,2.4344191E-2,-1.396095E-1,-1.545829E-1,-7.8669995E-2,8.646734E-2,-1.0147095E-1,1.3136749E-1,-4.7628067E-2,-2.0490654E-2,8.753848E-2,1.1906352E-1,-2.1391485E-2],"categories":[],"categories_nodes":[],"categories_segments":[],"categories_sizes":[],"default_left":[0,0,0,0,0,0,0,0,0,0,0,0,0,0,0,0,0,0,0,0,0,0,0,0,0,0,0,0,0,0,0,0,0,0,0,0,0,0,0,0,0,0,0,0,0,0,0,0,0,0,0],"id":21,"left_children":[1,3,5,7,9,11,-1,13,-1,15,17,19,-1,21,-1,23,25,27,29,-1,31,33,35,37,39,41,43,-1,-1,45,47,-1,49,-1,-1,-1,-1,-1,-1,-1,-1,-1,-1,-1,-1,-1,-1,-1,-1,-1,-1],"loss_changes":[9.014332E0,4.7842197E0,1.6648521E0,2.5564957E0,2.8500001E0,3.8962173E-1,0E0,2.4604053E0,0E0,3.0503547E0,2.1085753E0,3.5018158E-1,0E0,1.5599947E0,0E0,1.6744142E0,3.6047077E-1,5.8284163E-1,1.9576943E0,0E0,8.760071E-2,1.6352244E-1,7.171221E-1,9.645295E-2,9.05768E-1,7.4863434E-2,5.1336116E-1,0E0,0E0,9.69296E-1,1.0282179E0,0E0,2.1888138E-1,0E0,0E0,0E0,0E0,0E0,0E0,0E0,0E0,0E0,0E0,0E0,0E0,0E0,0E0,0E0,0E0,0E0,0E0],"parents":[2147483647,0,0,1,1,2,2,3,3,4,4,5,5,7,7,9,9,10,10,11,11,13,13,15,15,16,16,17,17,18,18,20,20,21,21,22,22,23,23,24,24,25,25,26,26,29,29,30,30,32,32],"right_children":[2,4,6,8,10,12,-1,14,-1,16,18,20,-1,22,-1,24,26,28,30,-1,32,34,36,38,40,42,44,-1,-1,46,48,-1,50,-1,-1,-1,-1,-1,-1,-1,-1,-1,-1,-1,-1,-1,-1,-1,-1,-1,-1],"split_conditions":[-6.631697E-2,-2.0449351E-1,4.5724897E0,2.0856385E0,-4.95016E-1,1.710209E0,-9.575747E-2,1.3015615E0,-1.457596E-1,7.787545E-1,-1.5382121E0,-2.2805893E0,1.9512309E-2,-2.0424771E0,-1.3251023E-1,-3.321728E-1,-7.240654E-1,-9.9277407E-1,2.8899434E-1,2.169177E-3,7.4296074E0,-8.407128E-1,2.6717749E0,-5.1298845E-1,1.345491E0,1.9199939E-1,3.3006042E-1,-1.4786565E-1,3.3430226E-2,2.9567537E0,-5.776105E-1,1.6613302E-1,1.21526994E-1,1.08865695E-2,-1.1929292E-1,1.6520354E-1,-4.311826E-2,1.6128168E-1,4.9088594E-2,2.4344191E-2,-1.396095E-1,-1.545829E-1,-7.8669995E-2,8.646734E-2,-1.0147095E-1,1.3136749E-1,-4.7628067E-2,-2.0490654E-2,8.753848E-2,1.1906352E-1,-2.1391485E-2],"split_indices":[1,7,6,2,3,12,0,18,0,7,17,16,0,16,0,13,8,12,17,0,2,7,19,19,14,10,14,0,0,6,1,0,10,0,0,0,0,0,0,0,0,0,0,0,0,0,0,0,0,0,0],"split_type":[0,0,0,0,0,0,0,0,0,0,0,0,0,0,0,0,0,0,0,0,0,0,0,0,0,0,0,0,0,0,0,0,0,0,0,0,0,0,0,0,0,0,0,0,0,0,0,0,0,0,0],"sum_hessian":[2.8929102E2,1.702184E2,1.1907262E2,5.5310455E1,1.1490795E2,1.17360374E2,1.7122413E0,5.299606E1,2.3143954E0,4.1311497E1,7.359645E1,1.1532779E2,2.032584E0,5.0766632E1,2.2294283E0,1.9183174E1,2.2128323E1,6.6874747E0,6.690898E1,1.237637E0,1.1409016E2,2.3260672E0,4.8440563E1,7.4490924E0,1.1734081E1,1.8752018E1,3.3763041E0,4.94169E0,1.7457851E0,3.2212486E1,3.469649E1,1.113061E2,2.7840564E0,1.2159318E0,1.1101356E0,4.7287056E1,1.1535089E0,5.3765345E0,2.072558E0,8.097838E0,3.6362426E0,1.3563298E1,5.18872E0,1.3400642E0,2.0362399E0,2.972233E1,2.4901583E0,2.406099E1,1.0635502E1,1.5825516E0,1.2015048E0],"tree_param":{"num_deleted":"0","num_feature":"21","num_nodes":"51","size_leaf_vector":"1"}},{"base_weights":[-1.826844E-1,-3.6472815E-1,5.6224577E-2,-4.1507912E-1,-1.2829038E-2,-1.8753168E-1,1.7404528E-1,-4.329785E-1,1.4721487E-1,3.7143296E-1,-1.3857108E-1,-3.08423E-1,1.5810691E-1,-3.584192E-2,2.9226017E-1,-1.3653906E-1,-4.7548917E-1,1.2746274E-1,-9.097445E-2,-3.7730534E-2,4.8563832E-1,-3.793772E-1,9.8700054E-2,-7.089127E-2,4.1527024E-1,-1.0984669E-1,1.3298683E-1,3.4739187E-1,-2.8408805E-1,-3.6764856E-2,-1.2259906E-1,-4.987955E-1,1.3627605E-1,1.8065372E-1,-1.7443322E-2,-1.5044871E-1,-1.535852E-1,9.5834866E-2,-9.3541704E-2,1.4967057E-1,2.4965929E-2,-1.4088415E-1,5.3731136E-2,4.4639006E-1,9.139959E-2,-1.0909585E-1,-9.4692055E-3,-6.3155584E-2,6.375248E-2,-1.560088E-1,-1.1969831E-2,1.2175121E-1,-8.894314E-2,-1.2441973E-1,4.887951E-2,-6.160183E-2,1.07695356E-1,-1.0666313E-1,7.245373E-2,1.4839695E-1,-4.386633E-2,-1.528611E-1,6.3494325E-2],"categories":[],"categories_nodes":[],"categories_segments":[],"categories_sizes":[],"default_left":[0,0,0,0,0,0,0,0,0,0,0,0,0,0,0,0,0,0,0,0,0,0,0,0,0,0,0,0,0,0,0,0,0,0,0,0,0,0,0,0,0,0,0,0,0,0,0,0,0,0,0,0,0,0,0,0,0,0,0,0,0,0,0],"id":22,"left_children":[1,3,5,7,9,11,13,15,17,19,-1,21,23,25,27,29,31,-1,-1,-1,33,35,-1,37,39,41,-1,43,45,47,-1,49,51,-1,-1,-1,53,55,-1,-1,-1,-1,57,59,61,-1,-1,-1,-1,-1,-1,-1,-1,-1,-1,-1,-1,-1,-1,-1,-1,-1,-1],"loss_changes":[9.016596E0,2.077075E0,2.6265297E0,1.0982323E0,2.8882413E0,1.2986146E0,1.534076E0,1.1935844E0,6.1879444E-1,5.742873E-1,0E0,1.1424234E0,5.248257E-1,8.6477417E-1,1.3503382E0,3.631344E-1,1.3075485E0,0E0,0E0,0E0,5.1382947E-1,4.940331E-1,0E0,2.4292184E-1,7.2565615E-2,1.2456363E0,0E0,8.817215E-1,6.867212E-2,5.337397E-1,0E0,7.973919E-1,5.841316E-1,0E0,0E0,0E0,7.875952E-1,3.8276333E-1,0E0,0E0,0E0,0E0,1.2504481E0,8.1580544E-1,9.322759E-1,0E0,0E0,0E0,0E0,0E0,0E0,0E0,0E0,0E0,0E0,0E0,0E0,0E0,0E0,0E0,0E0,0E0,0E0],"parents":[2147483647,0,0,1,1,2,2,3,3,4,4,5,5,6,6,7,7,8,8,9,9,11,11,12,12,13,13,14,14,15,15,16,16,20,20,21,21,23,23,24,24,25,25,27,27,28,28,29,29,31,31,32,32,36,36,37,37,42,42,43,43,44,44],"right_children":[2,4,6,8,10,12,14,16,18,20,-1,22,24,26,28,30,32,-1,-1,-1,34,36,-1,38,40,42,-1,44,46,48,-1,50,52,-1,-1,-1,54,56,-1,-1,-1,-1,58,60,62,-1,-1,-1,-1,-1,-1,-1,-1,-1,-1,-1,-1,-1,-1,-1,-1,-1,-1],"split_conditions":[-1.3061614E-1,1.171094E0,3.967387E-1,7.4296074E0,1.8932979E-1,-1.4766186E-1,5.47402E-1,-7.240654E-1,8.586138E0,1.1125109E0,-1.3857108E-1,4.577021E-1,-8.416427E-3,2.8379464E0,1.8776786E0,-5.776105E-1,3.4854538E0,1.2746274E-1,-9.097445E-2,-3.7730534E-2,5.200283E-1,1.0101069E0,9.8700054E-2,-9.5160705E-1,-5.776105E-1,9.1906554E-1,1.3298683E-1,1.5026343E0,6.274923E-2,-6.8537015E-1,-1.2259906E-1,2.6993985E0,-5.776105E-1,1.8065372E-1,-1.7443322E-2,-1.5044871E-1,-6.8537015E-1,-4.5987028E-1,-9.3541704E-2,1.4967057E-1,2.4965929E-2,-1.4088415E-1,-3.0130738E-1,1.1967245E0,-3.8859025E-1,-1.0909585E-1,-9.4692055E-3,-6.3155584E-2,6.375248E-2,-1.560088E-1,-1.1969831E-2,1.2175121E-1,-8.894314E-2,-1.2441973E-1,4.887951E-2,-6.160183E-2,1.07695356E-1,-1.0666313E-1,7.245373E-2,1.4839695E-1,-4.386633E-2,-1.528611E-1,6.3494325E-2],"split_indices":[9,17,0,2,1,2,7,8,2,16,0,16,14,9,7,1,8,0,0,0,3,7,0,8,1,17,0,0,13,14,0,14,1,0,0,0,14,10,0,0,0,0,10,3,13,0,0,0,0,0,0,0,0,0,0,0,0,0,0,0,0,0,0],"split_type":[0,0,0,0,0,0,0,0,0,0,0,0,0,0,0,0,0,0,0,0,0,0,0,0,0,0,0,0,0,0,0,0,0,0,0,0,0,0,0,0,0,0,0,0,0,0,0,0,0,0,0,0,0,0,0,0,0,0,0,0,0,0,0],"sum_hessian":[2.0584521E2,1.16527214E2,8.9318E1,1.0178406E2,1.4743157E1,2.8911682E1,6.040632E1,9.886683E1,2.9172318E0,8.038071E0,6.7050867E0,2.1499603E1,7.4120774E0,2.2015404E1,3.8390915E1,1.2927991E1,8.5938835E1,1.8399234E0,1.0773083E0,1.482528E0,6.555543E0,1.9710388E1,1.7892165E0,4.303892E0,3.1081855E0,1.9737555E1,2.2778485E0,3.5401745E1,2.9891686E0,1.0290201E1,2.6377904E0,8.2962875E1,2.975964E0,5.310117E0,1.2454258E0,1.1999476E1,7.7109113E0,2.8994884E0,1.4044034E0,2.0814536E0,1.0267318E0,5.5844436E0,1.4153111E1,2.4992716E1,1.0409028E1,1.9383614E0,1.0508074E0,6.1552234E0,4.134978E0,7.916651E1,3.796365E0,1.8720584E0,1.1039057E0,4.054983E0,3.655928E0,1.4545007E0,1.4449878E0,4.1703396E0,9.982771E0,2.3263283E1,1.7294337E0,1.195779E0,9.213249E0],"tree_param":{"num_deleted":"0","num_feature":"21","num_nodes":"63","size_leaf_vector":"1"}},{"base_weights":[-3.0629706E-1,3.7389103E-1,-3.8853347E-1,-8.751754E-2,4.6422094E-1,-4.6597683E-1,1.0520666E-1,-1.15360714E-1,9.554718E-2,1.6221508E-1,5.342023E-2,-4.8667365E-1,3.0212042E-1,6.860931E-1,-5.4479977E-3,-9.358056E-2,1.11580454E-1,-5.133494E-1,-1.3376491E-2,-4.540851E-2,1.4999747E-1,7.3094524E-2,2.4544169E-1,-2.1215923E-1,2.927611E-1,5.5031594E-2,-1.5701012E-1,2.3454966E-1,-2.9249698E-1,-3.7390667E-1,2.8525585E-1,4.9668398E-1,-1.0719065E-1,-9.961775E-2,1.6121341E-1,-1.1903922E-1,2.2669015E-3,-1.4110725E-1,6.1050672E-2,1.01097696E-1,2.3747131E-2,1.7389332E-1,7.2721764E-2],"categories":[],"categories_nodes":[],"categories_segments":[],"categories_sizes":[],"default_left":[0,0,0,0,0,0,0,0,0,0,0,0,0,0,0,0,0,0,0,0,0,0,0,0,0,0,0,0,0,0,0,0,0,0,0,0,0,0,0,0,0,0,0],"id":23,"left_children":[1,3,5,7,9,11,13,-1,-1,-1,15,17,19,21,23,-1,-1,25,27,-1,-1,-1,-1,29,31,-1,-1,33,35,37,39,41,-1,-1,-1,-1,-1,-1,-1,-1,-1,-1,-1],"loss_changes":[9.659503E0,8.2652164E-1,5.8700123E0,5.9620845E-1,4.716282E-1,2.2419376E0,1.3829093E0,0E0,0E0,0E0,5.361098E-1,1.6180897E0,4.4130316E-1,1.7044544E-3,1.2342734E0,0E0,0E0,9.4626236E-1,6.148566E-1,0E0,0E0,0E0,0E0,1.0568681E0,1.2651324E0,0E0,0E0,9.9096715E-1,1.331338E-1,6.161587E-1,1.0274589E-2,6.9499016E-5,0E0,0E0,0E0,0E0,0E0,0E0,0E0,0E0,0E0,0E0,0E0],"parents":[2147483647,0,0,1,1,2,2,3,3,4,4,5,5,6,6,10,10,11,11,12,12,13,13,14,14,17,17,18,18,23,23,24,24,27,27,28,28,29,29,30,30,31,31],"right_children":[2,4,6,8,10,12,14,-1,-1,-1,16,18,20,22,24,-1,-1,26,28,-1,-1,-1,-1,30,32,-1,-1,34,36,38,40,42,-1,-1,-1,-1,-1,-1,-1,-1,-1,-1,-1],"split_conditions":[-1.5382121E0,-1.9155885E0,1.3571357E0,1.4004217E0,2.2339752E0,3.342042E0,-1.023847E0,-1.15360714E-1,9.554718E-2,1.6221508E-1,8.583764E-1,2.9567537E0,8.9931405E-1,-1.6760205E-1,1.8776786E0,-9.358056E-2,1.11580454E-1,-2.0424771E0,-3.1616288E-1,-4.540851E-2,1.4999747E-1,7.3094524E-2,2.4544169E-1,3.342042E0,-1.566679E-1,5.5031594E-2,-1.5701012E-1,-4.0754902E-1,2.3609216E0,1.5750599E0,-1.8754223E-1,1.8297553E0,-1.0719065E-1,-9.961775E-2,1.6121341E-1,-1.1903922E-1,2.2669015E-3,-1.4110725E-1,6.1050672E-2,1.01097696E-1,2.3747131E-2,1.7389332E-1,7.2721764E-2],"split_indices":[17,0,7,4,8,9,14,0,0,0,3,6,12,2,7,0,0,16,16,0,0,0,0,9,3,0,0,0,14,12,2,9,0,0,0,0,0,0,0,0,0,0,0],"split_type":[0,0,0,0,0,0,0,0,0,0,0,0,0,0,0,0,0,0,0,0,0,0,0,0,0,0,0,0,0,0,0,0,0,0,0,0,0,0,0,0,0,0,0],"sum_hessian":[1.6909074E2,1.7855879E1,1.5123486E2,2.9284391E0,1.492744E1,1.3077844E2,2.0456425E1,1.7217598E0,1.2066793E0,1.2317519E1,2.6099207E0,1.2770378E2,3.0746617E0,2.4411566E0,1.8015268E1,1.2251997E0,1.384721E0,1.2081011E2,6.893664E0,1.0054395E0,2.0692222E0,1.2150573E0,1.2260994E0,1.0810351E1,7.204916E0,1.4668963E0,1.19343216E2,3.7354069E0,3.1582568E0,8.345044E0,2.4653075E0,5.664062E0,1.540854E0,1.2674365E0,2.4679704E0,2.1043491E0,1.0539078E0,7.309466E0,1.0355784E0,1.4629626E0,1.002345E0,3.305911E0,2.3581507E0],"tree_param":{"num_deleted":"0","num_feature":"21","num_nodes":"43","size_leaf_vector":"1"}},{"base_weights":[2.7853522E-1,1.3584355E-1,4.9867767E-1,3.6848116E-1,3.2566197E-2,5.1516163E-1,-8.941442E-2,4.166804E-1,-1.331365E-1,-1.5161657E-1,1.3536556E-1,8.35039E-3,5.2335286E-1,4.6765813E-1,-1.1216607E-1,1.04587935E-1,-3.8339356E-1,-3.053408E-1,1.8051377E-1,3.3875293E-4,5.299995E-1,-1.9996633E-1,5.1090795E-1,4.362208E-1,-1.0395098E-1,-4.3867669E-1,-6.3753426E-2,-1.3935606E-1,3.3097606E-2,2.6376286E-1,-1.09653085E-1,1.611877E-1,2.0458786E-1,1.44374175E-2,-1.1054699E-1,1.5957798E-1,-3.628213E-2,1.5370038E-1,3.9455686E-2,2.243549E-2,-1.2905842E-1,-1.5025595E-1,-6.870784E-2,8.18744E-2,-9.3050905E-2,1.2565334E-1,4.4188082E-2,1.0542277E-1,-9.899611E-2,1.1050003E-1,-2.2335198E-2],"categories":[],"categories_nodes":[],"categories_segments":[],"categories_sizes":[],"default_left":[0,0,0,0,0,0,0,0,0,0,0,0,0,0,0,0,0,0,0,0,0,0,0,0,0,0,0,0,0,0,0,0,0,0,0,0,0,0,0,0,0,0,0,0,0,0,0,0,0,0,0],"id":24,"left_children":[1,3,5,7,9,11,-1,13,-1,15,17,-1,19,21,-1,23,25,27,29,-1,31,33,35,37,39,41,43,-1,-1,45,47,-1,49,-1,-1,-1,-1,-1,-1,-1,-1,-1,-1,-1,-1,-1,-1,-1,-1,-1,-1],"loss_changes":[7.4885864E0,3.5276449E0,1.3910484E0,1.9544568E0,1.9731045E0,3.5540962E-1,0E0,1.9151454E0,0E0,2.2617323E0,1.3825326E0,0E0,3.155918E-1,1.2863264E0,0E0,1.3286111E0,3.2291865E-1,4.8601878E-1,1.5059004E0,0E0,1.0354233E-1,1.520997E-1,5.795765E-1,1.0321796E-1,7.435428E-1,1.0374975E-1,4.246206E-1,0E0,0E0,8.017802E-1,1.5724765E0,0E0,1.9129848E-1,0E0,0E0,0E0,0E0,0E0,0E0,0E0,0E0,0E0,0E0,0E0,0E0,0E0,0E0,0E0,0E0,0E0,0E0],"parents":[2147483647,0,0,1,1,2,2,3,3,4,4,5,5,7,7,9,9,10,10,12,12,13,13,15,15,16,16,17,17,18,18,20,20,21,21,22,22,23,23,24,24,25,25,26,26,29,29,30,30,32,32],"right_children":[2,4,6,8,10,12,-1,14,-1,16,18,-1,20,22,-1,24,26,28,30,-1,32,34,36,38,40,42,44,-1,-1,46,48,-1,50,-1,-1,-1,-1,-1,-1,-1,-1,-1,-1,-1,-1,-1,-1,-1,-1,-1,-1],"split_conditions":[-6.631697E-2,-2.0449351E-1,4.5724897E0,2.0856385E0,-4.95016E-1,-1.1216094E0,-8.941442E-2,1.3015615E0,-1.331365E-1,7.787545E-1,-1.5382121E0,8.35039E-3,-2.2805893E0,-2.0424771E0,-1.1216607E-1,-3.321728E-1,-7.240654E-1,-9.9277407E-1,1.4061234E0,3.3875293E-4,7.4296074E0,-8.407128E-1,2.6717749E0,-5.1298845E-1,1.345491E0,1.9199939E-1,3.3006042E-1,-1.3935606E-1,3.3097606E-2,-1.8662676E-1,-1.3536415E0,1.611877E-1,1.21526994E-1,1.44374175E-2,-1.1054699E-1,1.5957798E-1,-3.628213E-2,1.5370038E-1,3.9455686E-2,2.243549E-2,-1.2905842E-1,-1.5025595E-1,-6.870784E-2,8.18744E-2,-9.3050905E-2,1.2565334E-1,4.4188082E-2,1.0542277E-1,-9.899611E-2,1.1050003E-1,-2.2335198E-2],"split_indices":[1,7,6,2,3,11,0,18,0,7,17,0,16,16,0,13,8,12,12,0,2,7,19,19,14,10,14,0,0,9,11,0,10,0,0,0,0,0,0,0,0,0,0,0,0,0,0,0,0,0,0],"split_type":[0,0,0,0,0,0,0,0,0,0,0,0,0,0,0,0,0,0,0,0,0,0,0,0,0,0,0,0,0,0,0,0,0,0,0,0,0,0,0,0,0,0,0,0,0,0,0,0,0,0,0],"sum_hessian":[2.395517E2,1.463244E2,9.3227295E1,4.419807E1,1.02126335E2,9.168379E1,1.5435021E0,4.218205E1,2.0160224E0,3.6412388E1,6.571394E1,1.5882977E0,9.00955E1,4.0010525E1,2.171526E0,1.7555466E1,1.8856922E1,5.570956E0,6.014299E1,1.1469828E0,8.894852E1,2.213795E0,3.779673E1,6.3559704E0,1.1199495E1,1.5758939E1,3.097984E0,3.9433272E0,1.6276292E0,4.680546E1,1.3337527E1,8.636193E1,2.5865848E0,1.1844894E0,1.0293056E0,3.6732937E1,1.0637907E0,4.5403686E0,1.8156021E0,7.733428E0,3.4660673E0,1.1083033E1,4.6759057E0,1.2637883E0,1.8341957E0,1.8961544E1,2.784392E1,4.120414E0,9.2171135E0,1.4283754E0,1.1582096E0],"tree_param":{"num_deleted":"0","num_feature":"21","num_nodes":"51","size_leaf_vector":"1"}},{"base_weights":[-1.5835905E-1,-2.7779818E-2,-4.6227908E-1,-2.7125746E-1,1.3797249E-1,-4.940133E-1,-1.069886E-2,-6.7553595E-2,-3.687134E-1,8.335029E-2,5.1604855E-1,4.238336E-2,-1.5392518E-1,-1.0392779E-1,1.1966938E-1,-3.0851233E-1,1.6747051E-1,-4.5743352E-1,7.936587E-2,2.1787372E-1,5.030113E-2,5.717587E-1,1.2795888E-2,-1.0836173E-1,-1.3591048E-1,-9.316565E-2,2.872741E-1,-4.8562977E-1,3.802703E-2,3.7601402E-1,-2.6554605E-1,-7.204491E-2,1.833504E-1,1.9857481E-1,5.9099924E-2,3.676281E-2,-1.130857E-1,1.3622797E-1,-6.461486E-2,-1.5095828E-1,-4.4943127E-3,1.1270401E-2,1.467095E-1,-1.0322417E-1,-1.2370273E-2,-1.0831539E-1,2.8143879E-2,1.0337479E-1,1.5488489E-3],"categories":[],"categories_nodes":[],"categories_segments":[],"categories_sizes":[],"default_left":[0,0,0,0,0,0,0,0,0,0,0,0,0,0,0,0,0,0,0,0,0,0,0,0,0,0,0,0,0,0,0,0,0,0,0,0,0,0,0,0,0,0,0,0,0,0,0,0,0],"id":25,"left_children":[1,3,5,7,9,11,13,15,17,19,21,-1,-1,-1,-1,23,25,27,29,-1,31,33,-1,35,-1,-1,37,39,-1,41,43,45,47,-1,-1,-1,-1,-1,-1,-1,-1,-1,-1,-1,-1,-1,-1,-1,-1],"loss_changes":[6.918103E0,5.0103745E0,7.4595356E-1,9.7260594E-1,1.484709E0,6.6563225E-1,7.5206655E-1,1.0418274E0,1.3784971E0,1.3621888E0,2.1681786E-1,0E0,0E0,0E0,0E0,2.1081215E-1,6.332303E-1,5.2821445E-1,7.579885E-1,0E0,1.049904E0,1.4335847E-1,0E0,3.6136246E-1,0E0,0E0,7.7828324E-1,2.175889E-1,0E0,1.2973416E-1,4.8531294E-2,1.6586287E0,8.828306E-1,0E0,0E0,0E0,0E0,0E0,0E0,0E0,0E0,0E0,0E0,0E0,0E0,0E0,0E0,0E0,0E0],"parents":[2147483647,0,0,1,1,2,2,3,3,4,4,5,5,6,6,7,7,8,8,9,9,10,10,15,15,16,16,17,17,18,18,20,20,21,21,23,23,26,26,27,27,29,29,30,30,31,31,32,32],"right_children":[2,4,6,8,10,12,14,16,18,20,22,-1,-1,-1,-1,24,26,28,30,-1,32,34,-1,36,-1,-1,38,40,-1,42,44,46,48,-1,-1,-1,-1,-1,-1,-1,-1,-1,-1,-1,-1,-1,-1,-1,-1],"split_conditions":[-6.631697E-2,1.4510559E-1,1.9264048E0,-7.240654E-1,1.1910979E0,-1.1216094E0,5.1739946E-2,-6.8537015E-1,1.5338683E0,9.513081E-2,2.0237138E0,4.238336E-2,-1.5392518E-1,-1.0392779E-1,1.1966938E-1,-4.95016E-1,7.2091633E-1,1.5884881E0,1.9205884E0,2.1787372E-1,7.787545E-1,1.1222357E0,1.2795888E-2,2.1098084E0,-1.3591048E-1,-9.316565E-2,1.7041644E0,6.4525385E0,3.802703E-2,1.0724893E0,-9.56389E-1,8.9340055E-1,1.1257832E0,1.9857481E-1,5.9099924E-2,3.676281E-2,-1.130857E-1,1.3622797E-1,-6.461486E-2,-1.5095828E-1,-4.4943127E-3,1.1270401E-2,1.467095E-1,-1.0322417E-1,-1.2370273E-2,-1.0831539E-1,2.8143879E-2,1.0337479E-1,1.5488489E-3],"split_indices":[1,18,19,8,13,11,2,14,11,0,11,0,0,0,0,3,7,7,11,0,7,20,0,9,0,0,7,2,0,15,7,18,7,0,0,0,0,0,0,0,0,0,0,0,0,0,0,0,0],"split_type":[0,0,0,0,0,0,0,0,0,0,0,0,0,0,0,0,0,0,0,0,0,0,0,0,0,0,0,0,0,0,0,0,0,0,0,0,0,0,0,0,0,0,0,0,0,0,0,0,0],"sum_hessian":[1.7364613E2,1.22224E2,5.142213E1,4.9247143E1,7.297686E1,4.7957977E1,3.4641526E0,1.6484392E1,3.276275E1,6.4830925E1,8.145932E0,1.2109237E0,4.6747055E1,1.9885001E0,1.4756526E0,7.9850388E0,8.499354E0,2.7330423E1,5.4323263E0,2.1442752E0,6.268665E1,7.102333E0,1.0435989E0,4.0818453E0,3.9031932E0,1.3841887E0,7.115165E0,2.6232988E1,1.097436E0,2.8720179E0,2.5603085E0,3.289574E1,2.979091E1,5.1073837E0,1.9949496E0,2.4872985E0,1.5945469E0,5.414758E0,1.7004071E0,2.5222538E1,1.0104504E0,1.0525194E0,1.8194984E0,1.500889E0,1.0594195E0,1.1565699E1,2.133004E1,1.5149309E1,1.46416025E1],"tree_param":{"num_deleted":"0","num_feature":"21","num_nodes":"49","size_leaf_vector":"1"}},{"base_weights":[-2.8768852E-1,3.445409E-1,-3.6801425E-1,-7.5945236E-2,4.3086004E-1,-4.5127E-1,1.1222918E-1,-1.05794944E-1,8.836859E-2,1.5342858E-1,4.34018E-2,-4.7495046E-1,2.9519373E-1,1.8877064E-1,3.1419066E-3,-8.619514E-2,1.0299304E-1,-5.043231E-1,-2.151953E-2,-2.4148762E-2,1.4378227E-1,-1.8355942E-1,2.5875375E-1,4.3109015E-2,-1.5475577E-1,-1.08433194E-1,1.4779599E-1,-3.413003E-1,7.949419E-2,4.5565635E-1,-1.0138341E-1,1.452911E-1,-6.761328E-2,-1.3523836E-1,5.5571623E-2,1.6384369E-1,5.826714E-2],"categories":[],"categories_nodes":[],"categories_segments":[],"categories_sizes":[],"default_left":[0,0,0,0,0,0,0,0,0,0,0,0,0,0,0,0,0,0,0,0,0,0,0,0,0,0,0,0,0,0,0,0,0,0,0,0,0],"id":26,"left_children":[1,3,5,7,9,11,13,-1,-1,-1,15,17,19,-1,21,-1,-1,23,25,-1,-1,27,29,-1,-1,-1,31,33,-1,35,-1,-1,-1,-1,-1,-1,-1],"loss_changes":[7.072238E0,6.110519E-1,4.921774E0,4.6926028E-1,3.951652E-1,1.9790802E0,1.0583736E0,0E0,0E0,0E0,4.3530053E-1,1.3371582E0,3.0244142E-1,0E0,8.363675E-1,0E0,0E0,7.8398895E-1,4.6793717E-1,0E0,0E0,8.077158E-1,1.0225334E0,0E0,0E0,0E0,8.0199254E-1,5.411078E-1,0E0,3.5490513E-2,0E0,0E0,0E0,0E0,0E0,0E0,0E0],"parents":[2147483647,0,0,1,1,2,2,3,3,4,4,5,5,6,6,10,10,11,11,12,12,14,14,17,17,18,18,21,21,22,22,26,26,27,27,29,29],"right_children":[2,4,6,8,10,12,14,-1,-1,-1,16,18,20,-1,22,-1,-1,24,26,-1,-1,28,30,-1,-1,-1,32,34,-1,36,-1,-1,-1,-1,-1,-1,-1],"split_conditions":[-1.5382121E0,-1.9155885E0,1.3571357E0,1.4004217E0,2.2339752E0,3.342042E0,-1.023847E0,-1.05794944E-1,8.836859E-2,1.5342858E-1,8.583764E-1,2.9567537E0,1.0344632E0,1.8877064E-1,1.8776786E0,-8.619514E-2,1.0299304E-1,-2.0424771E0,-4.0754902E-1,-2.4148762E-2,1.4378227E-1,3.342042E0,-1.566679E-1,4.3109015E-2,-1.5475577E-1,-1.08433194E-1,-3.1616288E-1,1.5750599E0,7.949419E-2,1.8297553E0,-1.0138341E-1,1.452911E-1,-6.761328E-2,-1.3523836E-1,5.5571623E-2,1.6384369E-1,5.826714E-2],"split_indices":[17,0,7,4,8,9,14,0,0,0,3,6,12,0,7,0,0,16,0,0,0,9,3,0,0,0,16,12,0,9,0,0,0,0,0,0,0],"split_type":[0,0,0,0,0,0,0,0,0,0,0,0,0,0,0,0,0,0,0,0,0,0,0,0,0,0,0,0,0,0,0,0,0,0,0,0,0],"sum_hessian":[1.3576361E2,1.4933711E1,1.208299E2,2.5639813E0,1.236973E1,1.0302897E2,1.7800938E1,1.4953852E0,1.068596E0,9.975462E0,2.394268E0,1.0021358E2,2.8153956E0,2.270759E0,1.5530178E1,1.1586117E0,1.2356564E0,9.4011406E1,6.2021713E0,1.1108919E0,1.7045037E0,9.137756E0,6.392422E0,1.4430025E0,9.25684E1,1.6848549E0,4.5173163E0,6.9371953E0,2.2005608E0,4.984104E0,1.4083179E0,2.218761E0,2.2985554E0,5.862034E0,1.0751613E0,2.8935235E0,2.0905807E0],"tree_param":{"num_deleted":"0","num_feature":"21","num_nodes":"37","size_leaf_vector":"1"}},{"base_weights":[2.4774048E-1,1.14552766E-1,4.784908E-1,3.4003288E-1,2.458063E-2,4.9695304E-1,-8.180402E-2,3.9001876E-1,-1.230474E-1,-6.789584E-2,1.9402884E-1,5.078258E-1,5.142486E-4,4.4487685E-1,-9.623218E-2,1.0238873E-1,-2.1189731E-1,-3.1799123E-1,2.6472443E-1,1.5773761E-1,1.8348816E-1,-1.751135E-1,4.931823E-1,4.005177E-1,-6.632863E-2,-2.867089E-1,3.830512E-2,-1.2403309E-1,-8.677423E-3,-2.677372E-1,3.494711E-1,1.1506268E-1,-7.0257194E-2,2.4591913E-2,-1.0196873E-1,1.5516555E-1,-1.6582951E-2,1.4691174E-1,-3.674996E-2,-4.4818453E-2,1.0316329E-1,-2.8631613E-2,-1.2057505E-1,6.436162E-2,-1.1201277E-1,-1.515371E-1,4.3653138E-2,3.468637E-2,1.2888372E-1,-4.037143E-3,-2.8043013E-2],"categories":[],"categories_nodes":[],"categories_segments":[],"categories_sizes":[],"default_left":[0,0,0,0,0,0,0,0,0,0,0,0,0,0,0,0,0,0,0,0,0,0,0,0,0,0,0,0,0,0,0,0,0,0,0,0,0,0,0,0,0,0,0,0,0,0,0,0,0,0,0],"id":27,"left_children":[1,3,5,7,9,11,-1,13,-1,15,17,19,-1,21,-1,23,25,27,29,-1,31,33,35,37,39,41,43,-1,-1,45,47,-1,49,-1,-1,-1,-1,-1,-1,-1,-1,-1,-1,-1,-1,-1,-1,-1,-1,-1,-1],"loss_changes":[6.1261883E0,2.605237E0,1.1518764E0,1.5349398E0,1.4730601E0,3.8619232E-1,0E0,1.5031209E0,0E0,1.5177898E0,1.2842155E0,3.133793E-1,0E0,1.0689325E0,0E0,1.4665987E0,6.3584757E-1,1.115537E-1,1.4326768E0,0E0,2.9231912E-1,1.5958658E-1,4.3328762E-1,5.492501E-1,7.035742E-1,5.305364E-1,7.0160127E-1,0E0,0E0,5.287721E-1,4.3825197E-1,0E0,2.8962074E-3,0E0,0E0,0E0,0E0,0E0,0E0,0E0,0E0,0E0,0E0,0E0,0E0,0E0,0E0,0E0,0E0,0E0,0E0],"parents":[2147483647,0,0,1,1,2,2,3,3,4,4,5,5,7,7,9,9,10,10,11,11,13,13,15,15,16,16,17,17,18,18,20,20,21,21,22,22,23,23,24,24,25,25,26,26,29,29,30,30,32,32],"right_children":[2,4,6,8,10,12,-1,14,-1,16,18,20,-1,22,-1,24,26,28,30,-1,32,34,36,38,40,42,44,-1,-1,46,48,-1,50,-1,-1,-1,-1,-1,-1,-1,-1,-1,-1,-1,-1,-1,-1,-1,-1,-1,-1],"split_conditions":[-6.631697E-2,-2.0449351E-1,4.5724897E0,2.0856385E0,5.200283E-1,1.710209E0,-8.180402E-2,1.3015615E0,-1.230474E-1,7.2091633E-1,-9.9277407E-1,1.3410176E0,5.142486E-4,-2.0424771E0,-9.623218E-2,-2.7575538E-1,-7.240654E-1,-1.2174485E0,1.425352E-1,1.5773761E-1,1.0962672E0,2.6188693E0,2.5701334E0,2.5018826E0,1.9047782E0,2.6145816E-1,1.3410176E0,-1.2403309E-1,-8.677423E-3,-5.776105E-1,-9.5160705E-1,1.1506268E-1,-1.950285E-1,2.4591913E-2,-1.0196873E-1,1.5516555E-1,-1.6582951E-2,1.4691174E-1,-3.674996E-2,-4.4818453E-2,1.0316329E-1,-2.8631613E-2,-1.2057505E-1,6.436162E-2,-1.1201277E-1,-1.515371E-1,4.3653138E-2,3.468637E-2,1.2888372E-1,-4.037143E-3,-2.8043013E-2],"split_indices":[1,7,6,2,3,12,0,18,0,7,12,6,0,16,0,13,8,10,7,0,8,15,19,9,0,9,6,0,0,1,8,0,18,0,0,0,0,0,0,0,0,0,0,0,0,0,0,0,0,0,0],"split_type":[0,0,0,0,0,0,0,0,0,0,0,0,0,0,0,0,0,0,0,0,0,0,0,0,0,0,0,0,0,0,0,0,0,0,0,0,0,0,0,0,0,0,0,0,0,0,0,0,0,0,0],"sum_hessian":[2.0011864E2,1.278315E2,7.228714E1,3.5666924E1,9.216457E1,7.08834E1,1.4037378E0,3.388898E1,1.7779453E0,6.001219E1,3.2152378E1,6.933575E1,1.547649E0,3.1808178E1,2.0808032E0,2.7629152E1,3.238304E1,3.4763718E0,2.8676008E1,6.5108055E1,4.2276964E0,2.1093957E0,2.9698782E1,9.488598E0,1.8140553E1,2.4816805E1,7.566235E0,2.2899406E0,1.1864312E0,3.6409187E0,2.503509E1,2.0779254E0,2.149771E0,1.0202229E0,1.0891728E0,2.8506447E1,1.1923349E0,8.160681E0,1.3279172E0,1.5614453E1,2.5261E0,1.0016177E1,1.4800628E1,5.633501E0,1.9327343E0,2.1713052E0,1.4696137E0,7.013275E0,1.8021814E1,1.0821514E0,1.0676196E0],"tree_param":{"num_deleted":"0","num_feature":"21","num_nodes":"51","size_leaf_vector":"1"}},{"base_weights":[-1.3354969E-1,-1.8458575E-2,-4.4160357E-1,-2.4347872E-1,1.24271356E-1,-4.8038864E-1,2.362584E-2,-3.0234903E-1,6.972436E-2,1.4981317E-2,3.1049877E-1,3.812692E-2,-1.5119877E-1,1.1311411E-1,-9.5888115E-2,